SVM-light Version V6.02
0 # kernel type
3 # kernel parameter -d 
1 # kernel parameter -g 
1 # kernel parameter -s 
1 # kernel parameter -r 
empty# kernel parameter -u 
101623 # highest feature index 
18457 # number of training documents 
5498 # number of support vectors plus 1 
0.46436226 # threshold b, each following line is a SV (starting with alpha*y)
-0.00042345395701219606552842544822113 24:1 25:1 28:5 29:2 30:4 4043:1 7697:1 10494:1 10573:1 10580:1 13736:1 14405:1 15067:1 15551:1 15574:1 16070:1 17830:1 26243:1 27282:1 27462:1 27487:1 31638:1 31748:2 33375:1 36096:1 37927:1 38630:2 41277:1 41548:1 41549:1 42428:1 43886:1 46316:2 47040:1 47173:1 48862:2 49183:1 49905:2 51972:1 57578:1 59435:1 59763:1 59962:1 60769:1 62776:1 62777:1 63146:1 66042:1 67104:2 67596:2 68008:6 70654:1 72044:1 73016:1 73733:1 74136:3 75909:1 76802:1 77691:1 78518:1 78782:1 82898:1 90622:2 90718:1 91437:4 92045:1 97627:1 98164:2 98462:1 99622:1 100607:3 100640:1 #
-0.00042345395701219606552842544822113 22:1 24:1 25:1 26:28 28:8 29:1 30:8 31:3 2291:1 3143:1 3168:1 3270:1 7061:1 8761:1 10494:2 10572:1 10573:1 12990:1 13858:1 13963:3 14186:1 15737:1 15886:2 16282:2 16464:1 21535:2 21748:1 22262:1 23173:1 23351:1 23481:1 26907:2 31324:1 32521:1 33743:2 35288:2 35295:1 35587:1 36599:3 38391:1 39723:1 40355:4 41277:1 42059:1 42549:1 47951:1 48388:1 48862:1 53340:1 54085:1 59154:1 60558:1 63277:1 64378:1 66172:1 67104:4 68551:1 70900:1 73602:3 76402:1 77092:1 78594:1 79000:1 80110:1 81041:1 84268:1 85826:1 87050:1 90313:1 90468:4 91437:1 93217:1 94258:1 94972:2 97730:1 98164:1 98729:1 100607:1 #
0.00042345395701219606552842544822113 17:1 28:2 30:3 10499:1 10573:1 13736:1 18555:1 21748:1 41277:1 43554:1 46316:1 47220:1 49905:1 53824:1 61891:1 62945:1 64809:2 67080:1 68551:1 70139:1 77691:1 81509:1 84376:1 85278:2 96452:1 97627:1 98093:1 100607:1 100640:2 #
0.00042345395701219606552842544822113 18:2 23:2 24:1 25:1 28:7 30:16 34:2 3020:1 3718:1 4286:1 10499:1 10572:1 10573:1 10580:2 11146:1 12690:3 13360:1 13607:1 13858:5 15231:1 15253:1 15454:1 15571:1 15732:1 15733:3 16843:1 18038:1 18073:1 18183:1 19670:1 20744:1 21562:1 21600:1 21748:1 22262:1 23913:1 26078:1 26400:1 27267:1 27462:1 28375:1 30229:1 30441:1 30575:1 31161:1 31748:1 33449:1 33847:1 35694:1 36096:2 38102:1 39361:4 39363:1 39524:2 41277:4 41299:1 41548:1 41731:1 42059:4 42467:1 42589:2 44386:1 44496:1 45950:1 46316:1 46463:1 46927:1 47962:1 48539:1 48862:3 49183:1 49780:1 49905:4 50755:1 51550:1 52059:1 53340:3 55722:2 56173:1 56930:1 56951:1 60769:1 61798:1 62031:1 63146:1 63296:1 63491:2 64129:5 64809:1 65128:1 66172:2 67104:4 67437:1 67596:1 67616:1 68051:2 69632:2 70793:1 72044:3 75140:1 76833:1 78389:2 78518:1 80869:2 82708:1 84367:1 85278:1 85368:1 85549:1 86748:1 88065:1 90433:1 90446:1 90468:3 90511:1 90718:3 90794:1 90818:1 91437:7 92192:1 93149:2 94829:1 97417:1 98462:2 98729:1 99333:1 100336:1 100607:3 100640:6 #
0.00042345395701219606552842544822113 17:1 22:2 30:3 31:3 4043:1 5296:1 6095:1 8842:1 9810:1 10494:3 10497:2 10499:1 10573:1 10580:1 10854:1 11090:1 11563:1 12530:1 12589:1 12824:1 14077:1 16256:1 16276:1 16903:1 17000:1 20287:1 20298:1 20727:1 21500:1 22066:1 23507:1 23527:1 23733:1 23944:1 24074:1 25050:1 25252:1 25698:1 26078:1 26588:1 26891:1 27365:1 27552:1 27907:1 29396:1 30087:1 30720:1 31047:1 31409:1 32533:1 33474:1 33967:1 40158:1 41085:1 41277:2 41941:1 42059:1 43761:1 44218:1 46719:1 46927:1 47473:1 47684:1 48388:1 49022:1 49183:1 49780:1 50533:1 50567:1 50638:2 51602:1 52240:1 52306:1 52466:1 55354:1 56237:1 56371:1 56827:1 57241:1 57470:1 57927:1 59164:1 60398:1 60602:1 60657:1 61749:1 63146:1 63984:1 64145:1 66013:1 66042:1 67602:1 68709:1 69807:1 69858:1 71061:1 71461:1 72044:1 72558:1 75313:1 75331:1 80558:1 81032:1 81136:1 81685:1 83282:1 83307:1 84097:1 85807:1 87399:1 88677:1 90468:1 90570:1 90718:1 91437:1 93196:1 94158:1 96288:1 97730:1 99529:1 99622:1 100229:1 #
0.00042345395701219606552842544822113 20:1 27:1 31:1 3966:1 8843:1 10494:1 10573:1 10590:1 15454:2 16662:1 17429:1 22994:1 25283:1 26417:1 30555:1 32110:1 33401:1 41277:1 41543:1 46927:1 48499:1 50679:1 52059:2 57373:1 57460:1 58446:1 61798:1 67138:1 67160:1 68111:1 73754:1 74163:2 79474:1 81086:1 83991:1 85278:1 86531:1 87124:1 90400:1 90468:2 91069:1 92692:1 95303:1 98559:1 99960:2 #
0.00042345395701219606552842544822113 17:1 27:2 28:5 29:4 30:6 31:8 33:1 293:1 348:1 527:1 795:1 1076:1 2867:1 3606:1 3966:1 5975:1 8477:1 8843:1 10213:1 10494:11 10572:1 10573:1 10580:2 11548:1 13514:1 13736:1 13858:1 15359:1 15454:3 15886:2 16346:1 17830:1 20443:1 23320:1 26078:2 26523:1 27462:1 27538:1 30521:1 30555:1 33375:3 36096:1 37749:1 40256:1 41277:2 41971:1 42285:1 43277:1 44743:1 48388:1 48929:1 49973:1 50585:1 50638:1 52059:5 56717:1 57373:1 58446:2 61026:1 61431:2 62680:1 64809:1 65145:2 66042:2 66070:1 67104:3 67138:1 67160:1 69141:1 71264:1 72044:1 72974:1 73166:1 73760:1 74163:2 78389:2 82219:1 82353:1 82956:1 82957:1 83760:1 85278:3 86766:1 87124:1 87919:1 90116:1 90400:1 90468:4 90718:4 91069:1 91093:1 91437:1 91687:1 92093:1 93985:1 94227:1 94829:1 95303:1 98559:1 99529:2 99960:2 100168:3 100544:1 100590:2 #
0.00042345395701219606552842544822113 29:6 30:1 1049:1 5866:1 6758:1 7165:1 7203:1 9419:1 10494:3 10572:1 10573:1 11537:1 11858:1 13985:1 14230:1 14580:1 14658:1 15292:1 15682:1 16334:1 17512:1 19359:1 21056:1 23507:1 25362:1 26078:1 28846:1 31880:1 32060:1 32793:1 34142:1 36096:1 39271:1 41893:1 44016:1 45883:1 51317:1 51670:1 55042:1 59087:1 62007:1 62680:1 66822:1 66908:1 70781:1 70886:1 71264:1 72228:1 73739:1 75753:1 77948:1 85001:1 86989:1 88903:1 90847:1 94632:1 94784:1 95473:1 98552:1 #
0.00042345395701219606552842544822113 20:2 30:4 773:2 1190:2 5245:1 10499:3 10573:1 15886:2 20028:1 21600:1 24664:1 33375:1 33752:2 38704:1 41277:1 50164:1 52235:2 57241:1 57559:1 58446:1 66172:1 68111:1 70551:2 72791:1 73760:1 76854:1 78150:1 79466:1 83085:1 90786:1 91093:1 91437:3 91651:1 92789:1 93790:1 96067:2 97311:1 97417:1 97543:1 100607:1 100640:1 #
0.00042345395701219606552842544822113 21:1 28:18 29:22 30:19 527:1 529:1 1190:1 1541:1 2274:1 2275:1 2867:1 3374:1 4043:1 10494:2 10573:1 10580:1 10991:1 11048:1 11146:1 12051:1 12432:1 12441:1 12495:1 13360:1 13736:1 13858:1 14192:1 14405:1 14538:1 14576:1 14682:1 14694:1 15454:2 16125:1 16738:1 17813:1 17830:1 18814:1 19264:1 21124:1 21727:1 21743:1 21745:1 21748:1 22109:1 22262:2 22371:1 23193:1 23358:1 24774:1 25511:1 26400:1 28268:1 28567:1 29178:1 29565:1 29657:1 29746:1 30330:1 30333:1 30621:1 30932:1 31968:1 32017:1 33278:1 33359:1 33516:1 34167:1 34429:1 34825:1 35467:1 36290:1 36651:1 37033:1 37110:1 37252:1 37304:1 38047:1 38145:1 39062:1 39663:1 39724:1 39771:1 39785:1 39807:1 40519:1 40631:1 40657:1 40669:1 41117:1 41277:2 41846:1 42467:1 42505:1 42621:1 43051:1 43058:1 43069:1 43197:1 43627:1 43915:1 44033:1 44172:1 44264:1 45013:1 45172:1 45338:1 45443:1 45513:1 45519:1 46327:1 46431:1 46783:1 47124:1 47387:1 47517:1 48191:1 48213:1 48239:1 48295:1 48660:1 48696:1 48860:1 48862:3 48955:1 48960:1 49002:1 49155:1 49172:1 49183:1 49204:1 49223:1 49277:1 49281:1 49584:1 49905:1 51077:1 51469:1 52042:1 52059:1 52235:1 52293:1 52414:1 52770:1 52808:1 52887:1 53062:1 53078:1 53560:1 53570:1 53626:1 53858:1 53915:1 53923:1 53942:1 54245:1 54320:1 54672:1 54875:1 54880:1 54933:1 55031:1 55129:1 55349:1 55854:1 56275:1 56381:1 56400:1 56951:1 57153:1 57867:1 57874:1 57924:1 58494:1 58583:1 58601:1 58896:1 58972:1 59564:1 60396:2 60712:1 60768:1 61720:1 62526:1 62561:1 62628:1 62641:1 62654:1 62669:1 62670:1 62904:1 63481:1 63489:1 63499:1 63659:1 64916:1 65582:1 65585:1 65601:1 65604:1 65673:1 66261:1 66277:1 66542:1 66566:1 66595:1 67104:3 67108:1 67301:1 67338:1 67760:1 67793:1 67866:1 68056:1 68268:1 68309:1 68551:1 68947:1 68956:1 69287:1 69620:1 70980:1 71264:1 72030:1 72044:3 72826:1 73088:1 73162:1 74632:2 74639:1 75248:1 75303:1 75323:1 75386:1 75410:1 75457:1 75471:1 75499:1 75615:1 75668:1 75685:1 76031:1 76056:1 76059:1 76091:1 76099:1 76134:2 77232:1 77995:1 78507:1 78519:1 79551:1 79691:1 79694:1 79802:1 79828:1 80394:1 80456:1 80483:1 80692:1 80760:1 80766:1 80800:1 80801:1 80858:1 82214:1 82218:1 82842:1 84264:1 84268:1 85152:1 85173:1 85239:1 85549:1 88605:1 89167:1 89212:1 89233:1 89586:1 89635:1 89681:2 90446:1 90468:3 90718:1 90732:1 91042:1 91093:1 91371:1 91437:3 91919:1 91932:1 91960:1 92835:1 93325:1 93491:1 93571:1 93628:1 93690:1 94743:1 95051:1 95056:1 95073:1 95084:1 95137:1 95160:1 95166:1 95588:1 95607:1 96672:1 96674:1 96727:1 96922:1 97010:1 97040:1 97041:1 97047:1 97579:1 97623:1 97627:1 98663:1 98729:2 98796:1 99262:1 99313:1 99346:1 99352:1 99427:1 99460:1 99514:1 99729:1 99730:1 99781:1 99898:1 99949:1 100073:1 100124:1 100143:1 100314:1 100336:1 100339:1 100346:1 100405:1 100420:1 100457:1 100493:1 100536:1 100607:5 100640:1 100771:1 100837:1 100858:1 100861:1 100880:1 101021:1 101044:1 101109:1 101133:1 101208:1 101240:1 101294:1 101320:1 101344:1 101419:1 101474:1 101568:1 101603:1 #
-0.00042345395701219606552842544822113 23:2 29:2 30:2 6671:1 8089:1 9205:1 10494:1 10573:1 22109:1 29474:1 46316:1 46927:1 48703:1 49183:1 50585:1 51736:1 54504:1 54515:1 57578:1 60769:1 75909:1 76802:1 80869:2 90433:1 93117:1 100607:1 #
-0.00042345395701219606552842544822113 17:2 20:2 23:2 24:3 25:3 28:4 30:31 31:4 32:1 33:3 773:1 774:1 1190:1 1700:1 1949:1 2038:1 2274:2 2277:2 4044:1 4633:2 5245:1 6095:2 7061:1 7968:1 10494:5 10499:3 10573:1 10574:3 10576:3 10580:3 10787:1 10847:1 11055:1 11869:1 11880:1 12115:1 12185:2 12990:1 13191:1 13360:2 13858:5 14405:2 14694:1 15067:2 15886:3 17830:6 18243:2 19429:1 20987:1 22262:1 22792:5 22945:2 23840:2 25180:1 26078:4 26103:1 28372:6 28387:2 28390:1 28426:1 28769:1 29791:1 30229:1 30250:1 31748:1 32689:1 33514:1 33866:1 34549:1 36736:1 38452:1 38798:1 39524:1 39755:5 41277:9 41846:2 41981:1 42059:1 42304:1 43547:1 43715:1 44218:2 44290:1 44349:3 44350:4 44352:1 44386:1 44833:2 44866:2 45226:1 46225:1 46316:1 46971:1 47724:1 48388:1 49183:2 49506:3 49905:3 50057:1 50059:1 51070:1 51419:2 52059:5 52235:1 52959:2 53764:3 54777:1 56185:1 57584:1 59154:1 59421:1 60396:3 60780:2 60873:1 61166:1 61262:1 61798:1 62214:1 62921:1 63061:1 63146:1 64006:2 64809:1 65051:1 65911:1 66042:2 67104:5 67138:4 67341:2 67616:4 67698:2 68051:2 68478:1 68551:1 69636:1 70055:1 71997:2 72192:1 73594:1 73606:1 75146:1 75177:1 77084:1 77092:1 77384:1 77386:1 78533:1 78627:1 78853:1 80279:3 80869:2 81469:2 82435:1 82933:1 83796:1 85152:1 85354:1 85850:3 87390:1 88144:2 88971:1 89778:1 89806:2 90400:1 90426:1 90468:7 90622:1 90718:7 90818:1 90855:1 90914:1 91093:3 91437:10 94619:1 94652:1 95303:1 95366:1 95506:1 96171:1 97461:1 97627:1 98132:1 98462:3 98729:2 99529:1 100607:8 100640:2 #
0.00020647443091645865942407311877105 17:1 21:1 26:522 28:1 29:10 6095:1 7968:1 10494:1 10499:1 10573:1 13858:1 17830:1 21748:1 24693:1 29493:1 33375:1 33847:1 34229:1 38700:1 46767:1 59308:1 60963:1 61431:1 67596:1 68243:1 68551:1 72043:1 73760:1 76802:1 81509:1 83691:1 88551:1 91437:2 94619:1 96452:1 96600:1 97218:1 97310:1 98462:1 98729:1 100607:2 #
-0.00042345395701219606552842544822113 21:3 24:4 25:4 28:12 29:13 30:27 31:2 32:1 34:2 775:3 813:1 1824:1 1826:1 1828:1 1864:1 2291:1 4043:3 4044:1 5008:1 5343:1 6163:1 6933:1 7505:1 8089:2 8856:1 9205:1 10494:33 10495:11 10572:1 10573:1 10580:5 11346:1 11352:1 12990:1 13858:7 15454:1 16251:1 16337:5 16781:2 19698:1 20003:1 21562:3 21607:1 22266:2 25102:2 25577:2 25866:2 26078:1 26322:2 26388:1 26395:1 26400:7 28041:1 28051:2 28055:3 29858:3 30373:1 30454:1 31861:1 31973:1 32521:1 32527:4 32530:1 34277:1 35641:3 36096:1 36348:4 36838:2 36966:2 39111:1 39584:1 39739:1 41168:1 41173:1 41277:1 41362:2 46316:1 47711:2 48395:1 49905:1 49973:2 52201:5 53949:1 54176:2 55264:1 58599:3 58603:1 59358:2 59371:1 59560:1 59753:1 59816:1 62004:1 62213:1 62255:1 65145:1 65218:1 65683:8 66061:1 67104:2 67167:4 67596:1 67698:1 68974:1 69479:3 69495:1 69509:5 69610:3 72044:1 73399:1 74136:2 75850:2 77093:1 77299:1 77385:1 81427:1 82948:1 82956:1 83316:5 83332:1 84665:1 86533:1 86754:1 86832:1 88320:1 88891:1 89878:1 90446:1 90468:2 90622:1 91087:2 91437:2 94269:3 94286:4 94829:1 95366:5 97627:1 97926:1 98462:1 100378:3 #
0.00042345395701219606552842544822113 17:4 18:2 23:1 28:5 30:1 773:1 5245:1 6095:1 10499:3 10573:1 10580:1 11520:2 12990:1 13858:2 17830:1 18643:1 22262:1 24068:1 25252:1 28275:2 30838:1 33615:1 35405:1 38207:1 38542:1 46527:1 46927:1 47427:1 48201:2 49183:2 50151:1 52059:1 52235:1 54652:1 56093:1 57319:2 59406:1 59552:1 61198:1 61529:1 64550:1 66172:1 67596:1 68051:1 68478:1 68579:1 69243:1 70454:4 71906:1 75082:1 76802:1 79613:1 79801:1 80869:1 83782:2 84435:4 87498:1 88413:1 89051:1 89758:1 90446:1 90468:2 90663:1 90691:1 91437:6 92789:1 94632:1 97627:2 98093:1 98488:1 98755:1 99208:3 100607:6 100640:2 100671:1 #
-0.00042345395701219606552842544822113 17:4 19:1 20:2 23:3 24:3 25:3 28:8 29:4 30:7 31:1 774:2 1029:1 2514:1 3484:1 4044:1 4182:1 7246:2 7557:1 8089:3 9225:3 10494:1 10495:2 10572:1 10573:1 10578:215 10580:3 11869:2 12215:1 12990:1 13858:5 14143:2 14694:1 14815:1 14897:1 15886:4 17830:1 18017:1 19826:2 20166:1 20780:1 22059:1 22262:1 22597:2 24068:1 24332:1 26400:2 26531:1 28051:1 28663:3 28735:2 30141:1 33615:1 33683:1 34042:2 34725:1 35771:1 35951:1 36096:1 38213:1 38750:1 39584:2 41277:5 41424:1 42304:1 45325:2 45327:1 49905:2 49973:1 52235:1 52598:1 53362:1 53824:1 55041:2 59308:1 59421:1 59853:1 59930:1 60769:1 61165:2 62355:1 63277:1 64356:4 64990:1 64992:1 66172:1 67104:2 67124:1 67160:1 67596:1 68051:3 68163:1 68551:3 68579:1 69810:1 69813:1 71924:1 72732:1 73625:1 73857:1 73914:1 77730:1 78389:1 79925:1 80869:2 82353:1 82956:1 85152:1 86145:1 89051:1 90151:2 90400:2 90433:1 90468:7 90527:1 90718:2 90914:1 91437:4 94829:1 94856:1 96109:1 98268:2 98462:2 98729:2 99015:1 99057:1 100326:1 100607:1 100640:3 #
0.00042345395701219606552842544822113 17:2 28:2 29:7 30:9 31:8 4043:2 10494:3 10499:1 10573:1 11867:1 13206:3 17951:1 18243:1 19218:2 32830:1 34930:1 35704:1 36937:1 37406:1 41277:2 46927:1 47119:2 48355:1 48388:2 52059:2 57470:1 58333:1 59075:1 59471:1 61198:1 63834:2 65683:1 66633:1 67698:1 68206:1 68209:1 70520:1 72174:1 73462:1 73712:1 83085:1 85425:1 88300:1 90446:1 90468:2 91437:1 93643:1 94856:1 95027:1 97772:1 98268:1 98729:1 100640:1 #
-0.00042345395701219606552842544822113 17:2 23:1 28:1 29:2 30:1 10573:1 10580:1 13858:1 15571:1 15886:2 22109:1 29403:1 32273:1 36939:2 42059:1 42428:1 42896:1 43554:1 43886:1 43889:1 46327:1 54210:2 56983:1 58159:2 58453:1 62921:1 65815:1 66083:1 67596:1 68051:1 68551:1 72044:1 76802:1 78050:1 86687:2 90433:1 90468:2 90527:1 91437:1 91565:1 94532:1 97627:1 #
-0.00042345395701219606552842544822113 28:2 29:2 30:2 3484:1 5831:1 6186:1 7495:1 8395:1 10573:1 13224:1 13514:1 21838:2 30402:2 36838:1 36919:1 41277:1 48862:1 49541:2 55708:1 59016:1 64081:1 65983:1 66425:1 70229:1 91476:1 100640:1 #
-0.00042345395701219606552842544822113 17:1 21:1 29:2 30:3 2277:2 10494:2 10573:1 13858:1 14622:1 14815:1 15574:1 17830:2 21600:1 28275:1 30189:1 33918:1 38347:1 39723:1 41277:1 44833:1 45057:2 46316:1 47245:1 48201:1 49905:2 51754:1 52617:1 52657:1 52855:1 58453:2 59860:2 68733:1 75898:2 91437:1 96775:1 100607:2 100640:2 #
-0.00042345395701219606552842544822113 17:4 23:3 28:13 29:48 30:25 31:7 32:1 5245:1 8844:1 10494:9 10572:2 10573:1 10580:1 11048:1 11067:2 11146:1 11544:1 12185:1 12990:1 13121:1 13858:1 14733:1 15067:3 16031:5 16618:1 17830:4 17924:1 18012:1 18054:1 18555:1 21748:2 22127:1 22262:2 22438:1 22450:1 22768:1 23117:1 23274:1 23514:1 26078:4 26652:1 26656:1 27149:1 27584:1 29405:1 30025:1 30141:1 30431:1 33248:1 33866:3 33868:2 34786:3 36490:1 36519:1 36712:1 40256:1 40274:1 40398:1 40535:1 41277:6 41549:2 41846:2 42059:4 43531:1 45320:1 45959:1 46225:1 46316:3 46783:1 48213:1 48388:2 48862:2 49047:1 49183:2 49905:2 49973:1 50084:1 51055:1 51419:2 52059:1 52235:1 52306:1 53789:13 54453:1 56185:2 57367:1 58419:1 59308:7 59312:2 59763:1 60384:2 60396:2 61165:1 61431:3 61435:6 62355:1 63676:1 64809:2 65145:4 65683:1 66042:2 66172:1 67104:5 67150:1 67596:3 67602:1 67672:1 68111:2 68551:2 69745:1 70073:1 72044:1 73716:1 74005:2 76802:1 76811:1 77092:1 77093:1 77099:2 77691:1 79000:1 79003:2 79573:1 80074:1 80869:2 82716:1 82933:1 82948:2 82956:1 84435:1 85152:1 85278:5 85452:1 87050:1 87730:1 88323:4 89162:1 89736:2 89744:1 90426:1 90446:1 90468:9 90527:1 90584:1 90622:2 90718:3 91437:14 91476:1 91651:2 92789:2 93721:2 94532:1 94648:3 94829:1 94867:1 94909:2 95894:5 96452:1 96462:1 97173:1 97627:3 97687:2 98132:1 98164:2 98347:1 98462:5 98729:3 99131:1 99529:2 100391:1 100607:18 100640:13 #
0.00032423877210857501417889947603612 18:2 20:12 21:6 22:1 24:12 25:29 28:85 29:22 30:90 31:5 33:2 34:3 225:1 773:4 774:3 776:4 1029:1 1190:1 1541:1 1697:1 2274:8 2275:2 2514:1 2909:2 3374:1 4043:3 4045:1 4832:1 4833:1 5245:1 6095:2 7061:1 7063:1 7968:1 8242:1 8412:1 8842:2 9501:1 10494:7 10495:2 10497:2 10573:1 10580:23 10847:2 10854:1 10931:1 11081:1 11084:11 11137:2 11142:1 11397:1 11520:1 11544:1 11551:1 11880:1 11918:1 12247:1 12259:1 12567:2 12990:12 13172:1 13191:1 13230:1 13241:8 13281:1 13620:2 13736:2 13858:59 14110:1 14405:4 14408:1 14682:1 14684:4 14688:1 14759:1 14783:1 14786:1 15067:20 15312:2 15454:15 15753:1 15886:16 16216:1 16346:1 16397:1 16398:3 16464:4 16781:4 17554:1 17830:36 17924:1 17951:2 18012:2 18038:1 18321:1 18534:2 18983:14 20732:2 21562:1 21600:3 21748:11 21831:3 22042:1 22262:8 22450:1 22764:1 22783:1 22850:6 23117:1 23118:3 23120:2 23598:1 23840:1 24048:1 24875:2 25577:1 25900:1 25947:1 26103:1 26263:1 26352:1 26395:1 26412:1 26413:1 26455:1 26532:1 26596:1 26603:1 26652:1 26730:2 26744:2 26951:1 27267:1 27278:1 27282:2 27412:2 27637:1 27731:11 27736:1 28073:1 28201:11 28387:1 28703:2 28707:1 29403:7 29405:1 29751:2 29842:2 29902:1 30141:2 30229:3 30250:1 30431:1 30441:3 30446:2 30575:1 30903:1 31124:1 31417:1 31558:2 31607:1 31621:1 31744:1 31748:2 31862:1 31868:1 31896:2 32250:1 32257:1 32271:1 32519:2 32649:1 32774:1 33068:1 33145:1 33449:1 33549:1 33632:2 33804:2 33847:1 34016:1 34029:1 34184:1 34393:4 34702:1 34713:1 34786:3 34846:1 34869:1 35115:1 35116:2 35430:1 35567:1 35694:1 35851:1 36519:1 36674:1 36709:1 36897:1 36962:1 37618:3 37780:1 37861:1 37862:1 38170:5 38207:5 38321:1 38602:3 38668:1 38700:2 38704:1 38752:1 38761:1 38909:1 39111:1 39142:1 39182:2 39412:1 39989:1 40211:1 40230:4 40234:3 40257:3 40272:2 40620:2 40631:1 40891:1 41173:2 41174:1 41175:1 41277:9 41374:1 42059:2 42428:4 42467:5 42571:1 43272:1 43277:1 43307:1 43886:1 44549:1 44722:4 44724:3 44844:1 45057:1 45636:1 45808:1 46045:1 46316:8 46327:1 46485:1 46560:1 46783:1 46836:2 46837:1 46942:3 47427:1 48213:1 48477:4 48862:3 49060:2 49183:3 49256:1 49309:1 49599:1 49780:1 49849:1 49905:44 50030:1 50060:1 50092:1 50137:1 50140:2 50151:3 50198:1 50240:1 50354:1 50405:2 50558:1 50814:4 50819:1 50884:1 51055:1 51056:2 51151:5 51218:1 51258:1 51333:2 51594:1 51597:4 51777:3 52059:21 52235:9 52306:2 52310:1 53371:1 54345:1 54739:1 54751:1 55092:1 56090:1 56304:1 56568:1 56909:1 56983:2 56988:3 57186:1 57188:1 57192:2 57193:4 57241:4 57319:1 57326:3 57418:2 57578:3 57687:2 58220:1 58333:3 58336:1 58339:1 58446:1 58453:2 58752:1 59146:1 59308:2 59330:1 59348:1 59406:3 59409:1 59421:1 59599:1 59692:1 59699:1 59749:2 59752:1 59937:3 60168:2 60396:10 60821:1 61529:1 61958:1 62031:3 62144:1 62302:1 62388:1 62715:1 62739:1 62744:1 62761:1 62762:2 62763:2 63146:19 63162:1 63277:1 63329:1 63336:4 63338:1 63834:1 64522:1 64736:1 64825:1 65145:8 65249:4 65505:2 65683:3 65820:1 66042:6 66061:1 66425:7 66433:1 66862:1 66863:1 66912:2 67104:81 67124:1 67160:1 67596:9 67616:4 67698:2 67734:1 67812:1 67845:1 68008:5 68051:9 68189:1 68478:3 68551:4 68563:1 68579:7 68611:1 68632:1 68665:2 68694:1 68725:9 69086:1 69509:1 69714:3 69775:1 69830:1 69901:9 69906:1 70078:1 70080:1 70311:1 70520:3 70551:9 70562:3 70563:2 70651:2 70785:2 70793:1 70818:1 71142:1 71363:1 71476:1 71479:1 71701:1 71855:1 71857:1 72007:1 72349:1 72351:1 72790:2 72936:1 73016:1 73185:1 73189:1 73274:2 73467:2 73594:2 73612:1 73664:1 73715:1 73754:2 73758:1 73914:1 73999:1 74038:2 74041:1 74120:4 74208:1 74291:1 74292:1 74296:1 74297:2 74425:1 74449:1 74450:1 74463:1 74558:3 74561:1 74632:1 74633:2 74654:1 74867:1 75793:1 76477:1 76593:2 76802:1 76887:1 76906:1 76968:1 77084:1 77092:1 77093:1 77461:3 77462:1 77464:1 77467:4 77543:1 77688:1 77735:2 77778:2 77909:1 77943:1 77945:1 77953:1 78213:1 78533:1 78544:1 78875:1 79476:1 79839:10 80281:1 80614:1 80869:1 80985:1 80988:8 81086:2 81093:1 81521:1 81522:1 82361:2 82716:1 82768:1 82992:1 83049:2 83324:1 83516:2 83760:2 84344:1 84435:3 85152:1 85452:3 85877:1 86729:1 86766:1 86792:1 86957:1 87061:1 87587:1 87830:2 87919:9 87962:1 88065:1 88379:2 89010:4 89233:1 89778:12 90038:1 90184:4 90424:14 90446:14 90468:129 90469:1 90511:1 90527:1 90541:1 90584:7 90591:2 90645:1 90689:1 90718:16 90783:2 90818:5 90888:1 91069:1 91093:3 91116:1 91437:45 91476:1 91871:1 92026:1 92100:1 92292:1 92340:1 92341:1 92350:1 92418:1 92536:1 93149:3 93190:1 93769:1 93899:3 93925:1 94145:1 94227:1 94309:1 94362:1 94477:1 94556:1 94829:18 94856:1 94878:1 94929:1 95004:1 95235:1 95366:5 95470:1 95653:6 95654:18 95655:2 95931:6 96047:3 97543:1 97627:11 97730:1 98132:3 98147:1 98164:4 98268:4 98462:35 98662:1 98729:9 98755:2 99074:1 99087:1 99119:3 99131:7 99158:4 99185:1 99622:2 100326:6 100330:1 100336:7 100607:2 #
0.00042345395701219606552842544822113 17:4 21:1 23:1 28:1 9502:1 10494:1 10573:1 11523:1 13858:1 14405:1 15886:1 18555:1 22262:1 22971:1 29474:1 29477:1 30431:1 32689:1 33509:1 41277:1 43531:1 46927:1 50638:1 52264:1 59564:1 63146:1 65145:1 66172:1 68551:1 72635:1 74120:1 74136:1 76583:1 77691:1 80869:1 83111:1 83691:1 85278:2 91437:1 94635:1 94829:1 95285:1 96452:1 97627:1 98729:1 100607:1 #
0.00042345395701219606552842544822113 23:2 28:1 29:1 30:11 31:4 3374:1 10494:1 10573:1 10580:1 12990:1 15454:1 17830:1 21600:1 21748:1 21831:1 26078:1 30521:1 36096:1 36314:1 36917:1 38210:1 40535:1 41991:1 46463:1 47108:1 47464:1 48388:1 48610:1 48862:2 52059:2 52135:1 52235:1 55414:2 59016:1 60769:1 64129:3 64356:2 67104:4 67672:1 68052:1 68579:2 71325:1 76868:1 77556:1 88641:1 89051:1 90400:1 90468:1 90718:1 91885:2 94532:1 94619:1 94856:1 94941:1 97730:1 97926:1 98132:1 98462:1 99529:1 100152:1 100607:1 101621:1 #
-0.00042345395701219606552842544822113 22:2 28:1 29:2 30:3 10573:1 10575:7 11721:1 13858:2 16843:1 16871:1 18012:1 21562:1 23974:1 24258:1 33395:3 33449:1 41173:1 43477:1 46316:1 49905:2 50585:1 52235:1 61013:2 61636:3 61659:1 66581:1 67160:1 67961:1 68163:1 72852:1 77363:1 78398:1 78410:2 80869:2 90468:1 #
-0.00042345395701219606552842544822113 17:1 18:6 23:6 28:4 29:7 30:18 31:9 1541:1 2274:2 3212:1 5160:1 7968:1 8089:1 9112:1 9501:1 10494:8 10497:132 10499:9 10572:2 10573:1 10578:19 10580:4 10847:1 13736:1 13858:7 14213:1 15067:1 15571:1 15574:1 18120:1 18994:2 19727:1 20534:1 21068:2 21454:1 21748:1 21831:1 22119:1 22371:1 24579:1 25252:1 26078:4 27425:1 30176:2 31951:1 32191:4 32595:1 33375:4 33514:1 34930:1 36096:2 36838:1 39142:1 40362:1 41277:1 41401:1 42059:2 43349:1 44249:4 44386:1 44549:1 44661:2 45407:3 46316:1 46519:1 46547:1 46601:1 46927:1 47339:6 48388:2 48492:1 48862:2 49183:1 49905:5 49973:1 51507:1 52371:1 53824:2 55968:1 59308:1 59421:1 59555:1 62094:1 64129:3 64356:1 64809:1 66042:1 66172:1 66633:1 68051:3 68551:4 69086:1 69769:1 70520:1 70596:1 73253:1 77107:1 77726:2 80869:2 81872:1 82448:1 82708:1 82768:1 84132:1 84258:1 85470:1 87219:1 87455:1 89051:5 89165:1 89292:1 90511:3 90540:1 90541:1 90718:3 91437:5 91544:1 91698:3 93018:1 93332:1 94491:2 94619:1 96666:1 97310:5 97417:3 97554:1 97627:9 98093:1 98132:1 98268:1 98316:1 98334:1 98462:4 99529:1 100336:1 100398:1 100640:1 #
-0.00042345395701219606552842544822113 17:4 22:1 23:2 24:1 25:1 26:15 28:1 29:8 30:7 31:3 773:1 774:1 2274:1 2277:1 4043:1 4168:1 5245:1 9512:1 10494:8 10572:5 10573:1 10578:164 10580:2 11570:1 12185:1 13360:1 13858:1 14405:1 15067:1 15454:1 16216:2 16843:1 18120:1 19355:1 22792:1 25442:1 26078:2 28426:1 29405:1 30229:1 31951:1 34786:1 36096:3 36838:1 38210:1 38754:1 39781:2 41277:2 41846:3 44349:1 44866:2 48355:1 48388:1 50258:1 52235:1 54777:1 59308:1 61166:1 63146:1 66042:1 67104:2 67138:2 67150:3 68004:1 68478:1 68551:1 68579:1 69697:1 69769:1 71991:1 71997:4 72007:1 73594:1 73857:1 74365:1 78247:1 78533:1 80869:2 82708:1 87784:1 90433:1 90468:1 90718:2 91437:4 92851:1 94491:1 95303:1 96209:1 96452:1 98729:1 99529:1 100607:1 101623:16 #
-0.00042345395701219606552842544822113 17:2 22:1 23:2 24:6 25:6 28:4 29:7 30:59 33:1 773:1 774:1 1029:2 1190:1 1541:1 1697:1 1837:1 1949:1 2038:1 2140:1 2268:1 2275:1 3020:1 3021:1 3143:2 3270:2 3374:1 3423:1 3484:1 3606:1 3718:1 3885:1 3914:1 3966:1 4043:3 4044:2 4168:1 4285:1 4373:1 4521:1 4633:1 4766:1 4894:2 5007:1 5106:1 5245:1 5246:1 5342:1 5443:1 5514:1 5603:1 5696:1 5798:1 5880:1 5975:1 6047:1 6095:1 6096:1 6241:1 7061:1 7968:3 8842:1 9501:1 10494:31 10499:22 10573:1 10580:7 10847:1 11081:1 12172:1 12990:2 13040:1 13514:1 13858:5 14138:1 14217:1 14363:1 14625:1 14694:1 15067:2 16843:1 16925:1 17983:1 17991:1 18012:5 18038:1 18192:1 18273:1 19144:1 19185:1 19571:1 19591:1 19954:2 20072:1 20724:1 20947:1 20970:1 21376:1 21593:1 22004:1 22333:1 22548:1 22597:1 22740:1 23514:1 23840:1 23890:1 24196:1 24471:1 24547:1 25463:1 26025:3 26353:1 27751:1 27907:1 28051:1 28690:1 28735:1 28801:1 28837:1 28984:2 29071:1 29403:1 29886:1 30141:1 30221:1 30229:1 30521:1 31922:1 32123:1 32186:1 32433:1 32851:2 33375:4 33503:1 34141:1 34153:1 34786:2 34849:1 34867:1 36036:1 36960:1 38192:1 39024:1 39191:1 39229:1 39464:1 39489:1 39569:12 40439:1 40563:1 40943:1 41225:1 41243:1 41548:1 41750:1 41998:2 42059:1 42826:1 44282:1 44496:1 45320:1 45771:1 46316:1 46591:1 46927:1 47477:1 47723:1 47828:1 48067:1 48173:1 48201:2 48977:1 49905:4 50060:1 52059:7 52235:5 52956:1 53114:2 53290:1 53420:1 55079:1 55092:1 55093:1 56153:5 56547:1 56568:1 57326:1 57343:1 57650:1 57687:1 58112:1 58341:1 58419:3 58421:1 59154:1 59308:3 59763:1 59853:1 60362:1 60738:1 61747:1 63277:2 63361:1 63408:2 63676:2 64356:1 64367:1 64403:1 65145:1 65384:1 65683:4 65847:2 66042:1 66425:1 67104:7 67260:1 67596:1 67628:1 67734:1 68051:5 68579:3 69485:1 69619:1 69858:1 70520:1 70707:1 70785:6 70951:1 71333:1 71494:1 72192:3 73417:1 73422:1 75934:1 77780:1 78085:1 78650:1 78761:2 78818:2 80869:3 81231:2 81469:1 81545:1 82313:1 82708:3 82768:3 82879:1 82979:1 83782:1 84164:1 84295:1 84705:1 85152:2 85453:1 85470:1 86165:1 86235:1 86256:1 86308:1 86700:1 87237:1 87399:1 87492:1 89119:1 89212:1 89244:1 89340:1 89515:1 90258:1 90446:8 90468:11 90527:1 90541:1 90566:1 90645:1 90686:1 90718:4 91093:3 91116:1 91437:12 91523:1 91683:1 93089:1 93217:1 93271:1 94619:1 96452:1 96783:1 97375:1 97417:1 97461:1 97769:1 97908:1 98093:3 98132:3 98164:1 98268:6 98278:1 98462:3 98486:1 98729:2 99057:2 99208:1 100378:3 100607:20 100640:7 100667:1 #
-0.00042345395701219606552842544822113 22:1 24:1 25:1 28:2 29:1 30:2 10494:1 10573:1 10580:1 10936:1 13291:1 13858:1 15067:1 15396:1 16025:1 18060:1 18321:1 23683:1 26395:1 27002:1 33395:1 34786:1 39989:1 40398:1 46644:2 62148:1 67104:2 69086:1 74272:1 77691:1 77953:1 84758:1 85452:1 87050:1 87730:1 90446:1 90468:3 90645:1 91437:1 95931:1 96308:1 #
-0.00042345395701219606552842544822113 18:8 23:4 24:8 25:13 28:11 29:1 30:96 31:18 484:1 684:1 773:5 775:1 782:1 2269:1 2270:1 2271:1 2274:5 3050:2 3440:1 4043:9 4072:1 4373:1 5245:1 5990:2 6067:1 6095:3 7061:32 7155:1 7247:4 7968:6 8842:6 9501:5 10143:4 10494:11 10572:1 10573:1 10580:7 10847:1 10886:2 11051:1 11156:1 11610:1 12671:1 13736:1 13858:2 13908:1 14694:1 14780:1 14786:1 15067:3 15169:1 15210:1 15283:1 15396:2 15454:1 15754:1 15886:1 16025:1 17830:4 18177:1 18879:1 20863:1 21748:1 22037:1 22850:1 23840:3 23846:1 26078:2 26243:1 27425:1 27584:1 27907:1 28702:1 29441:4 29443:2 29842:1 30120:1 30250:2 32255:1 35406:1 36096:1 37927:1 38347:1 38853:1 39245:1 39485:1 39564:1 39584:1 40519:1 40535:1 40620:1 41173:1 41277:1 42059:5 43277:1 43352:1 43531:1 45703:1 45719:1 46316:1 46636:1 46643:1 47453:2 48201:1 48213:1 48388:1 48862:2 49150:1 49183:1 49905:6 49973:1 50283:1 50920:1 51333:2 51336:1 51550:1 52059:2 52235:2 54030:3 56153:1 56906:2 57319:1 58211:1 58988:1 61520:4 62670:1 63277:1 63841:2 63843:1 65145:1 65683:1 66061:1 66425:1 66581:1 67104:8 67616:1 68551:2 68758:1 68803:1 68804:1 70193:1 70551:1 71264:1 72357:1 74005:1 74029:1 74038:2 74459:1 75814:1 75817:2 75819:1 75924:1 76464:1 76583:1 76593:2 76613:2 76629:4 77103:1 77467:1 77688:1 78314:1 78442:2 78784:1 78875:1 78883:1 78884:1 80010:1 80062:1 80869:2 81562:2 82467:1 82577:1 82992:3 84242:1 84295:2 86789:1 86832:1 86957:1 89051:1 90258:1 90278:2 90446:3 90468:15 90541:1 90584:1 90622:2 90718:3 90818:1 91437:6 91476:1 91504:1 91505:2 92045:2 92214:1 93190:1 94532:1 94829:1 94856:1 94909:2 95366:1 95616:1 95629:1 95630:3 96452:1 96737:1 97627:2 97730:1 97769:1 98729:1 99208:3 99529:1 100326:1 100336:1 100452:6 100590:1 100607:1 100640:1 #
0.00042345395701219606552842544822113 17:1 23:3 28:9 29:5 30:11 31:4 2274:1 7968:1 10494:1 10499:2 10573:1 10580:2 11743:1 12489:1 12990:1 13858:6 15067:1 15886:1 21748:1 22262:1 22523:1 22632:1 22850:1 24068:4 24072:1 24163:1 24457:1 26078:1 26570:1 26818:1 29403:1 29477:1 31413:1 33073:1 33683:1 34740:1 34846:1 34855:1 35922:1 36599:1 36999:1 38444:1 39773:1 40631:1 41277:1 42059:1 42571:1 45703:1 46220:1 46316:1 46552:1 46901:2 46930:1 48201:1 48388:1 48497:1 48862:1 49183:2 49905:1 52059:1 52235:1 52269:1 53519:1 53824:1 55493:1 56988:1 59471:1 59552:1 62263:1 63277:1 63296:1 63676:1 63958:1 64129:1 64684:1 65318:1 66171:1 66716:1 67104:1 67596:4 68168:1 68551:5 68670:1 69239:1 69661:1 70021:1 71136:1 71815:1 73412:1 73771:1 74197:1 74641:1 75140:1 75768:2 75926:1 77963:1 77995:1 78004:1 78050:1 78464:1 78705:1 79105:1 80869:3 82435:2 82956:1 83386:2 83715:1 84376:2 84701:1 85850:2 86721:1 87050:1 87116:1 87237:2 87422:1 87957:1 88082:1 88245:1 89063:2 90424:1 90446:1 90468:6 91110:1 91437:1 94619:1 94940:1 95486:1 95931:1 96707:1 97417:1 97777:1 98093:1 98347:1 98462:2 99208:1 99214:1 100607:6 #
0.00042345395701219606552842544822113 17:2 23:1 10499:1 10573:1 10580:1 10931:1 11048:1 13747:1 13858:1 14705:1 16127:1 16186:1 16963:1 20387:1 20443:1 21454:1 21953:1 25186:1 28316:1 28858:1 31941:1 33415:1 34254:1 38822:1 43292:1 43554:1 44139:1 46927:2 48574:1 58464:1 60227:1 60907:2 64356:1 64809:1 64811:1 65683:1 66476:1 67596:1 69472:1 70449:1 71274:1 73530:1 73552:1 73760:1 73873:1 74363:1 74901:1 75768:1 80869:1 85309:1 87219:1 91687:1 92508:1 98755:1 #
0.00042345395701219606552842544822113 18:10 21:2 23:3 28:2 29:4 30:24 31:9 775:2 1215:1 2274:2 2275:3 6097:1 6335:1 10494:2 10495:1 10497:37 10499:1 10572:2 10573:1 10578:5 10580:7 11912:1 12215:1 13360:1 13736:2 13858:9 14405:1 14417:1 15067:1 17554:1 18555:1 19766:1 20028:1 20148:1 20443:1 20546:1 21271:1 21535:2 21562:3 21748:2 22262:4 23913:1 25700:1 26078:2 26400:1 26865:1 27462:1 28201:1 29405:1 31748:1 32383:1 34793:1 34890:1 36096:3 37983:1 38207:1 40398:1 41277:5 41401:1 43276:1 43531:2 43554:1 43886:1 45261:1 46316:2 46783:3 48201:2 48862:12 49183:3 49499:1 49905:5 50452:1 51067:1 52059:1 52172:2 52235:1 53362:1 53824:1 55722:1 56930:1 57319:3 59016:2 59421:1 59426:1 59930:1 60396:1 60769:5 61198:2 61266:6 61268:1 61270:2 61431:1 63146:1 64129:3 64193:1 64356:3 65013:1 65128:1 65683:3 65952:1 66042:1 66061:1 66775:1 67104:5 67124:1 67596:2 67910:1 68051:2 68478:1 68579:1 68725:2 68974:1 69230:3 70480:1 70520:2 70801:1 72044:2 73274:1 74204:1 74632:1 75372:2 75754:1 76967:1 77660:1 77662:1 78628:1 78852:1 79466:1 80869:3 82708:2 82716:1 82948:2 83782:2 84058:3 85973:1 86646:1 87730:2 87919:1 90424:1 90446:1 90468:6 90584:1 90718:1 91437:14 91732:2 93271:1 94619:1 94694:3 94698:1 94804:1 97310:2 97543:1 97769:2 97779:1 98268:1 98462:4 98729:3 98755:2 99057:1 99108:1 99208:2 100326:1 100607:17 100640:3 #
0.00042345395701219606552842544822113 17:2 23:2 28:2 30:7 10499:1 10573:1 10578:106 10580:4 13736:1 13858:2 15067:1 15886:1 21265:1 21562:2 21748:1 26400:2 27657:1 28706:1 30402:1 40535:1 41277:2 44386:1 46316:1 46783:1 46927:1 48089:1 49099:1 49506:1 49537:1 49829:1 49905:1 51336:1 51819:1 52269:1 54509:1 57760:1 58211:1 59952:1 66042:1 66172:1 67104:2 67138:1 67596:1 68551:1 68684:1 69146:1 69697:1 70596:1 72791:1 73597:1 74161:1 80869:1 81212:1 82435:1 84342:1 85425:1 86721:1 86784:1 87887:1 89212:2 90468:1 90622:1 91437:3 91656:1 96478:3 97627:4 97730:1 98093:1 98454:1 98729:1 99074:2 99098:1 100607:2 100640:4 #
0.00034691556973591149235641717396561 17:3 18:2 20:2 21:2 22:1 23:11 24:5 25:5 28:34 29:14 30:53 31:1 32:1 773:2 1029:1 1190:1 1350:2 1541:2 1697:2 1837:1 2263:1 2274:2 3374:1 3606:1 4043:1 4379:1 5245:2 6047:2 7061:2 7063:1 7968:1 10494:1 10499:1 10572:1 10573:1 10578:1 10580:16 10847:1 11016:6 11067:2 11191:1 11345:1 11346:1 11384:1 11545:2 11870:2 11937:2 12472:3 12773:2 12990:1 13116:1 13230:1 13736:11 13858:39 14126:2 14405:1 14440:2 15067:10 15068:5 15283:2 15454:4 15697:2 15796:1 16070:3 17029:2 17365:1 17779:2 17830:6 17924:1 18012:3 18038:1 18120:1 18177:1 18249:1 18892:1 19355:1 19698:1 19907:1 19962:1 20564:2 20779:1 21269:1 21295:1 21326:1 21600:2 21748:1 22034:1 22038:1 22266:1 22541:1 22850:1 22852:2 22865:2 23123:1 23598:1 23840:1 23974:1 24820:1 25832:2 26078:1 26395:1 26400:4 26408:1 26491:1 26532:1 26989:1 27267:1 27311:2 27488:1 27493:2 27583:1 27587:1 28222:2 28387:1 28434:1 28445:1 29842:2 30229:2 30621:1 31339:1 31394:1 31865:1 31866:1 32715:2 32987:1 33375:2 33549:1 33615:1 33837:1 34126:1 34131:2 34134:1 34786:1 34793:2 34849:1 34862:1 34864:2 34891:2 34897:1 34917:2 35399:1 36238:8 36599:8 36919:1 36929:1 37121:13 37316:1 37340:2 37723:1 37765:1 37797:1 37807:2 38170:3 38641:1 38662:1 38668:4 38715:1 38727:3 38746:1 38748:2 38803:1 39176:1 39496:1 39771:1 39989:2 40209:1 40366:1 40535:2 40745:1 40940:1 41277:12 41424:1 41444:2 41606:1 42059:4 42353:2 42428:1 42467:3 42641:3 42896:25 42958:1 43125:1 43279:1 43280:1 44218:2 44310:1 44833:1 45345:1 46225:9 46316:6 46518:1 46584:1 46609:1 47240:1 47245:1 47255:1 48126:1 49089:1 49096:1 49183:3 49599:1 49905:41 49973:2 50155:1 50240:1 50291:1 50405:1 50638:3 50684:2 50702:1 51240:1 51333:2 51550:3 51696:1 51704:2 51708:2 51710:5 51841:1 52059:13 52201:1 52235:2 52306:1 53420:1 53746:1 55079:1 55968:1 56153:2 56557:1 56564:1 57188:1 57319:1 57636:1 58165:1 59154:2 59294:1 59302:1 59421:1 59763:1 59937:5 60168:1 60396:3 60800:2 61167:1 61500:1 61713:1 61809:1 61925:1 62596:2 63065:1 63277:1 63399:1 63744:1 63748:1 64548:4 64550:1 64809:1 65145:1 65188:3 65200:1 65203:1 65249:2 65683:2 66042:3 66172:1 66278:1 66633:3 66880:2 67104:22 67274:2 67332:7 67341:11 67596:8 67602:1 67616:3 67642:1 67747:1 67762:1 67770:2 67884:1 67998:1 68051:5 68551:4 68684:1 68725:1 68726:1 68732:1 68974:1 69230:1 69741:1 69784:1 69856:2 70055:1 70551:3 70620:1 70626:1 71409:1 71475:1 71654:1 71857:1 72015:1 72044:1 72046:1 72349:1 72780:1 72933:2 72936:5 73372:1 73754:5 73760:5 73914:1 74114:1 74117:2 74123:5 74195:1 74208:1 74291:8 74302:2 74422:1 74633:1 74947:1 75721:1 76593:2 76865:1 76918:1 77615:1 77688:2 77811:1 78054:1 78632:4 78634:2 78635:1 78884:1 79022:1 79027:2 79115:1 79178:1 79561:1 79572:1 80279:2 80869:8 82219:1 82353:2 82381:2 82383:2 82384:2 82388:1 82394:1 82403:2 82448:1 82565:1 82708:1 83302:1 83316:5 83340:1 83715:1 83759:1 84109:1 84177:1 84397:1 84437:1 84610:1 84851:1 84854:1 85152:1 85163:1 85166:1 85866:1 85873:1 85897:2 86565:1 86729:1 86762:3 86819:1 87047:1 87157:1 87219:1 87499:1 87730:1 87786:1 87919:1 87990:1 88408:1 88476:1 88902:1 89051:2 89212:1 89439:1 89770:1 90038:1 90157:1 90184:2 90424:2 90433:1 90446:11 90468:69 90511:2 90622:4 90686:1 90706:1 90718:9 90794:1 91190:1 91437:19 91687:1 91871:2 92588:1 92591:1 93018:2 93190:1 93899:2 94001:1 94002:1 94369:1 94399:1 94619:3 94736:1 94829:2 94856:1 94909:1 95004:1 95261:2 95366:2 95931:1 96269:4 97417:1 97627:6 97769:2 97779:1 97818:1 97846:2 97865:3 97866:4 98093:1 98217:2 98321:3 98416:5 98420:3 98462:1 98705:1 98729:7 98748:1 98974:1 99098:2 99185:1 99358:1 100168:1 100326:4 100336:1 100607:4 100640:1 101405:2 101407:2 101621:55 #
-0.00042345395701219606552842544822113 25:3 28:1 29:1 30:3 773:1 2274:1 4043:1 10494:2 10573:1 10580:4 13858:1 15072:1 15454:1 16871:2 17830:2 18157:1 26354:1 27413:1 30402:1 36271:1 38708:1 39760:1 40355:1 41277:2 44386:2 45081:1 46463:2 46927:1 48862:2 49905:2 51506:1 51507:1 52059:1 52187:1 55801:1 56153:1 60396:2 62209:1 64129:1 64919:1 64927:2 68478:1 70010:1 72468:1 72783:1 74163:1 75791:1 90446:1 90468:1 95361:1 95931:1 96109:1 97769:1 98164:1 98729:1 99119:1 #
0.00042345395701219606552842544822113 28:18 29:6 30:16 3130:1 6617:1 8067:1 8391:1 8526:1 9241:1 10494:3 10572:1 10573:1 10580:1 13736:1 14405:2 15068:1 17090:1 17830:1 20955:1 23481:1 25290:1 26119:1 29962:1 34549:1 34869:1 36096:1 36519:1 38542:1 38718:1 39303:1 39771:1 40176:1 40943:1 41424:2 42285:1 44317:1 44686:1 45808:1 46927:1 48089:1 50282:1 52059:1 52235:1 54739:1 56028:1 56232:1 56930:2 58211:2 59421:1 60769:1 61520:1 61891:1 62680:1 63296:1 65013:1 67260:1 68725:1 68974:1 69813:1 70785:1 71264:1 72044:1 75045:1 76222:1 76854:1 78294:1 80279:1 81192:1 81213:1 82992:1 83333:1 83386:1 83782:1 85116:1 85647:1 85960:1 86754:1 87939:1 88098:1 88745:1 90511:1 90686:1 91093:1 94856:1 95769:1 97479:1 97926:1 98278:1 98729:1 #
-0.00042345395701219606552842544822113 23:1 30:2 10494:1 10573:1 13858:1 16025:1 27532:1 33434:1 39771:1 41846:1 49905:1 60304:1 65145:1 71897:1 72044:1 73860:1 77330:1 78695:1 80869:1 86991:1 90468:2 90783:1 91437:2 92093:1 94829:1 98481:1 99074:1 100640:1 #
-0.00042345395701219606552842544822113 23:1 28:1 29:1 30:2 31:2 4168:2 10573:1 29842:1 41277:1 46927:1 49269:1 52657:1 52855:1 54413:1 61747:1 80869:1 86492:2 88562:1 90468:2 94632:2 99887:1 #
-0.00042345395701219606552842544822113 20:10 21:3 24:3 25:3 28:7 30:12 31:2 774:1 1440:1 1541:1 1697:2 2275:2 2860:1 2991:1 3374:1 4043:1 4168:1 5245:1 6095:3 6421:1 7061:1 7968:2 8842:1 8843:1 9501:1 10573:1 10580:2 13736:3 13858:1 14423:1 15067:2 15454:1 16510:1 19974:1 20146:1 30503:1 33615:1 34979:4 36057:1 36519:1 36928:1 37356:1 38118:3 39176:1 40535:1 41277:8 42059:2 42285:1 43531:1 44833:1 49183:1 49761:1 49905:4 51681:1 51704:1 52059:2 55079:1 56930:1 58394:1 60769:1 62031:1 62094:1 62581:9 63834:2 63835:1 64129:1 64809:1 64854:1 65013:1 65357:1 67104:5 67845:1 68051:1 68551:2 73472:2 74291:2 82627:1 86586:1 87919:1 90433:1 90446:1 90468:3 92008:2 94619:1 94909:1 95366:1 96512:3 97627:2 98729:1 99622:2 100326:1 100336:1 100607:2 #
-0.00042345395701219606552842544822113 29:1 773:1 774:1 1837:1 4044:2 10494:2 10573:1 12709:1 12990:1 13858:1 19727:1 41829:1 51542:1 52059:1 52235:1 53737:1 61011:2 64672:1 69696:1 82992:1 84999:1 88723:1 90400:1 94619:1 98729:2 100627:1 #
0.00040133901179469354562542871001085 17:4 19:16 23:1 28:3 29:26 30:7 31:23 32:24 35:1 773:1 774:13 1190:1 2274:4 2275:2 3143:1 3271:2 3719:1 4043:2 4045:2 4076:1 5603:1 6095:8 6096:1 7652:1 8575:2 8842:12 10494:60 10495:59 10497:16 10499:1 10573:1 10580:6 10695:1 10929:1 12185:1 12942:2 12990:1 13858:2 14023:1 15067:2 15140:1 15396:1 16696:1 16871:5 17830:1 17880:1 18012:1 19218:1 19505:1 19766:2 19845:1 20062:7 20166:4 20525:1 21606:1 23219:1 23481:2 23632:1 23941:1 23943:1 24641:1 25252:1 25844:1 26025:3 26078:1 28068:1 28438:1 28586:1 30663:2 31488:1 31743:1 32503:1 32901:1 33118:18 33375:1 33815:1 33819:1 33847:1 34786:17 35326:1 37372:1 37417:1 38192:1 38207:1 39113:1 39361:2 39994:2 39999:2 40009:4 40398:1 40874:2 41205:7 42428:1 43362:3 44866:1 44934:1 45456:1 46225:1 46687:2 46901:1 46927:2 48278:2 48388:2 48862:1 49824:1 52059:1 52235:1 53722:1 53842:1 54198:1 55079:1 56662:3 57104:8 57319:1 57418:1 57578:4 57650:2 58464:1 58507:1 58733:1 59860:6 61469:1 61932:1 63011:1 63078:1 65683:1 65701:1 65847:6 66042:1 66433:1 66732:1 67104:1 67596:1 67672:1 67964:1 68051:1 69086:1 69173:7 70360:1 71515:1 71632:1 71633:1 71718:1 72783:8 73754:1 73760:2 74942:1 75295:37 76538:1 77232:1 77952:7 78373:2 78375:1 78376:2 79466:1 80046:4 80339:1 81326:2 82353:1 82892:1 83594:1 84435:3 85385:5 85528:1 87018:1 87237:1 87492:1 87505:1 87667:4 87668:15 88777:1 89051:1 89120:1 89513:1 90333:4 90468:5 90541:1 90718:1 91084:1 91437:6 91687:1 93615:2 93716:1 94958:1 95788:1 97310:1 97469:1 97627:1 97730:1 97804:1 98282:1 98347:1 98364:3 98462:2 98729:1 98974:1 99131:1 99208:1 99529:2 99622:1 100570:1 100607:4 #
0.00042345395701219606552842544822113 24:1 25:1 27:1 28:1 29:12 30:7 31:7 227:1 587:1 2140:1 2873:1 3374:1 5246:1 8842:1 10494:13 10499:1 10573:1 17000:1 17517:1 18890:1 22109:1 24047:1 24685:1 25668:1 29717:2 39723:1 40398:1 42059:1 42506:1 43531:1 48388:3 52466:2 53688:2 55722:1 61431:1 62904:1 63146:1 65013:3 66172:1 67596:1 67747:1 68051:1 68111:1 68243:1 70793:1 71325:1 73574:1 75372:1 77691:1 82768:1 87730:1 90718:1 91437:1 94829:1 94867:1 95242:3 96452:1 98462:1 99529:3 100607:1 100640:1 #
0.00042345395701219606552842544822113 17:4 28:1 10573:1 12990:1 13858:1 15993:1 20389:1 27317:1 30974:1 31069:1 34254:1 35817:1 39489:1 40398:1 44730:1 46316:1 49905:1 50468:1 50700:1 52235:1 59558:1 60227:1 60910:1 62483:1 64809:1 64825:1 66172:1 67616:1 69453:1 73559:1 74363:1 75926:1 77099:1 83405:1 83691:1 87219:1 90811:1 97627:1 98095:1 98755:1 100607:1 100640:2 #
-0.00042345395701219606552842544822113 17:1 18:2 28:2 30:11 31:4 10494:2 10499:1 10572:2 10573:1 10847:1 11563:2 12990:1 13858:1 15886:3 22262:1 22632:1 25577:2 26078:1 30431:1 33375:1 40398:2 41846:2 43531:1 48388:2 49150:2 49183:1 49905:1 54542:1 55282:1 59308:2 59930:1 62366:1 63146:1 65188:1 68051:1 68579:1 71317:1 89212:1 90468:1 91437:1 93588:2 98705:1 99529:1 100168:5 100607:3 100640:2 #
-7.9457624359690476323336838504474e-06 17:1 28:3 29:1 30:7 31:1 773:1 10573:1 10580:1 10847:1 11520:1 13241:1 13736:1 13858:2 15067:1 19693:1 21748:2 22109:1 27604:1 30229:1 31028:1 33591:1 34393:1 34861:1 37128:1 38759:1 42072:1 45808:1 46057:1 47240:1 48862:4 50136:1 51550:1 51560:1 52059:3 55722:1 56090:1 58341:1 58446:1 59424:1 59428:1 59937:1 62716:4 62921:1 62945:1 63402:1 65249:1 66042:1 66425:1 67104:3 67596:2 69086:1 69205:1 73760:1 73771:1 73869:1 76854:1 80069:1 84245:1 84859:1 86222:2 86935:1 87086:1 90436:1 90468:11 90691:1 90783:1 91437:3 91651:1 91802:1 92018:1 92033:1 94909:1 95177:1 97627:1 98132:1 98462:1 99363:1 99449:1 100607:1 101235:1 #
0.00042345395701219606552842544822113 17:1 18:4 22:2 24:63 25:71 28:2 29:1 30:8 919:1 2274:2 2276:1 4043:1 5245:1 6095:1 7061:1 8842:1 10495:2 10572:1 10573:1 10580:2 11048:1 11485:2 11570:1 11835:1 12362:1 13736:1 14576:1 15067:1 15454:2 17830:2 18962:1 19355:1 19375:1 21748:3 22371:1 26078:1 27094:1 27278:1 27281:1 27462:1 32641:1 33514:1 34786:1 36096:2 39995:1 40176:1 41277:1 41395:1 46316:3 49183:1 49318:1 49905:1 50059:1 50638:1 54739:1 55722:2 56504:1 56951:1 58165:1 59308:1 59763:1 61431:1 61520:1 62031:1 62388:1 64129:4 67104:5 67616:4 68551:1 68725:1 69218:1 69827:1 70218:1 72044:1 72852:1 77092:1 77099:1 78146:1 78150:1 78151:1 78764:1 80869:1 82708:1 82711:1 82768:1 82992:1 83146:1 84230:1 84383:1 85152:1 85753:1 87730:1 90400:1 90433:1 90468:3 90718:3 91248:1 91437:6 93899:1 94829:1 96459:1 98729:1 99057:1 100168:1 100607:6 100640:3 #
-0.00042345395701219606552842544822113 28:1 30:1 31:2 1269:1 1541:1 2277:1 8679:1 10573:1 11452:1 29842:1 30555:1 36838:1 41277:1 42896:1 48240:2 89401:1 89794:1 #
-0.00035531835180702521850837349859376 18:2 19:4 21:1 23:3 24:1 25:1 27:38 28:53 29:707 30:22 31:33 33:2 34:18 682:2 773:4 774:11 980:1 1029:1 1190:8 1350:1 1541:1 1837:2 1941:1 2038:1 2274:5 2275:1 3143:1 3192:1 3374:18 3606:1 3885:1 3904:1 4043:2 4044:1 4188:1 4285:1 4411:1 4474:1 4521:2 4766:1 5007:2 5245:2 5514:1 5527:1 5603:1 6097:4 6345:1 6602:1 6918:1 7061:2 7078:1 7714:1 7763:1 7958:2 7995:1 8089:1 8305:1 8807:1 8842:5 9113:1 9168:1 9366:1 9501:14 9556:1 9665:1 10216:1 10438:7 10494:18 10499:1 10572:7 10573:1 10580:6 10847:1 11933:1 13360:6 13514:1 13858:4 14627:1 15067:1 15454:1 15886:3 16025:1 17512:1 17830:1 18643:1 18962:1 19505:2 19646:1 21064:1 21748:3 22109:1 22262:1 22691:3 23213:3 26181:1 26218:1 26219:1 27481:1 27673:1 27726:1 28041:1 29751:3 30025:3 30076:1 30229:1 34786:1 34793:1 35150:17 35402:1 36838:1 37548:1 37861:1 38216:1 38672:2 39441:3 39584:2 40561:1 41173:1 41277:3 41549:3 42059:3 42197:1 42467:1 42892:2 42896:1 43409:7 43531:2 44310:1 44802:2 45057:3 46181:2 46901:2 47173:1 47240:2 48130:10 48148:17 48201:1 48862:2 49905:1 49973:4 50151:1 52116:2 52466:4 56093:2 57403:5 59016:2 59308:1 61128:2 62085:1 63557:1 64129:1 65799:1 65800:1 65983:1 66095:1 66172:1 66425:1 66433:1 67104:2 67596:7 68051:1 68984:1 69086:1 72044:2 73733:1 74123:3 74632:1 77293:1 77556:1 78730:4 79983:1 80869:1 81469:1 82435:1 82992:1 83386:1 85152:1 85459:1 85472:1 87730:3 87756:1 89932:1 90433:1 90446:2 90468:8 91093:1 91437:8 91544:1 91606:4 93018:1 94619:2 95522:6 96032:1 96707:2 97627:1 97839:5 97866:2 98729:2 99208:1 99622:2 100607:1 101621:254 #
-0.00042345395701219606552842544822113 28:1 29:4 30:3 31:5 1837:1 2140:1 3270:1 3606:1 4043:5 4625:1 7523:1 8089:1 9800:1 10572:1 10573:1 13858:3 15886:1 17830:2 18599:4 22109:1 22262:1 24187:1 34549:1 41240:1 41277:1 46901:1 47780:2 60769:1 67104:3 67160:3 67596:1 68051:1 68579:2 70686:2 71924:1 76808:1 77320:1 79025:1 88413:1 90433:1 90468:3 90718:1 91093:1 91437:1 91606:1 97769:1 98462:2 99622:1 100607:1 #
-0.00042345395701219606552842544822113 17:26 18:10 23:3 24:2 25:2 28:7 29:2 30:26 1542:1 1727:1 2169:1 9501:1 10494:3 10499:7 10572:1 10573:1 10574:2 10576:2 10854:1 11067:1 11146:8 11563:5 12990:1 13241:1 13274:1 13858:8 14405:1 15067:1 15454:2 15886:2 16150:2 16464:1 20273:1 20460:1 21656:1 22059:2 22119:1 22262:3 22850:1 23840:1 23846:1 23989:2 25107:1 25252:4 26078:2 26412:1 26991:1 26996:1 27002:1 27462:1 27907:1 28275:1 29403:1 29486:1 29493:1 30997:2 31951:1 32186:1 32191:2 32696:1 33375:2 36096:8 36838:1 36960:1 39569:1 40176:1 40535:2 41173:1 41277:4 41846:1 42059:1 42467:1 42747:3 43531:2 46316:2 46783:2 46927:2 48862:2 49047:2 49183:6 49506:1 49905:3 50142:1 50585:3 50638:2 51070:1 51419:1 51550:1 52059:3 52235:2 54345:2 54509:1 57418:1 57584:1 58170:1 59308:3 59421:1 60769:1 61431:2 61435:1 61438:2 63146:1 63451:1 64129:5 64809:1 65145:4 65683:1 66042:3 66099:1 67104:1 67596:4 67672:1 68008:1 68051:3 68194:1 68478:1 68725:1 68974:1 69205:2 69858:1 70520:1 70800:1 72044:4 73760:1 74136:1 74371:1 77735:2 78150:1 78389:3 78518:3 78519:1 78627:1 82273:1 82619:1 82708:1 82948:1 83704:2 83782:1 84058:1 84093:1 85152:1 87730:1 88379:1 89051:3 90333:1 90426:1 90468:13 90541:3 90718:6 90972:1 91437:8 91687:1 92350:2 94619:1 94632:1 94856:1 97543:1 97627:1 97853:1 98093:3 98132:1 98705:1 98729:4 99131:1 100168:27 100607:10 100640:9 100671:1 #
0.00042345395701219606552842544822113 23:1 24:7 25:7 29:21 30:12 31:1 33:7 773:1 1294:1 1739:1 1962:1 3201:1 3374:1 3719:1 4026:1 4605:1 7968:1 9502:7 10494:1 10497:1 10573:1 10670:1 12990:1 15067:2 15886:1 21748:1 24666:1 25707:1 25727:1 25731:1 31065:1 39750:1 39932:1 42285:1 45235:1 48726:1 52059:1 57800:1 57826:7 58211:1 59330:1 63398:1 64249:1 64809:1 65683:1 67104:1 68123:1 71387:7 75923:1 76802:2 77365:1 81448:1 90718:3 91093:1 92000:1 95338:1 96030:1 96068:1 98729:1 99623:1 100607:1 #
0.00042345395701219606552842544822113 17:5 10573:1 10580:2 11897:1 12990:1 15434:1 17860:1 19219:1 20267:1 26768:1 31166:1 38335:1 40398:1 46316:2 49905:1 52235:2 58211:1 60227:1 60910:1 61431:1 64146:1 64356:1 66172:1 67104:1 67616:1 71583:1 71855:1 74363:1 76808:1 77099:1 81086:1 81390:1 87219:1 87730:1 95486:1 97627:1 98278:1 100607:1 100640:1 #
0.00042345395701219606552842544822113 23:1 28:11 29:5 30:13 31:3 2514:1 5696:1 10494:1 10572:1 10573:1 10580:7 11048:1 11146:3 12362:1 12990:3 13360:1 13640:1 13736:1 13858:1 13909:1 14405:2 14582:1 15312:1 15454:4 15732:1 15886:3 16096:1 16328:1 16843:1 17228:2 17254:1 17460:1 17830:4 17924:1 18012:1 18038:1 18094:1 18314:1 18393:1 20542:1 21562:1 21600:1 21748:4 22262:3 22469:1 25004:1 25265:5 26838:1 27006:2 27240:1 27288:1 27462:3 27473:1 27831:1 30545:1 30615:1 31381:1 32204:1 33375:1 33449:1 33549:1 35127:1 36096:1 36415:1 38501:1 39584:1 40841:1 41277:1 41912:1 42059:1 43025:1 43126:1 43895:1 44028:3 44549:1 46225:2 46316:1 46576:1 47867:1 48862:4 49183:2 49905:3 50282:1 51333:1 52059:6 52201:1 52235:1 53340:3 54737:3 54751:2 56304:2 56662:1 56680:1 56720:1 58037:1 58165:1 59595:1 60769:3 62031:1 62105:1 62945:1 63128:1 63491:2 64045:1 64129:6 64356:1 64358:1 65018:1 65249:3 66042:2 66083:1 66159:1 66425:1 67104:9 67134:1 67596:1 67602:1 68051:3 69230:1 70563:1 70651:1 73594:1 74033:1 74463:2 74555:1 77556:1 77691:1 78302:1 78389:2 78532:1 78875:1 80869:1 82435:1 82448:1 82947:1 83242:1 83302:1 85152:2 89932:1 90446:4 90468:10 90541:2 90584:1 90718:8 90855:2 91093:1 91437:11 91651:1 91871:1 92147:1 93899:1 94457:1 94619:1 94671:1 94829:1 95368:1 95374:1 96379:1 97627:1 98138:1 98275:1 98462:4 100607:6 100640:6 #
-0.00042345395701219606552842544822113 17:1 18:2 22:17 23:1 28:5 30:170 31:1 33:23 654:1 682:3 773:2 774:4 1029:2 1166:1 1190:1 1269:1 1541:2 1697:1 1949:2 2038:3 2274:1 2275:5 3020:1 3143:1 3484:4 3718:1 3823:2 3885:3 3966:1 4043:1 4044:1 4168:1 4373:8 4521:1 5007:4 5106:1 5245:1 5246:4 5342:1 5443:1 5514:1 5880:1 6095:3 6096:8 6335:1 6610:1 6705:2 6872:1 6973:1 7061:13 7062:6 7155:1 7347:2 7535:2 7689:10 7869:1 7968:41 7969:4 8056:1 8158:1 8241:5 8412:7 8500:1 8573:1 8679:6 8842:65 8843:8 8977:2 9372:2 9501:33 9502:3 9563:1 9777:1 10494:2 10499:5 10573:1 10580:2 11407:1 11419:1 11544:1 13360:3 13858:4 14467:6 14749:1 14786:1 14915:4 15067:2 15574:1 16062:2 16510:1 18630:4 21149:2 21562:3 21748:4 23214:6 26161:3 26181:1 27584:1 27653:1 27654:2 29412:1 30120:5 31607:4 32186:1 32761:1 33375:3 33514:1 35359:6 35405:1 36411:8 38138:2 38213:1 38373:1 38941:1 39760:1 40940:4 41173:1 41277:1 42059:1 42526:1 43578:4 43926:6 44565:4 44572:14 46316:2 46733:1 46783:1 46785:1 46927:1 48201:1 48957:3 49503:1 49905:2 50151:2 50153:1 50282:1 50283:1 51297:1 51804:4 53290:3 54345:1 56153:1 56547:3 56551:3 56983:3 58153:1 58341:1 59154:1 59421:1 60769:3 63146:3 64129:5 65145:3 66425:1 67104:2 67596:1 68551:1 68725:1 68733:2 69726:1 69732:1 70140:1 70520:2 73505:3 74781:3 77583:1 78408:8 78784:2 80869:1 81353:4 81627:1 85470:3 85877:1 86635:1 86829:1 90433:1 90446:1 90468:10 90622:1 91437:10 91802:1 93190:1 94220:2 94237:1 94856:1 94867:3 97627:3 97779:1 98729:1 99122:3 99123:4 100607:1 100640:3 #
0.00042345395701219606552842544822113 18:8 23:3 24:1 25:1 28:7 29:6 30:30 31:9 774:1 775:1 2275:2 6095:1 6097:1 7062:1 9424:3 10494:4 10495:1 10497:30 10499:1 10572:3 10573:1 10578:2 10580:4 11912:1 12215:1 12990:1 13172:2 13360:1 13736:3 13858:12 14405:3 14417:2 15067:1 15571:1 15578:1 15886:1 16382:1 17554:1 17830:1 18399:1 18555:1 20148:1 20546:1 21271:1 21535:2 21562:6 21748:1 22237:1 22262:5 23470:1 23913:2 24047:1 25700:1 26078:3 26865:1 27462:2 29405:1 31748:1 33375:1 34148:1 34786:1 34793:1 34854:1 34890:1 36096:4 36681:1 37927:1 37983:3 38347:1 40398:2 41277:5 41401:1 42295:1 43531:4 43886:1 44422:1 45261:1 45979:1 46316:2 46783:3 48201:6 48442:1 48862:17 49183:4 49499:1 49905:7 50056:1 50347:1 50452:2 50638:1 51067:1 51336:1 51550:1 52059:4 52172:3 52235:1 52306:1 53362:1 53824:1 54533:1 55722:1 56680:1 56930:1 57319:1 57604:1 59016:2 59308:1 59369:1 59421:1 59930:3 60769:7 61164:1 61266:9 61268:1 61269:3 61431:2 63146:3 63591:1 63676:1 64129:3 64356:4 65013:2 65128:1 65363:1 65683:3 65952:1 66042:1 66061:1 66079:1 66775:1 67104:9 67124:1 67596:4 67616:2 67698:1 67946:1 68051:3 68478:1 68579:2 68725:1 68974:2 69230:1 70520:2 70801:1 72044:3 73030:1 73274:2 74264:1 74355:1 74643:1 75372:3 75754:2 76967:1 77660:1 77662:1 78628:1 78805:1 78852:1 78884:2 78919:1 79466:1 80062:1 80869:2 82273:2 82708:3 82716:1 82948:2 83782:4 83790:1 84058:3 84376:1 84383:1 85117:1 85973:2 86646:1 86721:1 87730:4 87919:1 88320:1 89434:1 90184:1 90424:2 90446:2 90468:14 90584:1 90686:1 90718:2 90795:1 91116:1 91437:25 91687:1 93271:3 93274:1 94619:1 94694:3 94698:1 94804:2 94909:2 97310:2 97543:1 97687:1 97769:2 98175:1 98268:1 98462:7 98729:5 98755:2 99057:1 99074:1 99185:1 99208:1 100168:1 100607:19 100640:5 #
-0.00042345395701219606552842544822113 28:2 30:3 360:1 4684:1 10573:1 12990:1 14578:1 15886:1 18038:1 20166:1 20899:1 28073:1 37549:1 40256:1 41277:2 44909:1 48213:1 48862:1 49905:1 50142:1 59866:1 66433:1 66597:1 82768:1 90468:6 91817:1 97926:2 99622:1 99887:1 #
0.00042345395701219606552842544822113 28:10 29:3 30:19 10494:2 10572:1 10573:1 10580:1 10787:2 10847:1 11067:5 11074:1 11146:11 11160:1 11397:2 11551:1 12839:1 13116:1 13241:1 13291:2 13736:2 13858:3 14405:1 14622:2 15067:3 15454:2 15578:1 15733:1 15886:1 16054:1 16055:1 17830:4 17924:1 18012:2 18243:1 19505:1 20986:1 20987:1 21636:1 21748:5 22262:4 22371:1 22850:1 23840:1 25259:1 26125:2 26352:1 26625:2 26782:1 26977:1 27462:1 27487:1 27583:1 30431:1 31324:1 32257:2 32272:1 32557:1 32645:1 33514:1 34961:11 35443:1 36096:4 36109:3 36897:1 38708:1 41277:2 42059:4 42428:1 42633:2 46049:1 46225:1 46316:7 46327:1 46783:6 49096:1 49183:2 49905:4 49973:1 50638:4 50930:1 51692:1 52059:2 52235:2 55079:1 56617:1 57476:1 57666:6 59154:1 59371:1 59421:1 60396:6 61165:1 61166:2 63277:1 66042:1 66061:1 66083:1 67104:2 67260:1 67596:3 67602:1 67616:1 67698:1 68051:4 68111:2 68163:1 68551:2 69218:1 69852:3 70520:1 70793:2 72044:4 72606:2 73712:1 74027:1 74246:3 74264:1 74555:1 74557:1 76808:1 76918:1 77103:1 77691:1 77727:1 77735:1 78399:1 78408:1 78518:1 78761:1 78838:1 78840:1 79105:1 80981:1 80983:1 80988:1 81562:1 82394:1 82410:1 82768:1 84058:1 84376:2 84383:1 85373:1 85452:2 85473:1 86152:1 86957:1 87756:1 87919:1 88379:1 88514:2 88520:1 89221:2 89700:2 90027:1 90446:14 90468:13 90499:1 90511:1 90622:2 90645:1 90718:7 90783:1 90855:1 91093:1 91328:1 91437:22 91657:1 93271:1 94532:1 94545:1 94619:1 94639:1 94694:1 94856:4 94909:1 95894:1 97627:7 97687:3 98132:1 98462:3 98559:1 98729:2 99074:1 100607:13 100640:12 #
0.00042345395701219606552842544822113 1:21 17:3 22:2 24:1 25:1 28:1 29:124 30:5 31:5 2084:1 10494:2 10497:3 10499:1 10572:1 10573:1 11916:1 14405:1 14428:1 16418:1 16464:1 20443:1 21003:1 21838:1 23414:1 23706:1 25004:1 25252:2 26078:2 33375:1 36089:1 36096:2 36109:1 41168:1 41824:1 41846:1 42428:1 46927:2 48388:2 51408:1 53824:1 58464:1 65013:1 65145:1 67596:1 67925:1 71264:1 76593:1 77099:1 78147:1 82948:1 87219:1 89778:1 90468:1 91437:1 94491:1 94619:1 94880:1 97716:1 98755:1 99158:1 99529:1 100640:1 #
-0.00042345395701219606552842544822113 23:2 28:1 30:1 2291:1 10494:1 10573:1 10854:1 12235:1 15396:2 16025:1 16216:1 19280:1 36599:1 40398:1 42059:1 50638:1 54739:1 72044:1 77691:1 81392:1 90468:2 #
-0.00042345395701219606552842544822113 28:1 30:1 10573:1 16025:1 20688:1 40398:1 48240:1 72044:1 77691:1 86806:2 90468:1 94632:1 #
0.00042345395701219606552842544822113 17:6 23:36 25:1 28:3 29:2 30:3 4043:1 5245:1 6095:2 10499:1 10573:1 10576:1 11289:1 14602:1 15102:1 16075:1 16696:1 16781:1 16823:1 17847:1 19536:1 20239:1 21748:1 22019:1 23320:1 25064:1 25245:1 26277:1 29508:1 29751:2 31801:1 31878:1 33375:1 34786:1 34891:1 35182:1 35222:1 36223:1 36747:1 37595:3 37916:1 38285:1 39087:1 42571:1 42575:1 43371:1 43531:1 45399:1 45454:1 47912:1 49541:1 49905:1 50017:2 50148:1 51351:1 52444:1 52946:1 52988:1 53949:1 55089:1 55095:1 58383:1 58926:1 59016:2 59552:1 62670:2 64240:1 65256:1 65352:1 65540:1 65683:1 66633:1 66855:1 66982:1 67596:1 67638:1 68051:2 70213:1 76802:1 78174:1 78377:1 80315:1 80869:1 83916:1 86514:1 88312:1 89807:1 90258:1 90446:1 90468:1 91469:1 93620:1 94724:1 94749:4 94829:1 98575:1 99465:1 100544:3 100920:1 101063:1 101623:2 #
0.00042345395701219606552842544822113 17:3 23:1 28:4 30:10 32:1 10494:1 10572:1 10573:1 10837:1 11136:1 11495:1 11599:1 11878:1 12721:1 12987:1 13028:1 13182:1 13191:1 13600:1 13736:1 13750:1 13794:1 13858:1 14087:1 14888:1 15283:1 15635:1 16041:1 16172:1 16830:1 16903:1 17330:1 18192:1 18794:1 18892:1 18913:1 19004:1 19698:1 19942:1 19968:1 20542:1 20548:1 20713:1 20967:1 21174:1 22270:1 23414:1 23496:1 23936:1 24694:1 25600:1 25652:1 26381:1 26470:1 27132:1 27200:1 28576:1 28941:1 29039:1 30596:1 30659:1 31707:1 32059:1 32186:1 32449:1 32696:1 32760:1 34265:2 34467:1 35438:1 35768:1 35872:1 38401:1 38822:1 39532:1 40347:1 40859:1 42908:1 43531:1 43698:1 44331:1 44721:1 44869:1 45388:1 46316:1 46897:1 46927:1 47247:1 48579:1 48726:1 49052:1 50996:1 51994:1 52059:1 52195:1 52521:1 52563:1 53101:1 53818:1 54072:1 55722:1 57237:1 57446:1 59875:1 60189:1 60598:1 60769:2 60873:1 61473:1 62826:1 63153:1 63199:1 63826:1 64811:1 65145:1 65346:1 65683:1 65712:1 66183:1 66600:1 66633:1 67431:1 67596:1 68111:1 68551:1 68579:1 69581:1 70719:1 71170:1 72537:1 73191:1 73577:1 73755:1 73873:1 74593:1 75768:1 76854:1 78511:1 79812:1 80350:1 80869:1 82009:1 83542:1 84302:1 84376:1 85685:1 86703:1 86947:1 87739:1 88742:1 89395:1 90468:3 91437:1 91687:1 91752:1 91862:1 92789:1 93003:1 93502:1 94784:1 94829:1 95042:1 95341:1 96405:1 96604:1 96975:1 97627:1 97687:1 97958:1 99622:1 99640:1 100473:1 #
0.00042345395701219606552842544822113 23:2 28:2 30:5 773:1 8842:1 10573:1 10580:1 11548:1 11878:2 12115:1 12990:2 13574:1 13736:2 15067:2 15210:1 15454:1 15773:1 15886:1 16464:1 17830:1 18177:1 18630:1 20286:1 20293:2 20443:1 20854:1 21600:2 21748:1 23118:1 24066:1 26096:2 28275:1 28434:1 29405:1 30091:2 31069:1 31607:1 31761:1 32186:1 33375:1 35402:1 41277:4 41453:1 41586:1 41991:1 42059:1 43531:1 46527:1 46927:1 48862:1 49183:2 51662:1 52059:4 52235:1 52306:1 55809:1 56179:1 56211:1 56909:1 57604:1 58464:1 60910:2 60969:2 61198:1 61891:1 63013:2 63146:1 63277:1 64356:1 64809:1 65145:3 66042:2 67104:4 67150:1 67672:1 67698:1 68051:1 68551:2 68820:1 69239:3 70055:1 70619:1 72416:1 72826:1 73630:1 73760:2 76382:1 78004:1 80143:1 80808:1 80869:2 81192:1 83760:1 84376:1 85628:1 85923:1 87990:1 90424:2 90446:3 90468:12 90584:1 90691:1 91437:3 94632:1 95366:1 96067:1 97627:5 97866:1 98164:1 98175:1 98278:1 98729:3 100607:2 100640:3 #
0.00042345395701219606552842544822113 17:1 18:2 23:5 28:1 29:1 30:4 773:4 1942:1 3419:1 4043:1 4272:1 7061:1 8412:1 9501:1 9849:1 10499:1 10573:1 10578:1 13024:1 16584:1 16624:1 20955:1 21831:1 27881:1 29751:1 36519:1 40438:1 40576:1 43605:1 46901:1 48610:1 48862:2 49905:1 52059:2 54431:1 60769:1 64240:2 64973:1 66172:1 66633:4 67523:1 67747:2 68579:1 69239:4 70859:1 71550:3 80869:3 81050:1 89212:1 90468:3 95177:1 96611:1 98729:2 100640:1 #
0.00042345395701219606552842544822113 23:4 25:1 28:12 30:20 774:1 5106:1 6095:1 7061:1 10494:3 10499:1 10573:1 10574:2 10576:2 10580:5 11746:1 12165:1 12236:1 12990:4 13241:1 13360:1 13446:1 13736:1 13858:6 15067:1 15372:1 15454:1 15886:1 16039:1 17830:1 17869:1 17904:1 18238:1 18533:1 18630:2 19535:1 19715:1 20146:1 21600:2 21748:2 22140:1 22262:1 24099:1 26151:1 26508:1 26928:1 27517:1 28275:1 29365:1 29401:1 30176:2 30792:1 31242:1 31629:1 32579:1 33375:2 33474:1 33503:1 34032:1 34210:1 36519:1 37185:1 38089:1 38216:1 38244:1 38480:1 39341:2 40347:2 40355:1 40398:1 41268:1 41277:2 41731:1 42059:1 42072:1 43547:1 43886:1 44218:1 45909:2 46463:2 46901:1 47339:2 47427:2 47889:1 48477:1 48599:1 48862:5 49183:1 49703:1 49905:4 52059:5 52235:4 52306:2 52333:1 52978:1 55079:2 56327:1 56337:1 57241:2 57282:1 57319:3 57691:1 58290:1 58419:1 58726:1 59426:1 59552:3 60304:1 60769:3 61198:1 61891:1 62899:1 63146:1 63676:1 64129:4 64356:1 65128:1 66042:2 66079:1 67104:9 67304:1 67437:1 67596:1 67616:1 67698:2 67934:1 68478:1 69835:2 79178:1 79466:1 79635:1 80176:1 80869:4 82435:1 84653:1 85385:1 85452:1 85491:2 85825:1 86337:1 87410:1 87492:1 88812:1 90424:1 90446:3 90468:16 90540:1 90645:1 90686:1 90689:2 90718:1 90855:2 91069:1 91437:9 92950:1 93018:1 94269:1 94532:1 94619:1 95335:1 96404:1 97219:1 97318:1 97447:1 97813:1 98268:3 98274:1 98395:1 98428:1 98462:2 98488:1 98729:1 98964:1 99208:1 100607:6 100640:1 100683:1 #
-0.00042345395701219606552842544822113 23:2 28:1 30:4 10494:1 10573:1 13241:1 14405:1 16025:1 21600:1 29751:1 31563:1 33474:1 43531:1 46316:1 46463:1 48862:2 49183:2 53348:1 55079:1 56930:2 59948:1 60769:1 61747:1 63191:1 66042:1 67817:1 80869:1 82435:1 86126:1 90212:1 90468:1 90718:3 92113:1 95616:1 98729:1 99119:1 100607:1 #
0.00042345395701219606552842544822113 17:1 21:1 28:1 29:5 30:1 1351:1 6095:1 6096:1 10573:1 10580:4 12508:1 13858:1 13891:1 16023:1 16494:1 18573:1 22575:1 24994:1 26535:1 26953:1 28262:1 29412:1 29477:1 30229:1 33501:1 33554:1 38649:1 41245:1 42571:1 45640:1 46093:1 46767:1 49905:1 52228:1 55722:1 55729:1 56502:1 57760:1 58170:1 59016:1 61918:1 64728:1 65280:1 65357:1 66342:1 67104:1 67616:1 67649:1 68295:1 68725:2 69086:1 71094:1 71123:1 71593:1 74009:1 75933:1 76122:1 76873:1 80869:1 80893:1 83642:1 83650:1 83705:1 85087:1 86293:1 90468:1 91437:1 91481:1 91802:1 93332:1 94621:1 95177:1 95616:1 97853:1 99158:1 #
-0.00042345395701219606552842544822113 17:1 23:1 29:1 30:6 10573:1 13794:1 13858:1 18012:1 31638:1 34146:1 41277:1 46316:1 46927:1 48089:1 48862:1 52059:1 52235:1 60769:1 61933:1 66172:1 67180:1 67596:1 68691:1 80869:1 83753:1 84958:1 88726:1 90157:1 90468:1 #
-0.00042345395701219606552842544822113 23:1 24:1 25:1 28:4 30:12 31:1 192:1 291:1 461:1 5245:1 10494:4 10573:1 10580:1 10931:1 11146:1 13230:1 13360:1 13858:3 14213:1 14405:1 15454:2 18978:2 21248:1 22119:1 22597:5 28735:2 29405:1 32321:1 32709:2 33615:1 38668:1 38750:1 39230:1 41277:1 43554:1 44386:1 46316:3 48862:7 49905:5 50638:1 52059:5 53824:1 54046:1 56153:1 61431:1 62105:1 64006:1 65128:1 65683:1 66042:1 66425:1 69086:1 70349:1 73999:3 75898:1 76802:1 80869:1 81032:1 83289:1 84268:1 86652:1 87239:1 89000:3 89051:1 90426:1 90446:1 90468:5 90584:2 90691:1 90718:3 91437:2 91544:1 93982:1 94632:1 94856:2 97075:1 97310:2 97417:2 98132:1 98316:1 98729:2 100607:2 100640:5 #
0.00042345395701219606552842544822113 17:1 20:2 23:1 24:1 25:1 28:3 29:5 30:15 31:7 2275:1 4043:1 5245:1 8842:1 9849:1 10494:3 10497:2 10499:2 10573:1 10576:2 10580:4 13230:1 13858:2 14015:1 15454:3 15886:1 17830:2 17924:1 17958:1 19218:2 23757:1 23913:2 24047:1 24475:1 24666:1 24684:2 26304:1 30301:1 32246:1 33375:1 35335:1 38192:1 38796:1 39551:1 40398:1 40967:1 41999:1 44386:1 44732:1 46927:1 47427:1 48201:1 48373:1 48388:2 49064:1 49183:1 49905:1 52059:3 52235:1 52306:1 55054:1 56153:1 57893:1 58472:1 60769:1 61166:1 63277:1 63676:1 65701:1 65914:1 66042:1 66752:1 67104:2 67124:1 67596:1 67616:1 68051:1 68478:1 68481:1 68565:1 73760:1 76018:1 77677:1 79075:1 80869:2 83588:1 85546:1 86721:1 88205:2 89683:1 90468:5 91437:2 92527:1 93190:1 94120:1 96066:1 96068:1 96078:1 97627:1 97772:1 98462:1 98705:1 98729:2 98913:1 99158:1 99224:2 99529:2 100607:2 101407:1 #
-0.00042345395701219606552842544822113 20:1 23:2 24:4 25:4 28:23 29:14 30:30 31:4 34:1 291:1 773:1 1697:3 2251:1 2274:1 2275:2 2514:3 2867:1 3966:1 4043:2 5245:2 6096:1 6421:1 7969:1 9501:1 10494:8 10495:1 10573:1 10580:4 10847:1 12371:1 13241:2 13736:2 13858:18 14127:1 14149:1 14786:1 15396:2 15886:1 17444:2 17512:1 17830:1 18038:1 18054:2 18983:2 19019:1 19351:1 20146:2 21307:1 21831:1 22089:2 22092:2 22156:6 22266:2 22450:1 24158:1 25165:1 25577:1 25595:1 26078:1 26298:1 26395:1 26400:3 26846:1 27583:1 27914:1 28055:2 28275:1 28532:2 29223:2 29477:1 30229:2 30702:1 31868:3 31871:1 33549:1 35431:1 36599:3 36709:1 36928:1 37362:1 38133:1 38416:1 38507:1 38668:1 38885:1 38893:1 39723:1 39729:1 39782:2 40490:1 40519:1 40540:1 41277:2 41589:1 41981:1 42059:2 42506:1 42896:3 42918:1 43278:1 43280:1 43426:1 43804:2 43889:1 45104:1 45851:1 45950:1 46181:1 46225:1 46316:2 48173:1 48403:1 48703:1 48862:2 49905:9 50240:1 50638:1 50790:1 51550:1 52059:7 52235:4 52306:3 53448:1 54504:1 54742:2 54762:1 54990:4 55722:2 56096:2 56502:1 57373:1 57543:1 59421:1 59937:2 59962:1 60176:1 60240:1 61431:1 61970:1 62031:3 63146:4 63170:2 64520:1 64550:3 64736:1 64776:1 64819:1 64913:1 65145:1 65227:2 65994:1 66042:1 66612:2 67104:16 67341:1 67596:2 67841:2 67924:1 68243:1 68478:3 68725:2 68984:3 69086:2 69774:2 69775:1 70551:2 70942:2 71141:2 71684:6 71686:2 71938:1 72192:1 72824:1 73016:3 73166:2 73965:1 74115:1 74136:2 74291:4 74302:1 74459:3 74617:1 74639:1 74643:1 74647:1 74958:1 77320:1 78211:1 78632:1 80869:3 81231:1 81545:1 82353:1 82394:1 82400:1 82768:1 82929:1 82948:1 84085:1 85533:4 85977:1 86756:1 86766:3 86996:1 87100:1 87124:1 87232:1 87730:1 87892:1 87970:1 88379:1 88902:1 89555:1 90167:2 90170:1 90173:1 90424:3 90446:2 90468:20 90718:1 90818:1 90855:1 91437:9 91476:1 91646:1 91712:1 92021:1 92292:1 92294:1 92559:1 93190:1 93332:1 93721:1 93899:1 94227:3 94532:1 94619:1 94862:1 95366:1 96452:1 97311:1 97417:5 97730:1 98164:1 98462:1 98729:3 99131:1 99208:1 99529:1 100590:1 100607:1 #
-0.00042345395701219606552842544822113 19:36 23:2 24:3 25:3 28:114 29:41 30:12 31:7 498:1 773:3 774:2 1029:3 1190:2 1350:2 1541:2 1697:2 1837:2 1949:2 2038:2 2274:2 4043:2 4044:2 5245:2 6095:2 7061:2 7478:1 7546:1 7599:1 7968:2 8089:2 8842:2 9501:2 10494:8 10495:4 10572:1 10573:1 10580:21 11501:1 11563:1 12185:1 12733:1 12997:1 13241:1 13459:1 13858:1 13877:1 13912:1 13930:1 14076:1 14210:1 14425:1 15454:3 15715:1 15756:1 15886:2 16025:1 16144:1 16387:1 16781:18 17092:1 17254:1 17554:1 17830:1 17894:1 17934:1 17936:1 18108:1 18243:1 18503:1 18962:4 18994:1 19280:1 19727:5 19784:1 19909:1 19911:1 19954:1 19983:1 20121:1 20290:2 20380:1 20657:1 20745:2 20970:2 20990:1 21002:1 21022:1 21064:1 21166:1 21170:1 21505:1 21748:1 21752:1 22172:1 22262:1 23029:1 23936:2 23949:1 24196:1 24517:1 25085:1 25154:1 25252:1 25274:1 25315:1 25634:1 26125:1 27787:2 27979:1 28136:1 28194:1 28387:2 29435:1 29520:1 29934:2 30017:1 30047:1 30058:1 30066:1 30189:1 30195:4 30210:2 30974:1 31259:2 32186:1 32519:1 32521:1 33452:1 33615:1 33719:1 33815:2 34099:1 35182:2 35687:1 35979:1 36096:1 36599:1 37261:1 37503:1 37561:1 38506:1 39584:1 39753:1 40256:1 40398:2 40535:2 40566:1 40798:1 41145:1 41173:1 41277:3 41424:1 41441:1 41617:1 41991:1 42041:1 42059:1 42285:1 42892:3 42895:1 43380:1 43504:1 43770:1 44349:1 44661:1 44909:3 44984:1 45375:1 45779:1 45867:1 46028:1 46168:2 46316:1 46341:1 46464:5 46840:2 46855:1 47626:1 47708:1 47767:1 47780:1 48173:1 48177:3 48388:2 49183:4 52059:1 52235:2 52492:1 52578:1 52601:1 52720:1 52855:2 52956:3 53114:2 53317:1 53340:3 53355:2 54075:1 54376:1 54395:1 54397:1 54413:2 54504:2 54717:1 54774:1 55041:1 55070:1 55625:1 55973:1 56112:2 56270:1 56636:3 56927:1 57005:1 57029:1 57204:1 57319:1 57403:2 57412:1 57439:1 57470:1 57513:1 57578:1 57650:1 58044:1 58123:1 58376:1 58767:1 59016:1 59154:1 59330:1 59930:5 60019:1 60080:1 60260:1 60264:1 60282:1 60298:4 60495:1 60531:1 60602:1 61166:1 61363:1 61431:1 61747:1 61758:1 61933:5 62126:1 62921:1 64356:2 64730:1 64990:1 65073:1 65958:1 66042:1 66168:1 66656:1 66842:1 67104:3 67596:2 68051:2 68163:3 68551:1 69086:1 69123:1 69205:1 69270:2 69509:1 69676:1 69882:2 69952:1 69997:2 70078:1 70678:1 70752:1 70899:1 70916:1 70920:1 71188:1 71264:1 71492:1 71660:1 72007:1 72044:2 72318:2 73661:1 74942:1 75315:1 76392:1 76468:2 76495:1 76686:1 77092:1 77378:1 77482:1 77727:2 77735:1 78085:1 78150:1 78151:1 78398:1 79105:1 79363:1 79368:1 79499:1 79509:1 79863:2 79875:1 79880:2 80102:1 80111:1 80218:1 80340:1 80708:1 80733:1 80869:1 81180:2 81261:1 81296:1 81553:1 81726:1 81833:1 81909:1 82435:1 82768:1 82930:1 83268:1 83519:1 83754:1 83760:1 84194:1 84941:2 86874:2 86947:1 86991:3 87136:1 87148:1 88119:1 89051:1 89398:1 89499:1 89710:1 89806:2 90151:1 90468:10 90622:1 90718:1 90759:1 91082:2 91093:1 91327:1 91437:5 91565:5 91855:1 91857:1 91915:3 92611:1 92698:2 95389:1 96127:1 96500:1 97417:2 97882:1 97926:1 98082:1 98096:1 98138:1 98268:1 98462:2 98729:1 98744:1 98939:1 98998:1 99010:1 99186:1 99208:1 99529:2 100607:8 100627:1 100640:5 101391:1 #
-0.00042345395701219606552842544822113 17:5 18:2 22:1 23:8 24:4 25:4 26:2 27:131 28:29 29:54 30:30 31:5 32:3 34:1 768:1 775:1 1697:1 1837:1 2273:1 2274:1 2275:4 2276:1 2291:8 4043:1 4340:1 5245:3 5603:4 6041:1 7061:1 8665:3 8855:2 8976:1 9434:1 9623:1 10494:17 10495:2 10499:17 10572:7 10573:1 10580:7 10847:1 11219:3 11346:1 11573:1 11904:1 11937:1 12059:1 12215:1 12990:3 13291:1 13792:1 13858:17 14143:1 14363:1 14405:1 14627:1 14815:1 15067:3 15454:2 15550:1 15756:1 15886:4 16052:1 16843:1 17298:1 17572:1 17573:1 17653:1 17830:1 17924:1 18177:1 18446:1 18463:1 18466:1 18590:1 18879:1 18892:1 20775:1 21562:2 21570:1 21600:1 21663:1 21748:2 22109:2 22262:2 22535:1 22951:1 23789:1 23842:1 23846:1 24471:1 24757:1 24851:1 25252:1 25604:1 25928:1 25930:1 26078:8 26248:1 26395:1 26400:1 26907:3 26911:1 26951:1 27462:3 27583:1 28275:1 28393:1 28433:2 28515:1 28755:1 29001:1 30120:1 30229:2 30431:1 30591:1 30702:1 30842:1 30986:1 31480:2 31638:1 32123:1 32387:1 33375:1 33514:1 33615:1 34157:1 34365:2 34504:1 34549:2 34786:4 34854:1 35249:2 35295:2 35297:2 36096:3 36234:1 36599:1 36606:1 36917:1 38086:1 38087:4 38184:1 38506:1 38566:1 38709:1 38735:1 38796:1 39230:1 39412:1 39720:1 39729:3 40218:1 40221:1 40355:1 40367:2 40377:1 40398:2 41277:8 41424:1 42059:3 42736:2 43886:1 44045:1 45347:1 45808:1 45924:1 46017:1 46082:1 46316:4 46320:1 46547:1 46783:4 47951:1 48097:1 48213:1 48388:2 48899:5 49183:2 49757:1 49780:1 49905:8 49906:1 50405:8 50638:1 50797:1 51151:6 51158:1 51419:1 51710:1 51954:1 52059:6 52196:2 52203:1 52204:3 52235:2 52601:1 53737:1 53764:1 53824:1 54345:1 54509:1 55073:1 56153:1 56185:1 56547:1 56680:1 57470:2 57507:1 57666:2 58065:1 58153:1 58220:1 58228:1 58244:2 59202:3 59308:3 59353:4 59421:1 59425:1 59560:2 59816:1 59820:1 59937:3 61011:1 62355:1 63061:1 63064:2 63146:4 63277:2 65013:1 65063:1 65145:3 65375:1 65621:1 66042:1 66172:2 67068:1 67104:19 67124:1 67210:1 67437:1 67596:5 67616:2 67672:3 67734:1 67850:1 67924:1 68051:7 68163:1 68176:1 68551:4 68579:1 68725:1 68975:1 69230:1 69619:1 70055:1 70620:1 72024:1 72044:3 72174:2 72436:1 73185:1 73191:1 73201:1 73467:1 73594:1 74005:1 74136:1 74197:1 74257:1 74425:1 74640:3 74948:1 76802:1 76825:1 76826:3 76833:1 77099:1 77212:1 77726:1 77735:1 77874:2 77876:1 78389:1 79158:1 79573:9 79599:1 79603:1 79627:1 80869:7 81231:1 82405:1 82435:1 82708:1 82948:1 82985:1 83782:1 84198:1 84230:1 84376:1 85152:1 86070:1 86492:1 86635:1 87161:1 87251:1 87264:1 87359:1 87919:1 88081:1 88207:1 88306:1 88475:1 89051:1 89539:2 89775:1 89878:1 90313:1 90335:1 90400:1 90424:1 90446:1 90468:30 90511:1 90622:1 90645:2 90718:6 90776:1 90817:1 91248:1 91437:11 91476:1 91505:1 91657:1 91879:1 93190:1 93257:1 94211:1 94491:1 94619:1 94638:1 94829:2 94856:1 94909:1 95364:1 95366:1 95931:1 96162:1 96847:1 97325:1 97627:3 97667:6 97687:2 97730:1 97926:1 98093:3 98132:1 98354:1 98462:4 98705:1 98729:4 99122:1 99131:2 99529:5 100150:1 100326:2 100607:5 100640:3 100894:1 #
-0.00042345395701219606552842544822113 18:2 20:1 24:1 25:1 28:14 29:2 30:9 34:2 773:1 2274:2 4043:3 6095:1 7061:1 9502:2 10494:2 10573:1 10580:2 11067:1 12360:1 12990:2 13553:1 13858:6 14215:1 14254:2 14405:1 14576:1 15067:1 15754:1 16464:1 16622:1 17250:1 17830:2 18012:1 18120:1 18555:1 20970:1 21600:3 21748:3 22262:1 22371:1 22850:1 25383:1 26652:1 28275:1 29751:2 30184:1 30431:1 33375:1 34846:1 36096:2 36101:1 36109:1 36599:1 37657:1 39361:1 39412:1 39801:1 40519:1 41277:2 41694:1 42059:1 42123:1 42571:2 43227:1 44364:1 46199:1 46316:1 46327:1 46805:1 48862:1 49853:1 49905:4 54081:1 54755:1 56304:1 57188:1 60250:1 60396:1 62135:1 63162:1 63548:1 64129:4 64193:1 65847:1 66042:3 67104:5 67596:2 69230:1 69774:1 71148:2 71264:1 72044:1 72357:1 73412:1 73754:1 74120:1 74340:1 74632:1 76018:1 77092:1 77482:1 77688:2 77691:1 79466:1 79573:1 79588:1 79909:1 84859:1 85152:2 85278:2 85425:1 86658:1 86766:1 87506:1 88323:2 89000:1 89010:1 90468:9 91093:1 91437:2 94286:1 94850:1 94862:1 94909:1 95894:1 97417:2 97627:5 97779:1 98462:1 98729:1 98755:1 99208:2 100607:1 100640:3 #
-0.00042345395701219606552842544822113 28:3 30:2 10573:1 17830:1 22262:1 30250:1 32755:1 37393:1 41277:1 41981:1 44721:1 49905:1 51900:1 53114:1 60172:1 61011:1 65249:1 67596:1 68579:1 70785:1 73016:1 88331:1 90468:2 90718:1 91437:1 91697:1 93190:1 96308:1 97627:1 98268:1 98462:1 #
0.00042345395701219606552842544822113 17:2 23:2 28:2 30:4 10499:1 10573:1 10580:4 13736:1 13858:2 15067:1 15886:1 21274:1 21562:2 21748:1 26400:2 27653:1 28705:1 30402:1 40535:1 41277:2 44386:1 46316:1 46783:1 46927:1 48089:1 49099:1 49506:2 49829:1 49905:1 52269:1 54509:1 57760:1 58089:1 58211:1 59948:1 66172:1 67104:2 67138:1 67596:1 68551:1 68684:1 69143:1 69697:1 70596:1 72791:1 73597:1 74163:1 80869:1 81215:1 82435:1 84087:1 85425:1 86721:1 86784:1 87887:1 89212:2 90468:1 90622:1 91437:4 91667:1 96478:3 97627:4 97730:1 98093:1 98462:1 98729:1 99074:2 99098:1 100607:2 100640:4 #
-0.00042345395701219606552842544822113 2:12 17:1 20:1 21:2 23:6 28:56 29:41 30:33 31:17 33:4 34:1 348:4 1190:1 1350:3 1541:1 2277:4 4044:3 4168:1 5058:1 8844:1 10494:19 10495:3 10499:3 10572:3 10573:1 10580:12 11146:1 11544:1 11563:2 11721:1 11727:1 11912:1 12589:1 12990:2 13116:2 13122:1 13736:2 13858:19 14405:1 14671:1 15067:1 15753:1 15886:4 16162:3 16464:1 17199:1 17512:3 17830:1 17907:1 17924:1 18012:1 18993:1 19172:1 19974:1 20161:1 20213:1 20273:1 20551:1 21562:2 21600:2 21662:1 21748:5 22207:1 22262:3 22450:1 22825:1 23023:2 23840:3 23913:1 24281:1 25180:1 25196:4 25252:1 25898:2 25930:1 26078:5 26243:2 26400:2 26531:1 26580:1 26907:1 26915:1 26977:1 27150:1 27451:2 27462:2 27673:2 27907:1 27914:1 28008:1 28387:1 29474:1 29751:1 30120:1 30431:1 31644:2 31887:1 32186:1 32519:1 32824:2 33847:2 33987:1 34786:1 34930:1 35252:2 35254:1 35624:1 36096:1 36519:2 36928:1 37018:1 37725:1 37959:1 38127:1 38230:1 38347:1 38506:1 38936:1 39142:2 39718:1 39720:1 40264:1 41096:3 41277:12 41586:1 41720:1 41846:2 42059:3 42452:2 42487:1 43280:1 43531:3 43723:1 44218:4 44386:2 44496:1 44610:1 44989:2 45081:1 45320:1 45347:1 45353:1 45976:1 46225:1 46316:2 46927:2 47240:1 47339:2 47780:1 48097:1 48201:3 48388:2 49096:1 49109:3 49183:2 49506:1 49744:2 49905:9 49973:1 50638:2 50985:1 51055:1 51868:4 52059:6 52083:2 52196:1 52204:1 52235:4 52306:1 52607:1 52768:1 52855:1 53172:1 53755:1 53949:1 54009:1 54046:1 55722:1 56357:1 56947:1 57319:1 57443:1 57476:1 57928:1 58211:1 58419:1 59308:1 59353:3 59560:1 59937:1 60491:1 61016:1 61431:1 61788:1 62476:1 62975:1 63146:2 63277:1 63437:1 64730:4 65013:1 65063:11 65145:1 65188:1 65203:2 65206:1 65249:1 66172:1 66309:2 66535:1 66537:1 66560:3 67104:16 67124:1 67166:1 67596:6 67616:2 67672:1 68051:5 68236:1 68478:1 68551:1 68579:1 68684:1 68725:3 68794:1 69205:1 69697:1 69774:1 69858:1 70139:2 70520:1 70620:1 70785:1 71461:4 71464:1 71592:1 72349:1 72357:1 72493:2 72597:1 72607:1 73815:1 74120:3 74136:2 74632:1 74633:1 75768:6 75909:2 75991:1 76445:1 76599:1 76802:2 76808:1 76868:2 77671:2 77943:1 78140:1 78150:1 78391:1 78537:1 78805:1 79105:2 79110:2 79111:1 80126:1 80869:14 81574:1 82072:1 82330:1 82898:1 82933:2 82940:1 82948:2 82956:1 82985:1 83014:1 84376:1 84657:1 85152:1 85278:1 85543:1 85647:2 85728:3 85736:1 86064:1 86143:1 86634:1 86721:1 86737:1 87050:1 87232:2 87233:1 87251:1 87783:1 87791:2 88379:1 89000:4 89010:3 89743:1 89778:2 89966:1 90265:1 90278:2 90424:2 90446:6 90468:27 90584:2 90622:1 90645:1 90718:2 91093:3 91437:19 91476:2 91667:1 91717:1 91786:1 91995:1 92264:1 93025:1 93190:1 93274:1 93899:1 94164:1 94491:1 94619:5 94648:1 94805:1 94856:1 94878:1 94885:1 94909:1 95590:1 95616:2 96171:4 96174:10 96222:3 96400:2 97075:1 97417:5 97448:1 97627:5 97769:2 97825:4 98093:1 98132:1 98138:1 98164:1 98187:1 98462:2 98531:1 98559:1 98616:2 98729:5 99131:9 99273:1 99333:3 99529:2 100607:12 100640:8 101623:33 #
-0.00032366994622666338254912687943943 18:6 20:3 23:10 24:2 25:2 28:30 29:37 30:33 31:1 774:1 1541:1 1543:1 2274:1 2514:2 4043:1 4379:1 5176:1 7505:1 8089:2 8576:1 8842:2 8844:1 9205:1 9501:1 10494:6 10495:9 10573:1 10580:12 11140:1 11400:2 11544:1 11567:1 11878:1 12246:2 12293:1 12990:1 13230:1 13241:3 13514:3 13736:3 13858:37 14405:1 14770:1 14786:1 15067:7 15072:1 15454:5 15696:2 15697:2 15886:4 16464:2 16773:1 16788:1 16931:2 17045:3 17735:1 17830:1 17924:1 17951:1 17952:1 18012:3 18177:1 18983:2 18985:1 20146:1 20515:2 20844:1 21274:1 21562:2 21564:23 21748:3 22109:3 22262:3 22469:2 22865:3 23355:1 25382:1 25595:1 26400:3 26482:1 26619:1 26747:1 26907:2 26947:2 27149:1 27281:1 27282:1 27306:1 27583:1 27584:1 27605:1 27967:8 28041:1 28275:1 28329:2 28368:1 28735:6 28887:1 29403:3 29474:1 29905:1 30503:2 30838:2 31563:1 31788:2 32503:1 32650:1 32711:1 32757:2 32834:1 33174:1 33514:1 33549:1 33855:1 34549:1 34725:2 34793:1 34849:1 34862:3 35084:1 36712:1 36797:1 36838:5 36919:1 37553:1 37780:1 38089:3 38184:2 38192:1 38216:1 38271:1 38319:1 38605:1 38648:1 38662:1 38904:1 39412:1 39584:1 39989:2 40272:3 40367:2 40597:1 40958:1 41096:1 41168:1 41175:1 41277:5 41298:1 41621:1 42059:1 42428:1 42467:1 42896:5 43261:1 43276:1 43280:1 43531:1 43886:1 44045:2 44635:1 45081:1 45112:1 45703:1 46082:1 46225:2 46316:11 46783:1 46927:2 47363:1 47711:1 48075:1 48173:1 48862:1 49099:1 49183:1 49527:1 49645:3 49855:1 49905:24 50056:5 50269:2 50320:1 50398:1 50638:1 51340:2 51550:2 51681:1 51704:1 51706:5 51708:3 51710:2 52059:1 52235:4 53949:1 55794:1 56153:1 56173:1 56446:1 56497:1 56617:2 56995:1 57541:3 57898:1 58211:1 58333:1 59154:3 59371:1 59406:1 59421:1 59962:1 60396:1 61011:1 61891:1 62031:1 63086:1 63146:4 64550:1 64736:1 64809:2 64854:2 65145:1 65820:4 65952:1 65983:3 66172:1 67104:25 67124:1 67210:1 67341:1 67596:6 67843:2 67850:1 67984:1 68051:3 68485:1 68551:30 68670:1 68725:3 68919:2 69726:1 69784:1 69856:3 70431:1 70623:1 70818:1 71264:1 71684:1 71855:1 71926:1 72734:1 73016:3 73733:1 74207:1 74246:1 74292:1 74424:1 74459:1 74525:2 74555:1 75007:1 75372:1 75768:1 75814:1 75943:1 76608:4 76609:1 76802:2 77099:1 77468:1 77671:1 77780:1 77790:1 77883:1 77943:1 77948:1 77950:1 78050:2 78055:1 78304:1 78399:1 78533:1 78537:1 78814:1 78884:1 78919:1 79022:2 79105:3 79109:1 79406:1 79526:1 80621:1 80869:5 81086:3 81093:2 81752:1 81754:1 82330:2 82410:1 82467:1 82797:1 83053:2 83308:1 83420:3 84085:2 84404:1 84941:1 85040:1 85152:1 85372:1 85452:1 85549:1 85668:1 86762:1 86806:1 87399:1 87413:1 87492:2 87887:1 87970:1 89221:2 89432:1 89966:1 90028:1 90157:1 90166:1 90184:1 90424:3 90446:10 90468:18 90511:4 90527:2 90622:9 90645:3 90718:4 90783:3 90818:2 90855:1 91093:1 91437:17 91476:2 91544:1 91651:1 91657:1 91687:1 92151:2 92284:1 93217:1 93899:5 93982:1 94220:1 94632:1 94856:2 95616:4 95931:3 97417:1 97543:1 97627:24 97769:1 97779:3 98093:2 98132:1 98138:2 98164:2 98175:1 98268:1 98282:2 98462:4 98729:2 99074:1 99176:1 100326:1 100336:1 #
-0.00042345395701219606552842544822113 28:6 29:1 30:10 31:1 2277:1 7968:1 10573:1 11073:1 13858:3 14734:1 15067:1 15454:3 18012:1 20986:1 21748:1 25386:1 26078:2 26202:1 26531:1 29403:2 31748:1 33375:1 34046:1 35295:1 35516:1 36354:1 36838:2 36897:1 41277:2 43866:5 44045:1 44218:1 44844:1 46316:2 47460:1 47780:1 48311:2 48862:2 49777:1 49905:3 50638:2 51569:1 52059:2 53737:1 53824:1 57418:1 57470:1 58211:1 60396:1 60738:1 61809:1 66042:1 67104:3 67596:3 67814:1 67925:1 68051:1 69205:1 72826:1 73263:1 74197:3 74199:1 78518:1 78782:1 78786:1 83760:1 84527:1 85152:1 85549:1 87422:1 89000:2 89212:1 90426:1 90446:2 90468:10 90718:1 90783:1 91110:1 91437:7 93271:1 94635:1 94639:2 94781:1 96032:1 96860:1 97310:1 100326:1 100607:5 100640:6 #
-0.00042345395701219606552842544822113 28:1 29:3 30:9 31:2 33:2 225:1 1029:2 2274:1 2275:1 4043:1 4285:1 10494:2 10572:1 10573:1 10580:2 15067:1 21208:2 21831:1 26907:1 26996:1 34959:1 41277:1 48862:1 49905:1 52059:1 55079:1 57702:1 58153:1 59016:2 59763:1 61013:2 66042:1 67104:1 69086:1 69728:1 69731:1 80869:1 85452:1 89555:1 90433:1 90468:1 91476:2 96032:1 96171:1 98282:2 98462:1 100607:1 #
0.00042345395701219606552842544822113 17:1 23:4 28:2 30:2 2085:1 2088:1 2199:1 10494:2 10499:1 10573:1 10580:2 11067:1 11146:1 12839:1 13858:1 15454:1 15571:1 15886:1 17228:1 17238:1 17327:1 17343:2 17830:1 18012:1 18243:2 19055:1 20551:1 20951:1 22262:1 24295:1 26989:1 26991:2 29405:1 30120:1 30441:1 31713:1 31742:1 31748:1 40274:1 41127:1 41168:1 41424:1 43889:1 46316:1 48862:2 48910:1 49780:1 49905:3 52235:1 53839:1 54751:1 55426:1 56578:1 56930:2 57470:1 58211:1 58333:1 59016:1 59421:1 60396:1 60769:1 61431:2 65367:1 66042:1 67104:1 67651:1 68485:1 68725:1 69243:1 70419:1 71474:2 72044:1 76833:1 77538:1 80869:3 82410:1 82948:1 83664:1 84876:1 85278:1 89000:1 89260:1 89744:1 90468:6 90527:1 90718:1 91085:1 91437:6 92790:1 94619:1 94639:1 97375:1 97627:1 98093:1 98316:1 100607:1 100640:3 100671:1 #
-0.00042345395701219606552842544822113 21:1 28:5 29:6 30:6 31:1 541:1 2275:1 4043:1 7968:1 10494:2 10499:3 10573:1 10578:3 10580:1 11156:4 12990:1 13736:1 13792:1 13858:2 15067:1 15614:1 15696:1 16787:1 17830:1 22319:1 22635:2 26355:1 26400:1 28387:1 29477:1 30210:3 33395:1 35402:1 38708:4 39755:1 40367:1 44078:4 44566:1 44833:1 46225:3 46901:2 47263:1 49599:1 51342:1 51757:1 66844:1 67104:3 68192:1 68243:1 68725:1 70139:1 71684:2 72044:1 77253:1 77332:1 78408:1 78889:2 79076:2 79105:1 81757:1 83386:1 84527:1 87492:1 90468:2 90855:1 91437:1 92030:1 92294:1 98729:2 99208:1 100640:1 #
0.00042345395701219606552842544822113 29:1 10494:1 10573:1 12723:1 16464:1 18534:1 22765:1 22805:1 48862:1 49373:1 52544:1 56607:1 60048:1 64367:1 65249:1 67138:1 69898:1 71206:1 78381:1 84125:1 92018:1 95834:1 97469:1 #
-0.00042345395701219606552842544822113 17:3 23:1 28:2 30:2 10494:1 10573:1 12360:1 15067:1 15454:1 17932:1 20762:1 26243:1 33695:1 48862:1 53434:1 60769:1 61013:1 67596:1 76802:1 80869:1 81129:1 89797:1 90446:1 90691:1 94940:1 98132:1 98729:1 100607:2 #
-0.00042345395701219606552842544822113 18:2 23:2 28:7 29:1 30:9 1541:1 6096:2 10499:15 10572:1 10573:1 10578:15 10580:5 11203:1 13352:1 13858:5 14216:1 15067:2 15454:2 15886:1 16843:1 17830:1 18012:3 18630:1 19143:1 21562:1 21599:1 21600:1 21748:2 22262:2 23842:1 24306:1 25956:1 26078:1 26400:1 27524:1 28434:1 30141:1 30229:1 30431:1 32186:2 33375:2 33474:1 33476:1 34786:1 35252:1 35297:1 36344:1 36519:1 36661:1 36737:1 40438:1 40535:1 40620:1 41173:1 41277:3 41537:3 41539:1 42304:1 43531:1 43886:1 44218:3 44646:2 44839:1 46225:1 46316:3 46783:1 47780:1 48201:3 48610:1 48862:1 49183:1 49905:2 50286:1 50638:1 51104:1 52059:2 52196:1 52235:1 53290:1 53296:1 54848:1 56153:1 56983:1 57241:1 57578:1 57666:1 57691:1 58165:2 59202:1 59308:1 59406:1 59421:1 59435:1 59763:2 59920:1 60026:1 62884:1 63146:1 63277:1 63296:1 63548:1 63676:1 64129:1 64367:1 67104:7 67596:2 68051:2 68551:3 68670:2 69836:1 69856:1 72044:4 73016:1 73030:2 74356:1 74632:1 75909:1 76836:1 76908:1 80869:2 81855:1 82733:1 82747:1 82772:1 82827:1 84268:1 86806:1 87492:1 89051:2 89212:1 90468:8 90718:4 91093:1 91116:1 91274:1 91437:6 93929:2 94829:2 94885:1 95196:1 95760:1 95931:1 97417:4 97543:1 97627:1 97730:1 98093:5 98106:1 98132:1 98138:2 98462:1 98755:1 98969:2 99074:1 100326:1 100336:1 100607:10 100640:10 #
-0.00042345395701219606552842544822113 28:4 29:4 30:7 4444:1 10573:1 11146:1 13360:1 13736:1 13858:1 14405:1 14616:1 15067:1 15255:1 16843:1 18120:1 21600:1 21748:1 22119:1 22632:1 27982:1 30025:1 41277:2 41551:2 46316:1 46463:3 47339:1 48862:1 49183:1 51756:2 52059:4 52601:1 54345:1 55079:1 56930:1 59930:1 60769:2 66172:1 67104:3 67160:1 68579:1 69230:1 70073:1 75909:1 81032:1 82992:1 85152:1 89233:1 90433:1 90446:1 90468:3 90527:3 90718:1 91437:2 94619:1 94829:1 97627:1 98268:1 99622:1 #
-0.00042345395701219606552842544822113 8:4 17:4 18:2 20:2 23:7 24:4 25:4 28:18 29:19 30:20 773:1 1949:1 2277:2 3484:1 10494:2 10573:1 10580:6 11912:1 12558:2 12591:2 12990:1 13858:10 14405:1 15067:1 15454:1 15886:1 19507:5 20986:1 21748:1 21831:1 22262:2 23610:1 24435:1 25004:1 25252:1 26404:3 27907:1 31094:2 31607:1 34786:13 34793:1 34854:2 34862:1 36736:1 36830:1 38437:1 38754:1 41168:1 41277:3 41548:1 41846:3 42059:3 43531:3 43715:4 44833:1 45262:1 46316:1 46927:1 47025:2 48201:2 49183:1 49905:3 49973:3 50060:1 51336:1 51550:1 51596:1 51736:1 51739:1 52059:5 52235:2 53362:2 53364:1 53824:2 54739:2 56241:1 57418:1 57443:2 57470:1 57760:1 59308:4 59348:1 59763:1 59976:1 60396:1 61167:2 61431:1 63146:1 64356:1 64600:1 64776:1 65145:2 65683:2 66769:1 67104:5 67138:1 67150:1 67596:1 67616:1 67698:1 67964:1 68051:1 68551:1 68579:1 70097:1 72044:1 73911:1 74246:2 74606:1 75140:1 76122:1 76802:2 76833:1 77092:2 77099:1 77384:1 77943:1 77988:1 78085:1 78629:1 78721:2 78772:1 79181:11 79476:1 80869:3 81522:1 82708:1 84230:1 85850:1 86145:2 87730:1 89966:1 90426:1 90446:2 90468:3 90645:1 90718:5 91093:1 91374:2 91437:12 92026:1 93271:1 94227:2 94491:2 94619:1 94804:1 95246:2 95361:5 97543:1 97627:1 97853:4 98093:1 98132:1 98488:1 98555:1 98705:1 98729:2 99119:1 100607:13 100640:5 100667:1 #
-0.00042345395701219606552842544822113 18:4 24:1 25:1 28:5 29:7 30:13 773:1 1567:1 2274:2 4043:2 5245:1 6095:1 7061:1 7968:1 8089:1 9205:1 10494:2 10572:1 10573:1 10580:2 10837:1 11520:1 11523:1 11563:1 12185:2 13858:2 14405:2 14627:1 17830:3 18012:1 18038:1 19974:1 20273:1 21636:5 22059:2 22286:1 23481:1 25252:2 25259:1 26531:1 26532:1 27146:1 27462:1 27481:1 28275:1 28880:1 30120:1 30141:2 30229:1 30974:1 33474:1 36486:1 37553:1 38172:2 39237:1 43531:1 46316:1 49183:2 49786:1 49905:1 50638:6 51550:2 52059:1 53481:2 58333:1 59739:1 60396:1 60807:1 61904:1 61907:7 64006:1 64129:1 64809:2 65063:1 66042:2 67104:4 67596:2 67602:1 67698:1 68051:2 68636:4 70793:1 72044:2 72606:1 73274:1 73636:2 73712:1 74373:1 76802:1 78705:1 78837:1 78875:1 81509:1 81754:1 82577:1 82708:1 84077:2 90400:1 90468:9 90718:2 91437:11 91484:1 92770:2 94619:2 94784:1 94829:1 97769:1 98462:3 100607:9 100640:8 #
-0.00042345395701219606552842544822113 17:2 28:2 30:2 10573:1 10580:1 11265:1 11544:1 12990:1 13858:1 16619:1 18120:1 18555:1 21748:1 27086:2 38089:1 41548:1 42059:1 44833:1 46799:1 48862:1 49777:1 49905:1 58211:1 60738:1 67104:2 67596:1 70623:1 70793:1 74362:2 76350:1 79022:1 85830:1 89478:1 89700:1 90468:4 91437:4 91565:1 94671:1 98729:1 100607:2 100640:4 #
-0.00042345395701219606552842544822113 18:2 23:2 26:68 28:3 30:13 31:5 225:1 348:1 1697:1 10494:2 10499:1 10572:2 10573:1 10580:2 10847:1 11407:1 11563:1 13241:1 13736:1 13858:2 15454:1 15733:1 15886:1 18243:1 20986:1 21748:2 24934:3 25252:2 26078:3 27462:1 27907:1 28438:1 31621:2 33476:1 36096:2 36960:1 38176:1 38252:7 39580:2 41277:1 42059:1 42428:1 45325:1 46225:1 46327:1 46927:1 48388:1 49183:1 50638:1 51550:1 51736:2 51739:1 51740:1 52059:1 52235:1 52997:2 57319:1 57470:1 57560:2 57578:1 63146:1 69858:1 70635:1 72044:2 72416:2 73467:2 73911:3 74246:1 77210:1 78150:1 80476:1 80869:1 82708:1 82768:1 83782:2 88323:2 89051:1 90468:3 90718:4 91437:8 92679:1 94635:1 94804:1 94829:1 94909:1 96209:2 96452:1 97417:1 97687:1 99208:1 100607:3 100640:3 100671:1 #
-0.00042345395701219606552842544822113 20:2 29:3 30:1 1029:1 2038:1 4939:1 5831:1 6186:1 10495:1 10573:1 12017:2 18012:1 22074:1 22156:2 24517:1 40711:1 46225:1 49905:1 52059:1 58197:1 62581:2 69129:1 69856:1 73699:1 76868:1 90468:1 94632:1 94829:1 95931:1 98729:1 #
0.00042345395701219606552842544822113 18:2 23:1 27:1 28:6 30:12 1030:1 4168:1 7395:1 10494:2 10497:39 10572:1 10573:1 10580:2 10847:1 11912:1 13190:1 13858:6 14405:1 15067:1 15820:1 17512:1 18555:2 19438:1 21748:1 22092:1 22232:1 22673:1 23821:1 26078:1 26400:2 26531:1 28353:1 28495:1 30229:1 33615:1 33669:1 34710:1 36145:1 38341:1 41277:1 41548:1 42059:2 44249:1 44386:1 45703:1 46547:1 47040:1 48862:1 49183:1 49905:5 50277:1 51114:1 52059:1 52235:1 53481:1 55079:1 56153:1 57578:1 58211:1 59202:1 59330:1 59348:1 60168:1 60769:3 63146:1 64129:1 64356:1 65145:1 66172:1 67142:1 67596:1 67602:1 67672:2 67674:1 67925:1 68478:1 69086:1 70139:2 72044:2 72134:1 74361:1 74363:1 74948:1 74967:1 77093:1 78146:1 78150:2 78389:1 80869:1 82394:1 82708:2 82956:1 87399:1 87730:1 88323:1 89051:1 89744:1 90468:6 90718:1 91093:1 91116:1 91437:7 94830:1 97232:1 97310:1 97627:1 98729:1 100326:1 100590:1 100607:4 100640:3 #
-0.00042345395701219606552842544822113 29:4 30:7 5213:1 5274:1 8238:1 10494:3 10573:1 10575:6 11563:3 19974:2 21831:2 22109:1 22262:1 25382:1 27907:1 30120:2 32186:1 33375:1 36096:1 38877:1 40256:2 48862:1 49183:1 49905:1 55284:1 59930:1 60769:1 64367:2 66042:2 66070:4 66072:1 66283:2 68051:1 70793:1 75943:1 78837:3 90468:2 90718:1 91437:1 93982:1 96032:1 100607:2 100640:1 #
-0.00042345395701219606552842544822113 20:5 21:3 23:2 28:11 29:1 30:16 33:3 34:3 527:1 773:1 774:1 2230:1 2274:1 2276:1 3270:1 4026:1 4043:2 4044:1 4581:1 5245:1 8842:1 9247:1 9502:2 9778:1 10494:2 10497:3 10499:5 10573:1 10578:10 10580:7 13360:2 13858:2 14111:1 14209:1 15886:4 16216:1 17506:4 17830:3 18243:1 21748:1 21951:1 23612:1 23821:2 23840:1 26078:1 26363:1 27653:2 27659:4 30141:1 32254:2 32433:1 34042:2 34793:1 35951:1 36345:1 36348:2 36838:1 38006:1 38207:1 41277:5 42059:1 42151:1 43298:1 43715:1 43886:1 43889:1 44223:1 44838:1 46225:2 46319:1 46733:1 46927:1 47780:1 49183:2 49905:1 52059:2 56153:2 56983:2 57687:1 58056:1 58673:1 59154:2 59421:4 59426:1 66099:1 67104:6 67596:1 67616:1 68051:2 68551:2 72044:1 72062:1 75372:1 76351:1 77092:1 79466:1 81080:4 86624:1 89051:1 90424:1 90426:2 90468:8 90511:2 90818:2 90914:1 91437:10 91476:3 93190:1 94227:5 95368:1 95616:1 97543:5 98164:1 98268:2 98462:3 98617:1 98729:3 99098:1 99622:1 100607:4 100640:6 #
-0.00042345395701219606552842544822113 17:1 23:2 24:4 25:4 28:23 29:39 30:52 31:30 3374:1 4043:1 5246:1 6097:1 7968:1 10494:15 10499:1 10573:1 10580:8 10847:2 11146:1 11544:1 11548:1 11878:2 13116:1 13736:1 13858:4 15454:1 15886:5 16052:1 16383:1 16387:3 16843:1 18038:1 18555:1 18978:1 19218:2 20443:1 21562:1 21748:1 22262:1 22597:2 23706:3 23890:1 23913:2 24347:1 26078:19 26125:1 26243:2 28735:2 29403:1 29474:1 30141:2 30195:1 30229:1 30250:1 30431:1 32557:1 33037:2 33174:1 33375:1 33569:4 34930:1 36096:2 36681:1 36708:1 38347:1 38750:1 38882:1 38901:1 39410:2 40256:1 40398:1 40535:1 40551:1 40552:2 41173:1 41277:8 41339:1 41551:1 41930:1 43261:1 43469:1 43531:1 44045:1 44218:4 46783:2 46788:1 47424:1 48072:1 48148:1 48388:9 49096:1 49183:1 49905:2 49973:1 50060:1 50286:1 50585:2 50638:2 50640:1 50930:1 51419:1 52059:3 52235:1 52665:1 53543:4 53746:2 56028:1 56029:1 58394:1 59421:1 59564:1 59763:1 62538:1 63146:2 64356:8 64367:1 64809:1 65013:1 65145:1 65683:1 66102:1 67104:3 67138:1 67596:3 67616:1 67672:1 68051:4 68163:1 68189:1 68478:1 68551:2 68579:1 68725:2 69205:1 70800:1 72044:2 72046:1 73591:2 73625:1 73754:1 73968:1 74355:1 74555:2 75909:1 77293:1 77726:17 77735:1 78209:2 78213:3 78216:1 78919:1 80869:1 80986:2 82273:1 82948:4 82956:3 83005:1 84376:6 84859:1 85768:1 85865:1 85873:1 86935:1 87756:5 88244:1 88323:1 88379:1 89051:1 89212:2 90157:1 90426:3 90446:2 90468:5 90718:1 90855:1 91347:1 91374:4 91437:17 91476:1 91658:1 91667:1 94619:2 94804:2 94829:3 94909:3 95303:1 95361:1 96109:1 96452:1 97627:5 97687:3 97769:1 98132:2 98175:1 98462:5 98709:1 98729:4 99208:2 99529:8 100326:1 100607:8 100640:16 #
-0.00042345395701219606552842544822113 17:2 24:4 25:4 28:47 29:10 30:20 31:4 34:1 2277:1 2291:1 3720:1 8842:1 10494:6 10572:1 10573:1 11548:2 11563:4 12246:1 13801:1 13858:18 15397:1 15757:1 15886:1 16111:1 16464:3 18012:1 20732:1 21748:3 22270:1 22450:1 23258:1 23259:1 23274:5 23481:1 25252:2 26078:4 26395:1 26400:4 27343:1 27344:1 27462:2 27481:1 27837:1 28289:1 30120:1 30271:1 31744:2 31748:1 32526:2 32530:4 33081:1 33749:1 33866:2 34793:2 35244:1 35840:3 36096:2 36348:1 36838:1 38819:1 39584:3 39720:1 39739:1 40367:1 41173:1 41424:2 41449:1 42235:1 42295:1 43276:1 43279:1 43280:1 43385:1 46225:1 46927:2 47710:1 48388:1 48726:1 49183:1 50059:4 50060:2 50262:1 50405:1 50638:5 51058:2 51340:1 51708:1 52059:1 53613:1 54509:2 57584:1 57595:2 57604:1 58123:1 59330:1 61747:1 63146:3 63404:1 63550:1 63567:1 63676:1 63891:1 64356:2 65013:1 65820:4 66172:1 66425:2 66433:2 67104:3 67596:3 67843:1 67854:1 68051:1 68111:2 68478:1 68551:2 68975:2 68978:1 70813:2 71264:3 71926:3 72416:1 72594:1 73016:3 73027:1 73043:1 73809:1 73911:1 74113:1 74633:1 74958:1 75045:1 75883:1 76122:1 77790:1 78410:1 78518:1 79078:1 79116:1 80074:3 80317:2 80694:1 80869:2 81093:1 82768:1 82956:1 86754:1 86786:1 87791:1 88964:1 89010:1 90333:1 90424:2 90468:1 90718:3 91437:4 93271:1 93332:2 94237:1 94491:1 94635:1 94829:1 94837:1 94998:3 95004:7 96209:1 96452:1 97730:2 98138:1 99529:1 100326:1 100640:2 #
-0.00042345395701219606552842544822113 28:4 29:1 30:4 2274:1 2291:1 10573:1 10580:1 10787:1 13360:1 14682:1 15454:1 15737:1 16030:1 17830:1 22850:1 23213:1 32273:1 33395:1 33644:1 39584:1 40176:1 41424:1 46316:1 48862:2 49905:1 52235:1 62921:1 64129:1 67104:1 67596:1 67816:1 68631:1 74246:1 74291:1 74341:1 82716:1 83386:1 90468:3 91437:2 96308:1 98462:1 100607:3 #
-0.00017272449031792994284320585940407 18:4 28:3 30:8 10494:1 10573:1 13792:1 13858:3 14688:1 15454:1 15886:1 17830:1 18012:1 18555:1 18643:4 18879:2 20554:1 21748:1 22262:1 25457:1 25700:1 28096:4 28099:1 31748:1 32257:1 32757:1 37805:1 40398:1 44496:1 46225:1 48417:4 49060:1 49905:1 50293:1 50918:1 52059:2 57991:1 59406:1 59962:1 60288:3 60396:1 61431:1 64809:1 67698:1 68551:1 68579:1 74781:1 77462:1 77467:1 78519:1 79573:1 81435:1 81436:1 82577:1 84087:1 89000:1 89260:1 89392:1 89757:1 90468:14 90541:1 90718:1 90855:1 91437:5 92032:1 95366:1 97543:1 97627:1 99414:1 100607:2 100640:1 101186:1 101235:1 #
-0.00042345395701219606552842544822113 22:1 23:1 24:2 25:2 28:12 30:10 1698:1 3020:1 3143:1 3485:1 6097:1 10573:1 10578:4 10580:5 10847:1 12990:1 13241:1 13291:1 13858:3 14192:1 15067:2 15454:1 15886:1 17830:2 18038:1 18177:1 20119:1 21748:1 23547:1 23757:1 26181:1 26413:1 27782:1 28353:1 28710:1 29405:1 31534:4 32561:1 32755:1 33967:1 36519:1 36599:1 36838:1 39900:1 41277:1 41453:1 42059:2 45146:1 45703:1 46316:3 46463:2 46584:1 47427:1 48862:2 49776:1 49905:4 50638:1 51336:1 52059:3 52235:3 52567:1 53737:1 56947:1 58228:1 58715:2 61013:1 61821:1 63061:1 63146:1 63191:1 63491:1 64081:2 64809:1 64825:1 65249:1 67104:7 67142:1 67616:1 67925:1 68051:1 68111:1 68481:1 68551:2 68579:1 71926:1 72740:1 73508:1 73771:1 74344:1 74456:4 76583:1 77099:1 77691:1 80869:1 81768:2 82370:1 82708:1 82712:1 82796:1 84295:1 84383:1 89260:1 89972:1 90446:1 90468:6 90645:1 90718:2 91437:4 95931:1 97318:1 97543:1 97627:4 97769:2 98138:1 98268:2 98462:3 98729:3 #
-0.00042345395701219606552842544822113 23:1 29:3 30:5 31:4 10494:1 10573:1 15886:2 17304:1 34291:1 35288:1 46927:1 47427:1 47780:1 48388:1 52059:2 64356:1 69205:1 74145:2 79363:3 79368:1 79375:1 80869:1 87086:1 90718:1 99529:1 101623:1 #
-0.00042345395701219606552842544822113 2:3 18:4 21:2 23:10 24:6 25:6 27:1 28:42 29:39 30:49 31:14 33:3 348:3 773:5 774:2 1190:1 1350:2 1541:1 1697:1 2274:1 2275:2 2277:8 6095:5 7061:4 8843:1 9502:1 10494:19 10499:2 10572:3 10573:1 10575:1 10580:8 11146:1 11407:1 11520:1 11548:1 11563:1 11727:1 11728:1 11755:1 11893:1 11912:1 12119:1 12185:1 12247:1 12332:1 12990:1 13620:1 13736:4 13858:7 14405:2 14682:1 14684:6 15046:1 15397:1 15454:2 15754:1 15886:4 17512:1 17830:3 18012:1 18038:1 18630:1 20003:1 20196:1 21137:12 21282:1 21562:1 21600:5 21656:1 21748:4 22037:1 22262:1 22825:1 23109:1 23840:2 24068:1 24435:1 25252:1 26078:6 26243:2 26652:2 27386:1 27462:2 27914:1 28222:1 28275:1 28714:1 29403:1 29474:2 30119:1 30122:5 30189:4 30250:2 30431:1 30574:1 31866:1 32257:1 32530:1 33073:1 33375:1 33395:1 33476:3 33514:1 34786:2 35252:1 35254:1 36096:1 36559:3 36797:2 37781:1 38137:1 38489:1 38506:1 39166:1 39361:1 39561:1 40256:2 40398:1 40745:1 40785:1 41096:3 41277:10 41846:3 42059:4 42285:2 42452:2 42467:1 42742:1 44218:2 44310:1 45108:1 45276:1 45347:1 46225:3 46236:1 46316:2 46463:2 46783:1 46927:2 47780:1 48213:1 48388:3 49109:3 49183:3 49905:4 49973:1 50057:3 50059:1 50137:1 50240:1 50404:1 50585:1 50638:1 51058:1 51550:1 51594:1 52059:7 52235:8 52306:3 52607:1 52768:1 52855:1 53172:1 54009:1 54046:1 54314:4 54697:1 55079:3 56173:1 56179:1 57188:1 57189:1 57192:2 57476:1 58170:1 59308:2 59353:3 59406:1 59740:1 59763:1 59948:1 60396:3 61431:1 61798:1 61891:1 61907:1 63146:1 63277:1 64356:1 64825:1 65013:1 65061:10 65063:11 65067:1 65134:1 65145:1 65203:1 65206:1 65683:1 66042:3 66155:4 66172:2 66425:1 66537:1 66560:2 66845:1 67104:9 67124:2 67596:2 67672:1 67698:2 68051:4 68243:1 68245:2 68478:3 68579:2 68665:1 69205:1 69479:1 69697:1 70193:2 70860:8 71897:1 74120:2 74136:3 74632:1 75141:1 75176:1 75909:2 75982:2 76802:1 76868:1 77943:2 77947:2 78003:1 78391:1 78532:1 78541:1 78544:1 78967:1 79111:1 79415:3 80665:1 80869:7 82197:1 82619:1 82948:1 82956:2 82967:1 83588:1 84263:1 84491:1 85255:1 85278:5 85339:1 85452:2 85882:1 86318:8 86737:1 87050:2 87219:1 87492:1 87783:1 87791:2 87919:1 88323:1 88791:1 88993:1 89000:4 89051:4 89432:1 89778:1 90265:1 90446:2 90468:21 90511:1 90527:1 90541:2 90584:3 90689:1 90718:2 91093:1 91437:21 91476:2 92733:1 93190:1 93985:1 94286:3 94491:1 94512:1 94648:2 94856:5 94878:1 94888:2 94909:1 95177:1 95706:2 95894:4 96400:2 96892:1 96901:2 97310:1 98093:1 98132:1 98164:1 98217:1 98462:1 98528:1 98531:1 98729:3 99057:1 99065:1 99074:1 99098:1 99131:8 99282:1 99333:2 99346:1 99349:1 99529:3 99622:1 100336:2 100607:3 100640:5 #
-0.00014151674139530680566687048660413 2:10 17:2 18:2 23:2 24:4 25:4 26:48 27:1 28:28 29:38 30:50 31:24 32:1 33:1 348:1 527:1 773:6 1190:1 2274:1 2277:1 3143:1 4043:3 4285:1 10494:30 10499:2 10572:4 10573:1 10578:1 10580:16 11067:1 11073:1 11140:1 11146:1 11485:1 11563:1 11912:1 12839:4 12844:3 12990:2 13116:4 13241:2 13345:1 13736:1 13858:14 14405:2 14417:1 14472:5 14682:1 14971:1 15067:2 15454:4 15886:7 16036:2 16314:1 16464:2 17830:3 18012:2 18038:1 18120:1 20146:1 20260:1 20889:1 21248:4 21256:1 21328:1 21600:1 21748:2 22135:1 22262:2 22597:1 22825:1 22859:1 23117:1 23481:1 23547:1 23840:1 24281:1 25180:1 25265:2 26078:7 26202:1 26212:1 26243:3 26248:2 26363:1 26743:1 27145:1 27218:1 27462:2 27877:1 27914:1 28201:1 28275:4 28439:1 28735:1 28880:1 28938:1 28946:1 29474:3 30120:1 30122:2 30431:1 30483:3 31238:3 31331:1 31887:1 33011:1 33434:1 33847:1 33866:3 34786:3 35249:1 35252:1 35254:1 36096:1 36681:1 36797:1 38170:1 38500:1 38506:1 38704:1 39142:1 40256:1 40535:1 40634:1 41096:3 41277:5 41598:2 41599:1 41852:4 42059:4 42452:3 43889:1 44026:1 44218:2 45686:1 46082:1 46225:3 46316:4 46463:1 46477:1 46783:1 46799:1 46927:2 47240:1 47476:1 47955:1 48343:2 48355:3 48383:1 48388:6 49047:1 49109:3 49905:6 49973:1 50638:5 50975:1 51550:2 51868:1 52059:8 52235:8 52607:1 52690:5 52768:1 52855:1 53172:1 53235:2 54009:1 54046:1 54345:2 56090:1 56185:3 57319:1 57476:1 57489:2 57578:1 57760:2 57968:1 58215:1 59075:1 59080:1 59308:3 59353:3 59406:2 59421:1 59425:1 59492:2 59560:1 59564:2 60396:1 61410:4 61431:2 62070:1 62094:2 62767:1 63146:5 63277:1 63576:1 63799:1 64204:2 65013:1 65063:8 65068:1 65128:1 65145:4 65203:3 65206:1 65646:3 65683:1 65701:1 66172:2 66309:1 66425:1 66537:1 66560:4 67104:11 67166:1 67596:6 67602:1 67672:1 67843:1 68051:3 68163:3 68192:1 68478:2 68870:1 69141:3 69205:1 69697:1 69852:2 69888:6 69890:1 69892:2 70520:1 71969:1 72635:1 72708:1 72748:1 72936:1 73645:1 73873:2 73999:6 74197:1 74204:1 74291:1 74632:1 74964:1 74967:1 75909:2 76599:1 76802:1 76811:1 76833:2 77103:1 77975:1 77976:2 78391:1 78408:1 78730:1 78747:1 80665:2 80670:1 80869:6 82105:1 82107:1 82110:1 82273:1 82394:1 82410:11 82708:1 82933:4 82936:1 82948:4 82956:1 83760:1 83895:1 83960:1 84075:1 84376:2 85665:1 85801:1 86541:1 86737:1 87016:1 87251:1 87264:1 87783:1 87791:2 87994:1 88205:1 88501:1 88789:2 89000:1 89010:1 89166:1 89775:1 89778:1 89966:1 90053:1 90424:2 90446:10 90468:30 90511:2 90718:5 91437:28 91476:2 92580:1 92650:1 93899:1 94260:1 94491:1 94619:4 94671:1 94867:1 94878:2 94885:1 95706:1 95894:4 95896:1 96174:1 96980:2 97318:1 97627:3 97687:2 97769:3 97853:5 97866:1 98093:1 98164:1 98268:1 98531:1 98559:1 98729:9 98755:1 99131:6 99333:2 99338:1 99529:6 100640:2 100983:2 101398:2 #
