SVM-light Version V6.02
0 # kernel type
3 # kernel parameter -d 
1 # kernel parameter -g 
1 # kernel parameter -s 
1 # kernel parameter -r 
empty# kernel parameter -u 
101623 # highest feature index 
18457 # number of training documents 
2698 # number of support vectors plus 1 
0.24577666 # threshold b, each following line is a SV (starting with alpha*y)
-0.0092457176404683316661703429417685 28:1 29:1 30:1 1475:1 6336:1 7968:1 9638:1 10573:1 12461:1 16506:1 17832:1 21838:1 22262:1 25252:1 30229:1 32208:1 34786:1 41277:1 41846:1 42865:1 43531:1 45081:1 46927:1 49183:1 49973:1 68051:1 74616:1 76854:1 81231:1 90446:1 90468:1 90718:1 91437:1 92488:1 93641:1 94491:1 98462:1 98705:1 99333:1 100607:1 #
-0.0092457176404683316661703429417685 24:1 25:1 30:1 31:1 10494:1 10499:1 10573:1 10575:1 10578:1 10580:1 15886:1 18734:1 26078:1 28201:1 28275:1 38192:1 41688:1 46316:1 46767:1 48388:1 49183:1 55714:1 67104:1 68974:1 76710:1 78280:1 80046:1 80430:1 90468:1 97311:1 98093:1 100299:1 100607:1 101621:1 #
0.0045481683586382180839446931486236 17:1 18:1 20:1 24:1 25:1 28:1 29:1 30:1 31:1 32:1 33:1 225:1 773:1 1029:1 1541:1 1931:1 2001:1 2274:1 3020:1 5245:1 5975:1 6047:1 6631:1 8627:1 8842:1 10438:1 10494:1 10497:1 10573:1 10580:1 10847:1 11067:1 11563:1 11567:1 12215:1 13241:1 13858:1 14444:1 15067:1 15341:1 15454:1 15886:1 16162:1 17830:1 18968:1 20111:1 20986:1 21562:1 21748:1 22262:1 22635:1 22638:1 22865:1 23274:1 23293:1 25090:1 25252:1 26078:1 26531:1 26536:1 26989:1 26991:1 27462:1 27907:1 28741:1 29474:1 30025:1 30250:1 30431:1 32519:1 33375:1 34856:1 36096:1 38433:1 39441:1 39489:1 39729:1 41173:1 41277:1 41441:1 41548:1 42059:1 42285:1 46316:1 47245:1 47460:1 47521:1 47780:1 48213:1 48388:1 49183:1 49905:1 49973:1 50638:1 50882:1 51067:1 51550:1 51753:1 52059:1 52235:1 52264:1 52269:1 53290:1 54345:1 54531:1 56696:1 56983:1 57470:1 57879:1 59421:1 60396:1 61167:1 63277:1 63399:1 63981:1 64172:1 64927:1 66042:1 66079:1 66425:1 67104:1 67596:1 67672:1 68051:1 68111:1 68124:1 68490:1 68551:1 69205:1 69230:1 69858:1 70620:1 72044:1 72357:1 72838:1 73754:1 74136:1 74246:1 75795:1 75909:1 76543:1 77299:1 78389:1 79181:1 80869:1 81093:1 82948:1 83580:1 83588:1 83594:1 83704:1 84268:1 85152:1 85647:1 86235:1 86806:1 87237:1 87271:1 87855:1 88090:1 89212:1 89228:1 89539:1 90424:1 90426:1 90433:1 90446:1 90468:1 90718:1 91374:1 91437:1 91802:1 93018:1 93217:1 93332:1 93854:1 94619:1 94909:1 96020:1 96032:1 96452:1 96462:1 96773:1 97417:1 97627:1 97687:1 97779:1 98462:1 98748:1 99529:1 100607:1 100640:1 #
-0.0092457176404683316661703429417685 29:1 30:1 1049:1 5866:1 6758:1 7165:1 7203:1 9419:1 10494:1 10572:1 10573:1 11537:1 11858:1 13985:1 14230:1 14580:1 14658:1 15292:1 15682:1 16334:1 17512:1 19359:1 21056:1 23507:1 25362:1 26078:1 28846:1 31880:1 32060:1 32793:1 34142:1 36096:1 39271:1 41893:1 44016:1 45883:1 51317:1 51670:1 55042:1 59087:1 62007:1 62680:1 66822:1 66908:1 70781:1 70886:1 71264:1 72228:1 73739:1 75753:1 77948:1 85001:1 86989:1 88903:1 90847:1 94632:1 94784:1 95473:1 98552:1 #
-0.0022128679548196030293927272225574 28:1 29:1 30:1 1323:1 1962:1 2002:1 6866:1 7582:1 9368:1 10494:1 10572:1 10573:1 10847:1 13345:1 17090:1 18630:1 21600:1 23385:1 25860:1 29941:1 30574:1 31339:1 32250:1 36096:1 39024:1 39361:1 39412:1 39771:1 40898:1 41277:1 43261:1 46548:1 46783:1 47460:1 56090:1 56951:1 59552:1 62680:1 63277:1 63296:1 64129:1 65013:1 67104:1 67602:1 70520:1 71264:1 74726:1 76318:1 76854:1 81855:1 83333:1 83715:1 84592:1 85491:1 85509:1 90426:1 90527:1 92583:1 95837:1 96848:1 97219:1 97360:1 99349:1 #
0.0092457176404683316661703429417685 18:1 22:1 23:1 28:1 29:1 30:1 10494:1 10572:1 10573:1 10580:1 10847:1 11371:1 11548:1 11773:1 12622:1 13736:1 13800:1 13858:1 13963:1 15072:1 15886:1 18243:1 21831:1 22262:1 22469:1 22850:1 25252:1 25265:1 25633:1 26078:1 26395:1 27425:1 27462:1 32519:1 34549:1 35111:1 36096:1 37470:1 37549:1 41277:1 42059:1 49025:1 49183:1 49744:1 49905:1 50585:1 50638:1 52059:1 52061:1 56547:1 57319:1 57418:1 57470:1 59330:1 60240:1 62645:1 63146:1 63942:1 64478:1 64809:1 65145:1 65203:1 66061:1 67104:1 67147:1 67596:1 67616:1 67698:1 67812:1 68551:1 68919:1 69086:1 69997:1 70193:1 72044:1 74120:1 74136:1 74302:1 76549:1 76833:1 76835:1 77093:1 77103:1 77688:1 77691:1 77726:1 77735:1 77778:1 78436:1 78519:1 78522:1 79573:1 82956:1 85825:1 86492:1 87593:1 87730:1 87783:1 89051:1 90426:1 90468:1 90718:1 91093:1 91437:1 92192:1 94491:1 94648:1 95894:1 98729:1 99208:1 100607:1 #
0.0092457176404683316661703429417685 29:1 30:1 10494:1 10573:1 13514:1 16032:1 39240:1 41277:1 42506:1 46566:1 66042:1 67596:1 90468:1 #
0.009158638157422438128008046476225 24:1 25:1 27:1 28:1 29:1 30:1 31:1 32:1 922:1 2275:1 5603:1 8665:1 8855:1 10494:1 10497:1 10572:1 10573:1 10580:1 11067:1 11563:1 13241:1 13858:1 14405:1 15031:1 15067:1 15454:1 16843:1 22262:1 22850:1 26078:1 27462:1 30431:1 30702:1 31638:1 36096:1 36970:1 38072:1 38207:1 38904:1 39771:1 41846:1 46316:1 46783:1 46927:1 48388:1 49183:1 49905:1 52059:1 52196:1 52204:1 54046:1 54345:1 56185:1 58056:1 58065:1 64809:1 66425:1 67104:1 67596:1 68051:1 68551:1 69852:1 71855:1 72044:1 74005:1 76825:1 76826:1 80976:1 82273:1 82756:1 82948:1 84376:1 87785:1 89932:1 90468:1 90527:1 90718:1 91093:1 91437:1 94829:1 94856:1 94883:1 94909:1 96032:1 97687:1 97730:1 98135:1 98462:1 98705:1 99529:1 100607:1 100640:1 #
0.0092457176404683316661703429417685 28:1 30:1 10499:1 10573:1 10580:1 10787:1 15067:1 22262:1 30076:1 30402:1 40398:1 41277:1 43261:1 46316:1 49183:1 49905:1 53506:1 53737:1 58211:1 63061:1 66042:1 66425:1 68579:1 82435:1 89000:1 90313:1 90386:1 90426:1 90468:1 90718:1 91437:1 97627:1 100607:1 #
0.0092457176404683316661703429417685 23:1 30:1 10573:1 13858:1 44839:1 46927:1 52059:1 53764:1 56155:1 80869:1 90468:1 94632:1 #
-0.0092457176404683316661703429417685 28:1 29:1 30:1 1190:1 2867:1 3718:1 5975:1 6095:1 10494:1 10572:1 10573:1 10574:1 10576:1 10578:1 10579:1 10580:1 12283:1 12362:1 12377:1 13620:1 13858:1 13941:1 14772:1 15454:1 15908:1 16342:1 17075:1 17830:1 18038:1 18139:1 18317:1 18879:1 20026:1 20307:1 20344:1 21562:1 21600:1 22006:1 23313:1 23846:1 24942:1 26078:1 26434:1 27439:1 28051:1 29751:1 29814:1 34849:1 35445:1 35507:1 35691:1 35771:1 36736:1 39412:1 39489:1 39668:1 39729:1 39990:1 40532:1 41981:1 42059:1 43409:1 43816:1 44603:1 44833:1 46316:1 46391:1 47920:1 51070:1 52235:1 54972:1 57314:1 58580:1 58804:1 59353:1 59421:1 59792:1 60769:1 60872:1 60910:1 61431:1 61436:1 61439:1 61560:1 61891:1 61933:1 63146:1 63676:1 64301:1 65428:1 66610:1 67104:1 67596:1 67672:1 68024:1 68243:1 68670:1 69621:1 69697:1 70913:1 70915:1 71169:1 71891:1 72192:1 74120:1 75038:1 75898:1 75986:1 76802:1 81211:1 81872:1 82394:1 82627:1 82768:1 82956:1 85074:1 87050:1 87730:1 87989:1 88205:1 89736:1 90468:1 90645:1 90818:1 91278:1 91419:1 91437:1 91934:1 92512:1 94619:1 95177:1 95325:1 95768:1 96032:1 97958:1 98175:1 98462:1 99074:1 99649:1 100318:1 100378:1 100767:1 101623:1 #
0.0092457176404683316661703429417685 17:1 23:1 28:1 29:1 30:1 31:1 10494:1 10495:1 10573:1 10580:1 11401:1 11435:1 13241:1 13413:1 13736:1 13858:1 15067:1 15283:1 15454:1 20551:1 20775:1 21562:1 24078:1 25252:1 26078:1 26318:1 28946:1 29842:1 30229:1 30373:1 30431:1 31644:1 32186:1 36096:1 36599:1 36613:1 36736:1 36747:1 38207:1 38630:1 40398:1 40535:1 41277:1 41846:1 42059:1 43932:1 46316:1 46491:1 46927:1 48143:1 48388:1 49183:1 50258:1 50283:1 50638:1 50991:1 52235:1 53364:1 54046:1 54345:1 56578:1 57319:1 57666:1 57760:1 61167:1 62213:1 62720:1 63146:1 65063:1 65145:1 65188:1 66042:1 67104:1 67150:1 67596:1 72044:1 74474:1 76802:1 76868:1 77092:1 77099:1 77103:1 77735:1 78518:1 78875:1 79466:1 84058:1 84268:1 85152:1 85850:1 86819:1 89700:1 90426:1 90446:1 90468:1 90527:1 90691:1 90718:1 91093:1 91437:1 91658:1 91687:1 92032:1 94619:1 94638:1 94829:1 95616:1 96171:1 96311:1 97627:1 97667:1 97853:1 98729:1 99131:1 99208:1 99285:1 99529:1 100607:1 100640:1 #
-0.0016581180896425901007823489052839 17:1 29:1 30:1 31:1 10494:1 10499:1 10573:1 10580:1 12091:1 13858:1 14266:1 17206:1 19573:1 23127:1 24252:1 24983:1 26078:1 27090:1 29912:1 30322:1 30917:1 31597:1 34579:1 40347:1 40398:1 41277:1 43531:1 44777:1 48355:1 48388:1 49960:1 55883:1 57142:1 58419:1 70050:1 71855:1 75698:1 80079:1 83105:1 87549:1 89051:1 90333:1 90468:1 96432:1 97246:1 97304:1 100607:1 #
0.0092457176404683316661703429417685 28:1 30:1 31:1 10573:1 10580:1 17830:1 20657:1 21600:1 24517:1 27478:1 31748:1 40856:1 43531:1 46316:1 56493:1 58394:1 59080:1 62453:1 62454:1 65683:1 67104:1 67596:1 67616:1 81979:1 85900:1 90468:1 91437:1 97627:1 98462:1 100391:1 #
0.0092457176404683316661703429417685 17:1 10573:1 22092:1 42304:1 46316:1 73760:1 #
0.0092457176404683316661703429417685 17:1 10573:1 31463:1 73087:1 85339:1 94632:1 #
0.0064448725368844404781665247128331 19:1 24:1 25:1 29:1 30:1 1190:1 5232:1 6593:1 10573:1 13792:1 15692:1 16036:1 20641:1 26482:1 27462:1 35111:1 40616:1 41277:1 42428:1 49645:1 50638:1 53358:1 68051:1 72044:1 79875:1 90229:1 94632:1 94829:1 99622:1 #
0.0092457176404683316661703429417685 17:1 6095:1 10573:1 26907:1 49905:1 63055:1 65357:1 71461:1 90400:1 #
0.0033464704781226775609503931718791 23:1 29:1 30:1 32:1 773:1 774:1 948:1 1147:1 1412:1 1463:1 1495:1 1540:1 1697:1 1763:1 1764:1 1949:1 4043:1 4373:1 5245:1 5696:1 6095:1 8679:1 8871:1 10572:1 10573:1 13858:1 15392:1 17716:1 17718:1 20551:1 22119:1 23853:1 24431:1 29751:1 30402:1 34786:1 37349:1 41277:1 42059:1 42241:1 44686:1 48862:1 56068:1 59016:1 60205:1 63170:1 64240:1 68579:1 69784:1 71248:1 72503:1 72507:1 72696:1 75460:1 76172:1 82689:1 86671:1 87050:1 87695:1 87855:1 88954:1 89051:1 90468:1 90706:1 91802:1 93156:1 96155:1 97173:1 #
0.0010233228252951702148126900127068 28:1 29:1 30:1 31:1 135:1 145:1 4043:1 7249:1 9112:1 10494:1 10573:1 10578:1 10580:1 11137:1 12215:1 12259:1 12990:1 13230:1 13241:1 13736:1 13858:1 14262:1 14405:1 15067:1 15454:1 15886:1 16032:1 17830:1 18630:1 19070:1 21276:1 21316:1 21326:1 21562:1 23277:1 23481:1 23498:1 26078:1 26162:1 26531:1 26747:1 27462:1 27585:1 27673:1 27681:1 28051:1 29962:1 30141:1 32774:1 33375:1 36348:1 36838:1 36897:1 36924:1 37047:1 38842:1 38900:1 39771:1 41277:1 45345:1 45959:1 46316:1 46927:1 47780:1 48213:1 48355:1 48388:1 49097:1 49746:1 49905:1 50059:1 51569:1 52235:1 57476:1 59308:1 63277:1 66042:1 67104:1 67596:1 67816:1 68051:1 69141:1 69143:1 72044:1 72766:1 72826:1 72838:1 72852:1 72936:1 74027:1 74632:1 75899:1 76350:1 77092:1 78730:1 80869:1 80980:1 82072:1 82074:1 82410:1 82948:1 83760:1 84376:1 85152:1 87919:1 88525:1 90230:1 90446:1 90468:1 91437:1 91834:1 93332:1 93985:1 94619:1 94856:1 94928:1 97627:1 98462:1 98729:1 99158:1 100607:1 #
-0.00056960878123329819824882669365707 28:1 29:1 30:1 32:1 411:1 522:1 529:1 574:1 623:1 654:1 773:1 1087:1 1332:1 2038:1 2274:1 2867:1 3126:1 3375:1 3644:1 3835:1 3952:1 4633:1 4685:1 5092:1 5245:1 5342:1 5387:1 5443:1 5874:1 5915:1 5942:1 5967:1 5989:1 6335:1 6502:1 6644:1 6740:1 6876:1 6973:1 7061:1 7114:1 7293:1 7546:1 7644:1 7869:1 7945:1 7955:1 7968:1 8121:1 8541:1 8563:1 8799:1 8841:1 8842:1 9046:1 9248:1 9260:1 9274:1 9296:1 9501:1 9548:1 9565:1 9898:1 10494:1 10573:1 10574:1 10576:1 15516:1 21831:1 23213:1 29751:1 35029:1 36066:1 39111:1 42506:1 42571:1 48862:1 48863:1 52466:1 53276:1 53718:1 53949:1 53951:1 55722:1 56374:1 59016:1 62248:1 64058:1 64240:1 66633:1 68033:1 68954:1 69086:1 72192:1 76122:1 80869:1 84622:1 89051:1 90881:1 91341:1 93332:1 93615:1 97075:1 98824:1 99622:1 99873:1 100150:1 100433:1 #
-0.0092457176404683316661703429417685 24:1 25:1 29:1 30:1 2168:1 10573:1 10580:1 11494:1 13360:1 13736:1 14660:1 15067:1 17507:1 18177:1 20437:1 20936:1 22677:1 24435:1 28278:1 28353:1 28702:1 29751:1 31607:1 33461:1 38089:1 40535:1 41453:1 42059:1 46057:1 48208:1 48474:1 48862:1 49183:1 49436:1 49905:1 52059:1 52235:1 52466:1 54739:1 58668:1 59421:1 60769:1 63834:1 64006:1 67104:1 68977:1 69575:1 70520:1 71471:1 72123:1 78670:1 79092:1 79400:1 81005:1 81115:1 82054:1 84039:1 88509:1 89700:1 90283:1 90468:1 90584:1 91437:1 94249:1 97310:1 98138:1 100607:1 #
0.0050178837245794145893729165663899 8:1 24:1 25:1 28:1 29:1 30:1 31:1 498:1 773:1 7478:1 7546:1 7599:1 8089:1 10494:1 10499:1 10572:1 10573:1 10580:1 11563:1 13858:1 14405:1 15756:1 16025:1 16387:1 17934:1 18243:1 21748:1 22643:1 25252:1 26078:1 26243:1 27587:1 28880:1 36096:1 36599:1 39584:1 39826:1 40398:1 41424:1 41548:1 42059:1 46316:1 46464:1 47780:1 48173:1 48177:1 48388:1 49183:1 49905:1 50918:1 52059:1 52306:1 56951:1 57319:1 57470:1 57578:1 58123:1 59330:1 60396:1 61166:1 61330:1 61431:1 61747:1 62126:1 64356:1 64990:1 66633:1 67160:1 68051:1 68163:1 68551:1 69205:1 71264:1 72044:1 73625:1 76833:1 77685:1 78150:1 78151:1 82768:1 82929:1 84445:1 86991:1 87994:1 90468:1 90718:1 91437:1 97417:1 98138:1 98462:1 99208:1 99529:1 100607:1 100640:1 #
0.0092457176404683316661703429417685 18:1 20:1 21:1 22:1 24:1 25:1 28:1 29:1 30:1 31:1 225:1 291:1 654:1 1190:1 1697:1 2140:1 2274:1 2277:1 2291:1 4043:1 4044:1 5685:1 6872:1 10494:1 10499:1 10572:1 10573:1 10580:1 10847:1 11055:1 11146:1 12174:1 12185:1 12990:1 13230:1 13241:1 13360:1 13640:1 13736:1 13858:1 14405:1 15067:1 15312:1 15454:1 15733:1 15773:1 15886:1 16032:1 16070:1 16094:1 16602:1 16622:1 17228:1 17830:1 18038:1 18120:1 18178:1 18243:1 18314:1 18346:1 18555:1 18643:1 18890:1 19505:1 20273:1 20279:1 20300:1 21600:1 21748:1 22231:1 22262:1 22632:1 23213:1 23547:1 25194:1 25844:1 25930:1 26078:1 26203:1 26352:1 26400:1 26743:1 26962:1 27295:1 27462:1 27491:1 27493:1 28241:1 28302:1 28353:1 29450:1 29818:1 30431:1 30575:1 31381:1 31386:1 31748:1 32104:1 32204:1 32503:1 33375:1 33449:1 33866:1 34393:1 34549:1 34930:1 35096:1 35150:1 36348:1 36415:1 36838:1 38798:1 39269:1 39584:1 39989:1 40342:1 41277:1 41298:1 41339:1 41549:1 41846:1 42059:1 42285:1 42295:1 42328:1 42428:1 43002:1 43261:1 43531:1 43886:1 43889:1 44386:1 44549:1 45081:1 45283:1 45417:1 46316:1 46547:1 46783:1 46836:1 46927:1 47204:1 47464:1 47869:1 47870:1 48130:1 48388:1 48442:1 48862:1 49602:1 49905:1 50819:1 50982:1 51170:1 51550:1 51635:1 51704:1 52059:1 52235:1 52466:1 53773:1 54031:1 54046:1 54345:1 54348:1 55088:1 56676:1 56860:1 56951:1 58153:1 58341:1 58769:1 60301:1 60396:1 60769:1 60894:1 61435:1 61993:1 62031:1 62366:1 62884:1 62945:1 62978:1 63061:1 63065:1 63146:1 63591:1 63676:1 64006:1 64129:1 64193:1 64737:1 64809:1 65683:1 66042:1 66172:1 66433:1 66449:1 66862:1 67104:1 67124:1 67596:1 67602:1 67616:1 67814:1 68478:1 68551:1 68579:1 68868:1 70055:1 70216:1 70563:1 70651:1 71855:1 72044:1 73594:1 73625:1 73999:1 75222:1 76445:1 76675:1 76808:1 77017:1 77099:1 77103:1 77313:1 77691:1 78389:1 78428:1 78483:1 78509:1 78518:1 78736:1 78782:1 79367:1 79466:1 80622:1 80976:1 81642:1 82410:1 82435:1 82904:1 82929:1 83242:1 83302:1 83895:1 84022:1 84344:1 84438:1 84863:1 85152:1 85339:1 85551:1 85665:1 86754:1 87730:1 87919:1 88012:1 88485:1 88532:1 89539:1 89878:1 89932:1 90446:1 90468:1 90511:1 90584:1 90645:1 90660:1 90691:1 90718:1 90855:1 91093:1 91437:1 91657:1 91802:1 92147:1 92414:1 92770:1 93190:1 93899:1 94472:1 94532:1 94784:1 94788:1 94829:1 95931:1 96308:1 97325:1 97417:1 97543:1 97627:1 97958:1 98093:1 98138:1 98164:1 98290:1 98316:1 98395:1 98462:1 98698:1 98729:1 99214:1 99333:1 100607:1 100640:1 #
0.00146530501734414009273876899897 18:1 23:1 24:1 25:1 28:1 29:1 30:1 31:1 9849:1 10499:1 10573:1 10580:1 10787:1 11918:1 12215:1 13858:1 14071:1 14616:1 15067:1 15886:1 17830:1 17924:1 18038:1 18643:1 21271:1 21282:1 21562:1 22781:1 26500:1 26744:1 30141:1 32255:1 33375:1 38373:1 38631:1 39574:1 40406:1 41424:1 41426:1 43531:1 45088:1 45505:1 46463:1 46503:1 47173:1 48201:1 48862:1 49183:1 49757:1 49905:1 51776:1 52059:1 52235:1 55093:1 56179:1 58153:1 59016:1 59381:1 60396:1 61903:1 63146:1 64809:1 64913:1 65929:1 67104:1 67160:1 68051:1 68551:1 68579:1 68725:1 72349:1 74038:1 76163:1 76599:1 77746:1 83301:1 85152:1 85452:1 85550:1 86991:1 87668:1 89977:1 90267:1 90278:1 90424:1 90446:1 90468:1 90541:1 90584:1 90645:1 90718:1 91437:1 91505:1 92733:1 94619:1 94909:1 95894:1 95896:1 96209:1 97417:1 97627:1 98462:1 99874:1 99883:1 100391:1 100640:1 101235:1 #
0.0092457176404683316661703429417685 23:1 29:1 30:1 773:1 10573:1 19363:1 37128:1 40274:1 41277:1 41512:1 42205:1 46927:1 48862:1 49905:1 52059:1 56662:1 64129:1 66061:1 68478:1 72357:1 74459:1 82956:1 90333:1 91437:1 95616:1 97737:1 100607:1 #
-0.0011470840105939868799195258119994 17:1 24:1 29:1 30:1 31:1 720:1 6047:1 10494:1 10573:1 10576:1 13400:1 19218:1 19498:1 21831:1 24115:1 25940:1 28893:1 38806:1 38829:1 41846:1 42689:1 43849:1 43857:1 44496:1 46767:1 47145:1 48012:1 48126:1 48388:1 54784:1 57470:1 64495:1 67104:1 73722:1 82435:1 87219:1 89815:1 89820:1 90468:1 93643:1 94491:1 95931:1 98793:1 98969:1 100627:1 100633:1 #
-0.0039166774381486878231495296631692 17:1 19:1 28:1 29:1 30:1 31:1 2274:1 10494:1 10572:1 10573:1 10578:1 10633:1 13130:1 13239:1 13858:1 14696:1 16781:1 17135:1 17199:1 17629:1 18555:1 19218:1 19875:1 20742:1 21003:1 22205:1 26520:1 26895:1 27731:1 28084:1 30396:1 41277:1 41450:1 41749:1 42179:1 43531:1 45597:1 48355:1 48388:1 48732:1 53710:1 54698:1 58525:1 60560:1 60769:1 63146:1 63353:1 65926:1 66042:1 67104:1 67440:1 68051:1 68579:1 69239:1 70513:1 72044:1 74370:1 81066:1 81637:1 85441:1 87264:1 88920:1 90468:1 95326:1 98835:1 #
-0.0092457176404683316661703429417685 21:1 30:1 7535:1 10573:1 12990:1 15650:1 17083:1 18921:1 19397:1 22662:1 23876:1 24190:1 25938:1 33317:1 34862:1 38549:1 39377:1 41277:1 42033:1 45434:1 48193:1 52032:1 52263:1 52888:1 59569:1 59958:1 62996:1 62999:1 65145:1 65180:1 65836:1 67124:1 74852:1 75758:1 76805:1 77983:1 78693:1 84425:1 84553:1 85278:1 85656:1 86243:1 87479:1 88510:1 89078:1 93288:1 94594:1 94867:1 97825:1 98141:1 100387:1 #
-0.003345190416928334360691099647056 21:1 23:1 28:1 29:1 30:1 31:1 4043:1 10494:1 10573:1 10580:1 13216:1 13858:1 14682:1 14772:1 15067:1 15571:1 18047:1 18555:1 20310:1 21600:1 26078:1 26531:1 26989:1 31748:1 36897:1 40274:1 40326:1 40535:1 40631:1 41277:1 43932:1 46316:1 48388:1 50638:1 51336:1 51937:1 52235:1 57760:1 58955:1 62642:1 62884:1 63146:1 64809:1 66042:1 68579:1 72044:1 74038:1 74042:1 75758:1 76134:1 76699:1 77093:1 78884:1 85452:1 87763:1 89212:1 89681:1 90426:1 90433:1 90446:1 90468:1 91437:1 97627:1 100607:1 100640:1 #
0.0035316805463242893423081447679124 2:1 21:1 22:1 23:1 24:1 25:1 28:1 29:1 30:1 31:1 33:1 348:1 773:1 774:1 1350:1 1697:1 2273:1 2277:1 2514:1 3270:1 3374:1 5245:1 7458:1 8842:1 9702:1 10494:1 10499:1 10572:1 10573:1 10580:1 10847:1 11073:1 11140:1 11146:1 11407:1 11563:1 11912:1 12185:1 12990:1 13080:1 13230:1 13241:1 13299:1 13736:1 13796:1 13858:1 14127:1 14348:1 14405:1 14621:1 14660:1 14671:1 14684:1 15067:1 15072:1 15283:1 15392:1 15397:1 15454:1 15886:1 16464:1 17512:1 17830:1 17924:1 17951:1 18012:1 18038:1 18120:1 20279:1 20775:1 21600:1 21681:1 21748:1 22052:1 22262:1 22544:1 22632:1 22825:1 23547:1 23840:1 25004:1 25252:1 25265:1 25630:1 25632:1 26033:1 26078:1 26243:1 26395:1 26400:1 26482:1 26520:1 26640:1 27462:1 27914:1 27970:1 28051:1 29403:1 29405:1 29474:1 30431:1 30702:1 31304:1 31619:1 31644:1 31645:1 31672:1 31788:1 31868:1 32530:1 33073:1 33375:1 33514:1 33873:1 34057:1 34393:1 34738:1 34786:1 34930:1 34958:1 35252:1 35254:1 36096:1 36163:1 36191:1 36228:1 36928:1 37072:1 38170:1 38192:1 38207:1 38506:1 38507:1 38904:1 39024:1 39189:1 39412:1 39498:1 39771:1 40256:1 40512:1 40519:1 41096:1 41097:1 41277:1 41453:1 41589:1 41724:1 41857:1 41997:1 42059:1 42452:1 42467:1 42742:1 43280:1 43889:1 43892:1 44202:1 44213:1 44218:1 44223:1 44740:1 45081:1 45104:1 45112:1 45339:1 45377:1 45691:1 45950:1 46225:1 46262:1 46316:1 46783:1 46905:1 46927:1 47339:1 47464:1 47637:1 47703:1 47780:1 47951:1 47962:1 48213:1 48350:1 48388:1 49022:1 49057:1 49064:1 49109:1 49780:1 49855:1 49905:1 49973:1 50405:1 50638:1 51196:1 51201:1 51341:1 51623:1 52059:1 52235:1 52306:1 52607:1 52768:1 52855:1 53172:1 53750:1 53949:1 54009:1 54046:1 54285:1 54348:1 54467:1 55140:1 55794:1 56153:1 57192:1 57319:1 57373:1 57476:1 57489:1 58211:1 59122:1 59308:1 59353:1 59421:1 59560:1 59567:1 59644:1 59937:1 60148:1 60161:1 60396:1 61322:1 61431:1 61763:1 61798:1 61821:1 62355:1 62472:1 62716:1 62763:1 63146:1 63228:1 63277:1 63548:1 65013:1 65050:1 65063:1 65068:1 65128:1 65145:1 65203:1 65206:1 65249:1 66172:1 66309:1 66425:1 66433:1 66537:1 66560:1 66738:1 67104:1 67160:1 67181:1 67596:1 67616:1 67672:1 67698:1 67812:1 67843:1 67925:1 68051:1 68163:1 68359:1 68478:1 68579:1 68725:1 68974:1 69205:1 69352:1 69697:1 70137:1 70175:1 71188:1 71252:1 71420:1 71866:1 71897:1 71968:1 72076:1 72637:1 72696:1 72713:1 73625:1 74005:1 74120:1 74130:1 74136:1 74272:1 74291:1 75909:1 76485:1 76583:1 76808:1 76918:1 77103:1 77107:1 77365:1 77778:1 77943:1 78050:1 78391:1 78541:1 78594:1 78596:1 80042:1 80638:1 80649:1 80670:1 80869:1 81032:1 81562:1 82353:1 82933:1 82940:1 82948:1 82956:1 83053:1 83068:1 83588:1 83760:1 83843:1 83960:1 84376:1 84485:1 85152:1 85278:1 85452:1 85665:1 85865:1 86635:1 86643:1 86712:1 86726:1 86737:1 87492:1 87783:1 87791:1 87887:1 87919:1 88015:1 88018:1 88125:1 88299:1 88379:1 88418:1 88446:1 88475:1 88504:1 89000:1 89010:1 89051:1 89478:1 90424:1 90446:1 90468:1 90511:1 90584:1 90718:1 90866:1 91093:1 91437:1 91476:1 91687:1 93190:1 93252:1 93332:1 94491:1 94648:1 94856:1 94862:1 94878:1 94885:1 95931:1 96109:1 97417:1 97543:1 97627:1 97687:1 97866:1 98093:1 98164:1 98175:1 98268:1 98462:1 98531:1 98559:1 98729:1 99064:1 99098:1 99131:1 99185:1 99286:1 99333:1 99338:1 99529:1 100326:1 100336:1 100391:1 100607:1 100640:1 #
0.0092457176404683316661703429417685 17:1 21:1 23:1 28:1 29:1 30:1 31:1 225:1 3020:1 3143:1 3484:1 4043:1 4044:1 5245:1 10494:1 10573:1 10847:1 13230:1 13858:1 14405:1 14622:1 14674:1 14688:1 14694:1 14737:1 15067:1 15752:1 15886:1 16387:1 17830:1 17868:1 18062:1 18243:1 18317:1 20273:1 20775:1 21748:1 22222:1 22266:1 22371:1 22597:1 22865:1 22967:1 23610:1 24084:1 25252:1 25700:1 26078:1 26531:1 26846:1 27130:1 28372:1 29474:1 30229:1 31748:1 32689:1 33375:1 33615:1 34549:1 34786:1 35694:1 36109:1 36559:1 38184:1 38456:1 41240:1 41257:1 41277:1 41846:1 41998:1 42467:1 43715:1 46245:1 48594:1 49183:1 49905:1 51550:1 52059:1 52269:1 54660:1 54661:1 55840:1 55844:1 56547:1 56662:1 57189:1 57476:1 58003:1 58464:1 59308:1 59564:1 59763:1 59816:1 64006:1 64538:1 65145:1 66042:1 67104:1 67124:1 67138:1 67672:1 68051:1 68478:1 68551:1 68579:1 69230:1 69728:1 69731:1 72044:1 73594:1 73606:1 73754:1 73857:1 73873:1 74136:1 74246:1 74280:1 74362:1 74365:1 75140:1 75144:1 76854:1 77092:1 77385:1 77462:1 77726:1 77783:1 78085:1 79027:1 80869:1 81086:1 81509:1 81522:1 82435:1 82992:1 83302:1 84230:1 85452:1 85850:1 85870:1 86235:1 87237:1 87246:1 88144:1 89051:1 89212:1 89221:1 89544:1 90184:1 90468:1 90718:1 90855:1 90914:1 91093:1 91437:1 91476:1 93271:1 93332:1 94491:1 94856:1 94862:1 95303:1 96715:1 97853:1 98132:1 98138:1 98462:1 98705:1 98729:1 100607:1 100640:1 #
0.0085216500266521409689968180600772 2:1 18:1 21:1 23:1 24:1 25:1 27:1 28:1 29:1 30:1 31:1 33:1 348:1 773:1 774:1 1190:1 1350:1 1541:1 1697:1 2274:1 2275:1 2277:1 6095:1 7061:1 8843:1 9502:1 10494:1 10499:1 10572:1 10573:1 10575:1 10580:1 11146:1 11407:1 11520:1 11548:1 11563:1 11727:1 11728:1 11755:1 11893:1 11912:1 12119:1 12185:1 12247:1 12332:1 12990:1 13620:1 13736:1 13858:1 14405:1 14682:1 14684:1 15046:1 15397:1 15454:1 15754:1 15886:1 17512:1 17830:1 18012:1 18038:1 18630:1 20003:1 20196:1 21137:1 21282:1 21562:1 21600:1 21656:1 21748:1 22037:1 22262:1 22825:1 23109:1 23840:1 24068:1 24435:1 25252:1 26078:1 26243:1 26652:1 27386:1 27462:1 27914:1 28222:1 28275:1 28714:1 29403:1 29474:1 30119:1 30122:1 30189:1 30250:1 30431:1 30574:1 31866:1 32257:1 32530:1 33073:1 33375:1 33395:1 33476:1 33514:1 34786:1 35252:1 35254:1 36096:1 36559:1 36797:1 37781:1 38137:1 38489:1 38506:1 39166:1 39361:1 39561:1 40256:1 40398:1 40745:1 40785:1 41096:1 41277:1 41846:1 42059:1 42285:1 42452:1 42467:1 42742:1 44218:1 44310:1 45108:1 45276:1 45347:1 46225:1 46236:1 46316:1 46463:1 46783:1 46927:1 47780:1 48213:1 48388:1 49109:1 49183:1 49905:1 49973:1 50057:1 50059:1 50137:1 50240:1 50404:1 50585:1 50638:1 51058:1 51550:1 51594:1 52059:1 52235:1 52306:1 52607:1 52768:1 52855:1 53172:1 54009:1 54046:1 54314:1 54697:1 55079:1 56173:1 56179:1 57188:1 57189:1 57192:1 57476:1 58170:1 59308:1 59353:1 59406:1 59740:1 59763:1 59948:1 60396:1 61431:1 61798:1 61891:1 61907:1 63146:1 63277:1 64356:1 64825:1 65013:1 65061:1 65063:1 65067:1 65134:1 65145:1 65203:1 65206:1 65683:1 66042:1 66155:1 66172:1 66425:1 66537:1 66560:1 66845:1 67104:1 67124:1 67596:1 67672:1 67698:1 68051:1 68243:1 68245:1 68478:1 68579:1 68665:1 69205:1 69479:1 69697:1 70193:1 70860:1 71897:1 74120:1 74136:1 74632:1 75141:1 75176:1 75909:1 75982:1 76802:1 76868:1 77943:1 77947:1 78003:1 78391:1 78532:1 78541:1 78544:1 78967:1 79111:1 79415:1 80665:1 80869:1 82197:1 82619:1 82948:1 82956:1 82967:1 83588:1 84263:1 84491:1 85255:1 85278:1 85339:1 85452:1 85882:1 86318:1 86737:1 87050:1 87219:1 87492:1 87783:1 87791:1 87919:1 88323:1 88791:1 88993:1 89000:1 89051:1 89432:1 89778:1 90265:1 90446:1 90468:1 90511:1 90527:1 90541:1 90584:1 90689:1 90718:1 91093:1 91437:1 91476:1 92733:1 93190:1 93985:1 94286:1 94491:1 94512:1 94648:1 94856:1 94878:1 94888:1 94909:1 95177:1 95706:1 95894:1 96400:1 96892:1 96901:1 97310:1 98093:1 98132:1 98164:1 98217:1 98462:1 98528:1 98531:1 98729:1 99057:1 99065:1 99074:1 99098:1 99131:1 99282:1 99333:1 99346:1 99349:1 99529:1 99622:1 100336:1 100607:1 100640:1 #
-0.0018642456906567202341851174907106 17:1 30:1 2275:1 10573:1 15454:1 18227:1 23706:1 23775:1 24864:1 28299:1 28482:1 30343:1 31003:1 34740:1 37403:1 38793:1 41092:1 44282:1 44344:1 46082:1 46927:1 47300:1 48760:1 49905:1 50585:1 56414:1 62214:1 63146:1 63437:1 64968:1 65683:1 68033:1 68579:1 74781:1 75675:1 79925:1 80494:1 80808:1 84622:1 86770:1 89061:1 90468:1 91914:1 96543:1 97461:1 98555:1 100740:1 101440:1 #
-0.0092457176404683316661703429417685 20:1 28:1 29:1 30:1 31:1 32:1 2140:1 7968:1 9849:1 10494:1 10573:1 10580:1 12990:1 15372:1 17830:1 20445:1 20847:1 22371:1 23325:1 24471:1 26078:1 28714:1 34930:1 38765:1 46463:1 48388:1 48862:1 54755:1 59552:1 60384:1 60873:1 62135:1 63146:1 80336:1 84285:1 85269:1 90468:1 91437:1 98132:1 99546:1 #
0.0092457176404683316661703429417685 17:1 30:1 10573:1 10580:1 12990:1 13858:1 15067:1 18321:1 32411:1 36348:1 40347:1 41277:1 41463:1 43554:1 46785:1 50638:1 53824:1 63676:1 64809:1 64811:1 66061:1 75926:1 80908:1 85475:1 90170:1 90433:1 90446:1 90468:1 90622:1 90645:1 91437:1 98268:1 #
-0.0092457176404683316661703429417685 17:1 24:1 25:1 28:1 29:1 30:1 31:1 1951:1 2274:1 10494:1 10573:1 11662:1 15886:1 16464:1 18555:1 22967:1 23305:1 24267:1 25270:1 26078:1 29474:1 30431:1 33866:1 39426:1 41277:1 41951:1 41953:1 42285:1 46316:1 48388:1 51070:1 57578:1 59564:1 63146:1 66172:1 67104:1 67596:1 68051:1 68551:1 69086:1 69952:1 74264:1 77691:1 81093:1 84376:1 85278:1 91259:1 94635:1 95894:1 97627:1 97687:1 98729:1 101247:1 #
0.0011019723833806925345629723622665 18:1 20:1 23:1 24:1 25:1 26:1 28:1 29:1 30:1 34:1 773:1 2038:1 2268:1 2514:1 4045:1 7062:1 9913:1 10494:1 10573:1 10574:1 10576:1 10580:1 10772:1 10787:1 10847:1 10931:1 11208:1 11214:1 11419:1 11721:1 11935:1 11936:1 12185:1 12487:1 12990:1 13017:1 13019:1 13190:1 13241:1 13736:1 13858:1 13935:1 13966:1 14405:1 14417:1 14627:1 15067:1 15068:1 15123:1 15283:1 15454:1 15658:1 15679:1 15886:1 16032:1 16036:1 16070:1 16843:1 17234:1 17300:1 17830:1 17953:1 18012:1 18038:1 18555:1 18643:1 18842:1 18962:1 19309:1 19709:1 21546:1 21562:1 21600:1 21748:1 22092:1 22119:1 22232:1 22236:1 22262:1 22316:1 22450:1 22479:1 22635:1 22642:1 23117:1 23137:1 23895:1 23920:1 24281:1 25194:1 25401:1 26322:1 26395:1 26400:1 26849:1 26865:1 26867:1 26947:1 27014:1 27018:1 27413:1 27653:1 27661:1 27686:1 28073:1 28132:1 28139:1 28218:1 28275:1 28387:1 28618:1 28704:1 28864:1 28886:1 28888:1 28928:1 29049:1 29493:1 29684:1 29934:1 29962:1 30210:1 30527:1 30614:1 30615:1 30792:1 30795:1 31165:1 31166:1 31667:1 32186:1 32191:1 32257:1 32521:1 32645:1 32649:1 32958:1 33031:1 33056:1 33375:1 33474:1 33514:1 33588:1 33615:1 33683:1 33804:1 33912:1 34549:1 34786:1 34846:1 34892:1 35111:1 35445:1 35694:1 35827:1 35851:1 36152:1 36548:1 36599:1 36824:1 37962:1 37965:1 38170:1 38233:1 38347:1 38506:1 38708:1 38789:1 38800:1 39171:1 39176:1 39230:1 39320:1 39325:1 39369:1 39482:1 39739:1 39771:1 39826:1 40221:1 40257:1 40347:1 40367:1 40490:1 40518:1 40535:1 40620:1 41096:1 41277:1 41436:1 41846:1 41991:1 42059:1 42117:1 42328:1 42633:1 42663:1 42742:1 42883:1 43531:1 43886:1 43889:1 44310:1 44386:1 44428:1 44549:1 44554:1 44813:1 45081:1 45300:1 45703:1 46046:1 46225:1 46316:1 46463:1 46548:1 47339:1 47349:1 47427:1 47460:1 47711:1 47748:1 47780:1 47951:1 48150:1 48201:1 48862:1 49183:1 49436:1 49506:1 49850:1 49905:1 50098:1 50405:1 51006:1 51333:1 51338:1 51340:1 51513:1 51691:1 51704:1 51706:1 51723:1 51781:1 51991:1 52059:1 52196:1 52235:1 52306:1 53114:1 53420:1 53572:1 53812:1 53824:1 54218:1 55095:1 56003:1 56073:1 56093:1 56153:1 56327:1 56568:1 56930:1 57241:1 57260:1 57319:1 57326:1 57418:1 58165:1 58324:1 58339:1 58786:1 59154:1 59406:1 59421:1 59552:1 59763:1 59930:1 60353:1 60396:1 60420:1 60769:1 62388:1 62755:1 63061:1 63065:1 63146:1 63277:1 64742:1 64809:1 64951:1 65113:1 65145:1 65188:1 65255:1 65683:1 65801:1 66042:1 66079:1 66159:1 66172:1 66820:1 67104:1 67124:1 67160:1 67163:1 67166:1 67171:1 67180:1 67181:1 67437:1 67596:1 67616:1 67698:1 67812:1 68051:1 68481:1 68733:1 68877:1 68983:1 69697:1 69784:1 69905:1 70095:1 70520:1 70793:1 70860:1 71280:1 71857:1 72349:1 72357:1 72433:1 72435:1 72442:1 72826:1 73016:1 73645:1 73731:1 73996:1 73999:1 74005:1 74163:1 74214:1 74336:1 74375:1 74399:1 74525:1 74942:1 74958:1 75026:1 75151:1 75204:1 75222:1 75898:1 75909:1 76165:1 76356:1 76445:1 76543:1 76599:1 76686:1 77058:1 77496:1 78098:1 78215:1 78399:1 78485:1 78486:1 78707:1 78708:1 78714:1 78782:1 78881:1 79067:1 79367:1 79368:1 79530:1 79624:1 79863:1 80099:1 80869:1 80931:1 81032:1 81424:1 81562:1 81652:1 82370:1 82435:1 82898:1 82905:1 82942:1 82948:1 82967:1 82992:1 83005:1 83316:1 83332:1 83453:1 83760:1 83768:1 83858:1 84085:1 84198:1 84230:1 84340:1 84418:1 84749:1 84859:1 85152:1 85339:1 85354:1 85452:1 85636:1 85678:1 85825:1 86129:1 86541:1 86586:1 86646:1 86721:1 86737:1 86754:1 86762:1 86991:1 87050:1 87124:1 87360:1 87361:1 87543:1 87597:1 87655:1 88098:1 88397:1 88442:1 88463:1 88528:1 88905:1 89051:1 89250:1 90184:1 90265:1 90424:1 90446:1 90468:1 90511:1 90527:1 90584:1 90645:1 90691:1 90700:1 90718:1 90783:1 90861:1 91016:1 91093:1 91116:1 91437:1 91619:1 91657:1 91687:1 92147:1 93018:1 93025:1 93190:1 93899:1 93948:1 94282:1 94284:1 94532:1 94619:1 94862:1 96162:1 96806:1 96828:1 96830:1 97417:1 97627:1 97769:1 97866:1 97926:1 97958:1 98093:1 98095:1 98099:1 98132:1 98164:1 98175:1 98217:1 98268:1 98395:1 98462:1 98480:1 98488:1 98729:1 98748:1 99074:1 99089:1 99168:1 99208:1 99338:1 99355:1 100326:1 100336:1 100391:1 100640:1 100894:1 #
0.0092457176404683316661703429417685 17:1 22:1 30:1 10494:1 10572:1 10573:1 10580:1 11563:1 13792:1 13858:1 15067:1 15578:1 15886:1 18962:1 22119:1 28390:1 33967:1 35288:1 36096:1 38325:1 41277:1 42725:1 43002:1 45703:1 46463:1 47339:1 47427:1 52059:1 56153:1 57319:1 58220:1 59016:1 60681:1 60682:1 63191:1 64356:1 75794:1 81032:1 81754:1 81855:1 83613:1 89337:1 89338:1 90313:1 90433:1 90446:1 90468:1 90645:1 90718:1 91437:1 97769:1 98093:1 99208:1 100607:1 100640:1 #
0.0092457176404683316661703429417685 28:1 30:1 31:1 32:1 225:1 773:1 6095:1 10573:1 12369:1 13858:1 17830:1 31066:1 34682:1 34925:1 35402:1 62587:1 65799:1 66042:1 77393:1 90468:1 92147:1 95013:1 98462:1 #
0.0080042008750352191398524936971626 23:1 28:1 29:1 30:1 3143:1 5245:1 10573:1 10580:1 12061:1 13858:1 14405:1 15454:1 17830:1 18243:1 23842:1 25700:1 28076:1 28082:1 29751:1 30141:1 31788:1 32186:1 36919:1 40631:1 46045:1 46316:1 49905:1 50790:1 52059:1 52235:1 56179:1 57319:1 58162:1 58170:1 58228:1 62365:1 63146:1 64240:1 65683:1 65820:1 66042:1 66143:1 66172:1 66674:1 67104:1 67596:1 68551:1 69913:1 69927:1 73857:1 73999:1 76009:1 79057:1 82072:1 83760:1 85152:1 86522:1 88345:1 88347:1 89000:1 89051:1 90433:1 90446:1 90468:1 90541:1 90584:1 90718:1 91437:1 93233:1 97627:1 97926:1 98974:1 100640:1 101117:1 #
-0.0092457176404683316661703429417685 28:1 29:1 30:1 774:1 3374:1 4766:1 10573:1 10580:1 17830:1 18038:1 37780:1 38207:1 38213:1 38708:1 41277:1 43892:1 45345:1 48148:1 52059:1 56164:1 56680:1 57189:1 57241:1 58813:1 60894:1 60910:1 62214:1 62388:1 62391:1 63981:1 64356:1 67104:1 72435:1 73564:1 83085:1 87197:1 90468:1 90511:1 91437:1 93899:1 98755:1 99208:1 #
-0.0063671598414265818954849152078168 28:1 29:1 30:1 10499:1 10573:1 10787:1 10892:1 14045:1 14622:1 15454:1 20551:1 21748:1 22262:1 22632:1 24047:1 24837:1 28218:1 28946:1 29962:1 33482:1 34549:1 35624:1 36797:1 39024:1 40412:1 40563:1 40898:1 41277:1 42742:1 44543:1 45909:1 47240:1 47717:1 48862:1 55079:1 58220:1 60795:1 62213:1 62744:1 65683:1 66132:1 67596:1 69813:1 71476:1 75222:1 75768:1 76854:1 77365:1 80614:1 81938:1 82353:1 82438:1 83715:1 85278:1 90446:1 90645:1 90818:1 96283:1 96707:1 97325:1 97461:1 100378:1 #
0.0050910836160863951610489053223318 29:1 30:1 31:1 10499:1 10573:1 10580:1 13858:1 14772:1 15067:1 15737:1 20688:1 27604:1 29403:1 42285:1 46316:1 47412:1 47417:1 47427:1 57319:1 58394:1 59154:1 67138:1 67380:1 67596:1 74029:1 77439:1 87050:1 90718:1 91093:1 91437:1 95771:1 97075:1 97627:1 98729:1 99208:1 99349:1 100607:1 #
0.0092457176404683316661703429417685 28:1 29:1 30:1 10573:1 13799:1 15130:1 15454:1 33474:1 41277:1 46927:1 52059:1 65820:1 65952:1 66042:1 76379:1 79106:1 89392:1 90718:1 95455:1 95471:1 96308:1 97866:1 98316:1 99074:1 #
0.0012499320860618330468472247929412 17:1 18:1 20:1 22:1 24:1 25:1 26:1 27:1 28:1 29:1 30:1 31:1 33:1 773:1 774:1 1029:1 1190:1 1697:1 2140:1 2274:1 2275:1 3484:1 3606:1 3904:1 4043:1 4044:1 4554:1 4633:1 5106:1 5170:1 5245:1 5246:1 5840:1 6047:1 6096:1 7061:1 7968:1 9501:1 10493:1 10494:1 10573:1 10580:1 11855:1 11878:1 12185:1 12215:1 12990:1 13241:1 13360:1 13858:1 14130:1 14405:1 14694:1 15067:1 15454:1 15886:1 15897:1 16216:1 16622:1 17090:1 17120:1 17830:1 18038:1 18630:1 20559:1 21600:1 22109:1 22262:1 22792:1 24068:1 24792:1 25180:1 25252:1 25442:1 26078:1 27434:1 28373:1 28387:1 28390:1 28426:1 30402:1 30420:1 30431:1 31748:1 32429:1 33375:1 34141:1 34849:1 37340:1 39213:1 39489:1 39569:1 39755:1 39781:1 40438:1 41225:1 41277:1 41602:1 41846:1 41981:1 42059:1 43531:1 43547:1 43895:1 44218:1 44349:1 44350:1 44496:1 44852:1 44866:1 46316:1 46584:1 46927:1 47724:1 47780:1 48089:1 48388:1 49905:1 50056:1 50057:1 50059:1 52059:1 52235:1 53362:1 53779:1 53824:1 54777:1 55092:1 55896:1 58211:1 58767:1 61166:1 62904:1 62921:1 63061:1 65911:1 66042:1 66083:1 66172:1 67104:1 67138:1 67150:1 67596:1 67698:1 68478:1 68551:1 68579:1 69205:1 69619:1 71991:1 72192:1 73760:1 73857:1 73944:1 76448:1 76477:1 76593:1 77726:1 78085:1 78853:1 80126:1 80288:1 81192:1 81424:1 81469:1 84711:1 85152:1 85452:1 85850:1 85870:1 85904:1 86819:1 88125:1 88144:1 89212:1 89700:1 89806:1 90433:1 90446:1 90468:1 90541:1 90718:1 90868:1 90903:1 90914:1 91093:1 91116:1 91437:1 91476:1 91651:1 92909:1 94829:1 95303:1 97627:1 97756:1 97866:1 98462:1 98729:1 99529:1 100607:1 100640:1 #
0.0092457176404683316661703429417685 17:1 18:1 23:1 28:1 30:1 10499:1 10573:1 10580:1 10847:1 11384:1 13858:1 15454:1 15580:1 15886:1 16103:1 16622:1 18012:1 20260:1 21020:1 21546:1 22262:1 24171:1 25317:1 32153:1 38170:1 41277:1 42121:1 43409:1 43531:1 46316:1 46319:1 46327:1 46463:1 48201:1 48862:1 49905:1 52235:1 56539:1 57319:1 57760:1 63061:1 63191:1 63491:1 66684:1 67104:1 67160:1 67616:1 68725:1 73625:1 74389:1 75925:1 75937:1 76802:1 78385:1 78818:1 80562:1 80869:1 81574:1 83386:1 84344:1 85452:1 86729:1 87261:1 89051:1 90468:1 91437:1 97075:1 97176:1 97926:1 98093:1 98207:1 98316:1 99208:1 100391:1 100607:1 #
0.0092457176404683316661703429417685 23:1 28:1 29:1 30:1 1837:1 2275:1 10573:1 10580:1 11448:1 12215:1 12990:1 13858:1 14405:1 14578:1 15454:1 17830:1 18012:1 20273:1 22262:1 23118:1 23598:1 32272:1 32507:1 34549:1 36096:1 37268:1 41168:1 41277:1 41424:1 42317:1 46316:1 48954:1 49183:1 49905:1 50122:1 51116:1 52235:1 53737:1 59308:1 59312:1 60396:1 65952:1 66042:1 66065:1 66095:1 67104:1 67602:1 70651:1 72044:1 74038:1 77084:1 77093:1 78518:1 78708:1 78866:1 80869:1 81353:1 82410:1 87753:1 87762:1 89744:1 90446:1 90468:1 90718:1 91437:1 97417:1 97627:1 97769:1 98729:1 100607:1 #
-0.0092457176404683316661703429417685 17:1 30:1 31:1 10499:1 10573:1 10576:1 57924:1 58455:1 71169:1 75199:1 82219:1 85211:1 85452:1 87219:1 89051:1 92789:1 97799:1 #
-0.0075254830766247728449092058156111 21:1 24:1 25:1 30:1 7347:1 10573:1 15886:1 17445:1 18178:1 20093:1 21635:1 22144:1 24538:1 27899:1 28032:1 28225:1 28295:1 31887:1 32115:1 32619:1 32985:1 35869:1 48540:1 49618:1 50164:1 50880:1 51184:1 54644:1 58229:1 58446:1 58453:1 63376:1 63985:1 68885:1 69526:1 70372:1 73760:1 81128:1 81328:1 82426:1 82886:1 83097:1 83791:1 84898:1 85278:1 87318:1 88962:1 90431:1 95536:1 96213:1 97497:1 #
0.0092457176404683316661703429417685 28:1 29:1 30:1 31:1 281:1 411:1 461:1 773:1 3966:1 4075:1 6768:1 7968:1 10494:1 10497:1 10499:1 10573:1 10580:1 11563:1 11814:1 12824:1 13858:1 15886:1 17726:1 17966:1 21771:1 23372:1 24662:1 24738:1 26078:1 27990:1 33355:1 33375:1 34173:1 34786:1 36096:1 41846:1 43531:1 44103:1 44348:1 45026:1 48388:1 48862:1 49051:1 52469:1 55170:1 56601:1 59345:1 59398:1 59540:1 61869:1 61928:1 62067:1 62817:1 63427:1 64240:1 64245:1 64628:1 65015:1 65405:1 67647:1 68402:1 70692:1 74252:1 75359:1 80039:1 84002:1 84572:1 86245:1 89840:1 93057:1 93195:1 93239:1 93260:1 94830:1 96315:1 97075:1 98382:1 99529:1 100894:1 100915:1 100931:1 100963:1 101063:1 101349:1 101353:1 101379:1 #
0.008614406404995335678198564721697 5:1 17:1 27:1 28:1 29:1 30:1 773:1 2274:1 2277:1 3885:1 6047:1 6095:1 7968:1 10494:1 10499:1 10572:1 10573:1 10578:1 10580:1 13360:1 13738:1 14036:1 14444:1 16781:1 19063:1 20360:1 21831:1 21838:1 23274:1 23319:1 24664:1 26078:1 29160:1 29715:1 33391:1 33395:1 33522:1 34733:1 34734:1 34736:1 34768:1 34771:1 35321:1 35938:1 40380:1 42059:1 45962:1 48862:1 52346:1 52466:1 52809:1 52961:1 52974:1 55181:1 57696:1 58839:1 60446:1 61431:1 61713:1 62670:1 66159:1 66633:1 66800:1 67631:1 67888:1 68243:1 69101:1 69434:1 69461:1 70182:1 71849:1 72192:1 72313:1 73008:1 73176:1 73177:1 73206:1 73968:1 74543:1 74757:1 74762:1 77108:1 80356:1 81764:1 82768:1 82872:1 86076:1 86077:1 87489:1 87730:1 89019:1 89037:1 89070:1 91437:1 92385:1 92909:1 93317:1 93566:1 95177:1 96565:1 97075:1 97407:1 99424:1 99556:1 99579:1 100894:1 100979:1 101424:1 101623:1 #
-0.0092457176404683316661703429417685 23:1 25:1 30:1 10495:1 10573:1 10847:1 11255:1 11360:1 12326:1 12647:1 13049:1 14112:1 15732:1 16023:1 16087:1 18027:1 18317:1 18843:1 19467:1 20402:1 20811:1 21408:1 22262:1 24544:1 25950:1 27891:1 29719:1 30170:1 31175:1 32126:1 33847:1 34028:1 34096:1 37282:1 37496:1 38605:1 39024:1 39769:1 40721:1 44013:1 45609:1 46927:1 48862:1 52235:1 52636:1 56930:1 58631:1 59421:1 60139:1 64302:1 64834:1 67341:1 71393:1 71897:1 73780:1 75233:1 75841:1 75933:1 80185:1 80869:1 83367:1 83753:1 85904:1 87401:1 89263:1 90301:1 90424:1 90468:1 90718:1 91437:1 92957:1 93306:1 94749:1 95978:1 98462:1 98729:1 100607:1 101265:1 #
-0.008484944775149435430838806837528 28:1 29:1 30:1 527:1 587:1 682:1 2873:1 3143:1 3718:1 4043:1 4373:1 4521:1 6241:1 6610:1 7061:1 7968:1 8842:1 9501:1 10494:1 10573:1 10580:1 11835:1 13858:1 17830:1 22119:1 24068:1 25114:1 26078:1 30394:1 41586:1 41846:1 44607:1 46767:1 48862:1 51336:1 51419:1 51739:1 52235:1 53220:1 53824:1 53949:1 61891:1 66637:1 67596:1 68579:1 71855:1 75373:1 77691:1 80976:1 82179:1 83760:1 84376:1 85301:1 88609:1 90468:1 90691:1 90786:1 91437:1 95063:1 97222:1 100607:1 #
-0.0092457176404683316661703429417685 23:1 28:1 31:1 773:1 1190:1 1350:1 1541:1 2038:1 2262:1 2275:1 2291:1 2514:1 2860:1 2867:1 3270:1 4043:1 5245:1 6168:1 8842:1 10573:1 13858:1 15418:1 16462:1 21838:1 22953:1 25477:1 26021:1 29254:1 31075:1 32099:1 34866:1 36186:1 36226:1 40499:1 40563:1 44317:1 52997:1 56507:1 57470:1 58657:1 59912:1 62581:1 68551:1 72623:1 72727:1 74136:1 79510:1 80220:1 80222:1 80869:1 84164:1 90433:1 90468:1 94211:1 96032:1 99622:1 #
-0.0092457176404683316661703429417685 25:1 28:1 30:1 10494:1 10573:1 11645:1 24281:1 42506:1 46767:1 50009:1 53258:1 54059:1 55547:1 60533:1 72338:1 73914:1 91277:1 91413:1 93517:1 97094:1 #
-0.0045376058149891630721928237335305 23:1 28:1 30:1 10573:1 11719:1 12075:1 12112:1 12756:1 12880:1 13679:1 13797:1 14009:1 15816:1 16464:1 16685:1 17079:1 17217:1 17521:1 17981:1 18048:1 18273:1 18376:1 18597:1 19383:1 19698:1 20423:1 21004:1 21384:1 22655:1 22687:1 23610:1 23769:1 24457:1 24529:1 25113:1 26077:1 26793:1 26921:1 27494:1 28616:1 28674:1 29498:1 29751:1 30022:1 30255:1 30460:1 31537:1 31650:1 32127:1 32202:1 32225:1 35419:1 35884:1 36257:1 37522:1 37626:1 37631:1 38778:1 39197:1 40740:1 41277:1 41612:1 43349:1 43389:1 44563:1 45469:1 46137:1 46927:1 47042:1 47173:1 48228:1 50089:1 50296:1 52059:1 53989:1 54817:1 55840:1 56851:1 57319:1 57639:1 58464:1 61146:1 61949:1 62062:1 62457:1 63329:1 67101:1 67908:1 69401:1 69567:1 69865:1 70639:1 70829:1 70862:1 71708:1 72081:1 72158:1 72579:1 72798:1 73754:1 74982:1 75112:1 76004:1 76205:1 76220:1 76390:1 77351:1 77495:1 77942:1 79075:1 85368:1 85605:1 85660:1 85796:1 85877:1 86791:1 87222:1 88042:1 89851:1 90777:1 90996:1 91762:1 92180:1 92648:1 92754:1 92892:1 93667:1 95887:1 96067:1 97507:1 97689:1 98558:1 99103:1 100353:1 100380:1 #
0.0092457176404683316661703429417685 17:1 30:1 4043:1 7017:1 10573:1 15463:1 53764:1 60769:1 72044:1 87756:1 90426:1 91437:1 95196:1 99622:1 100607:1 100640:1 100829:1 #
0.0092457176404683316661703429417685 28:1 30:1 10573:1 12215:1 30025:1 40535:1 41277:1 43002:1 48862:1 50122:1 60769:1 64809:1 79466:1 85613:1 90468:1 91093:1 97417:1 98093:1 99355:1 100607:1 #
0.0092457176404683316661703429417685 28:1 30:1 2291:1 3374:1 3484:1 3833:1 8689:1 10573:1 11520:1 11544:1 13248:1 13274:1 13736:1 15454:1 15733:1 22430:1 27604:1 27724:1 30959:1 31069:1 35402:1 41277:1 53737:1 67596:1 68551:1 70551:1 72044:1 72339:1 72349:1 77931:1 90426:1 100607:1 100640:1 #
-0.0017753885813393517970060209165695 28:1 29:1 30:1 31:1 32:1 2274:1 5514:1 7062:1 8842:1 10494:1 10497:1 10573:1 12672:1 12839:1 13434:1 13858:1 14059:1 14223:1 16626:1 16781:1 18054:1 18133:1 18223:1 20642:1 21748:1 24642:1 24994:1 25471:1 25909:1 26078:1 26254:1 26450:1 28381:1 30266:1 31962:1 32166:1 32226:1 34668:1 34778:1 35661:1 35672:1 35929:1 36285:1 36519:1 39683:1 41198:1 41277:1 41750:1 42115:1 42571:1 43082:1 45996:1 50428:1 51084:1 51867:1 54878:1 55722:1 57012:1 57189:1 58551:1 64058:1 64240:1 65188:1 65593:1 65612:1 66042:1 66229:1 66305:1 67150:1 67953:1 68369:1 69410:1 71039:1 71103:1 72044:1 75372:1 75847:1 78456:1 79092:1 79804:1 79834:1 80819:1 82716:1 83370:1 83599:1 84070:1 84420:1 85441:1 86159:1 86857:1 87219:1 90007:1 93054:1 93224:1 94829:1 94856:1 94904:1 95894:1 97075:1 98017:1 99003:1 99529:1 99610:1 99622:1 100514:1 100868:1 101565:1 #
-0.0092457176404683316661703429417685 28:1 29:1 30:1 10494:1 10572:1 10573:1 10580:1 10787:1 10847:1 11067:1 11074:1 11146:1 11160:1 11397:1 11551:1 12839:1 13116:1 13241:1 13291:1 13736:1 13858:1 14405:1 14622:1 15067:1 15454:1 15578:1 15733:1 15886:1 16054:1 16055:1 17830:1 17924:1 18012:1 18243:1 19505:1 20986:1 20987:1 21636:1 21748:1 22262:1 22371:1 22850:1 23840:1 25259:1 26125:1 26352:1 26625:1 26782:1 26977:1 27462:1 27487:1 27583:1 30431:1 31324:1 32257:1 32272:1 32557:1 32645:1 33514:1 34961:1 35443:1 36096:1 36109:1 36897:1 38708:1 41277:1 42059:1 42428:1 42633:1 46049:1 46225:1 46316:1 46327:1 46783:1 49096:1 49183:1 49905:1 49973:1 50638:1 50930:1 51692:1 52059:1 52235:1 55079:1 56617:1 57476:1 57666:1 59154:1 59371:1 59421:1 60396:1 61165:1 61166:1 63277:1 66042:1 66061:1 66083:1 67104:1 67260:1 67596:1 67602:1 67616:1 67698:1 68051:1 68111:1 68163:1 68551:1 69218:1 69852:1 70520:1 70793:1 72044:1 72606:1 73712:1 74027:1 74246:1 74264:1 74555:1 74557:1 76808:1 76918:1 77103:1 77691:1 77727:1 77735:1 78399:1 78408:1 78518:1 78761:1 78838:1 78840:1 79105:1 80981:1 80983:1 80988:1 81562:1 82394:1 82410:1 82768:1 84058:1 84376:1 84383:1 85373:1 85452:1 85473:1 86152:1 86957:1 87756:1 87919:1 88379:1 88514:1 88520:1 89221:1 89700:1 90027:1 90446:1 90468:1 90499:1 90511:1 90622:1 90645:1 90718:1 90783:1 90855:1 91093:1 91328:1 91437:1 91657:1 93271:1 94532:1 94545:1 94619:1 94639:1 94694:1 94856:1 94909:1 95894:1 97627:1 97687:1 98132:1 98462:1 98559:1 98729:1 99074:1 100607:1 100640:1 #
-0.0092457176404683316661703429417685 24:1 25:1 27:1 29:1 30:1 31:1 32:1 5910:1 7968:1 8842:1 9501:1 10494:1 10497:1 10573:1 18054:1 22286:1 22371:1 36519:1 42520:1 44213:1 44214:1 53875:1 57489:1 65322:1 65683:1 70078:1 71039:1 84070:1 95894:1 96591:1 97627:1 100150:1 100640:1 #
-0.0092457176404683316661703429417685 17:1 22:1 23:1 24:1 25:1 26:1 28:1 29:1 30:1 31:1 920:1 1949:1 2274:1 2275:1 2866:1 2873:1 2908:1 3020:1 4043:1 5245:1 6077:1 6084:1 10494:1 10497:1 10498:1 10499:1 10573:1 10718:1 11351:1 11390:1 11544:1 11727:1 11743:1 12249:1 13481:1 13517:1 13736:1 13858:1 14405:1 15257:1 15415:1 15737:1 15754:1 15886:1 16064:1 16160:1 16333:1 16464:1 16750:1 16781:1 16873:1 17228:1 17830:1 20769:1 21831:1 22109:1 23332:1 23724:1 23753:1 24068:1 24281:1 24930:1 25602:1 26078:1 26395:1 26907:1 27390:1 28055:1 28710:1 29092:1 30195:1 30250:1 30297:1 31437:1 32521:1 33135:1 33615:1 33967:1 34713:1 37075:1 38176:1 38317:1 38570:1 38712:1 38809:1 38818:1 39719:1 39739:1 39777:1 40183:1 40277:1 40898:1 40994:1 41277:1 41298:1 41424:1 41453:1 42059:1 42328:1 43261:1 43804:1 44045:1 44223:1 44549:1 45081:1 46466:1 46547:1 47314:1 48172:1 48350:1 48388:1 48703:1 48945:1 49183:1 49386:1 49503:1 49776:1 49905:1 49973:1 50056:1 50638:1 50684:1 51151:1 51408:1 51545:1 51938:1 52059:1 53737:1 53824:1 53949:1 54432:1 54519:1 55722:1 56662:1 56795:1 57319:1 57418:1 58080:1 58650:1 59016:1 59560:1 59564:1 60522:1 61431:1 61669:1 61731:1 62152:1 62162:1 62357:1 63146:1 64073:1 64478:1 65063:1 65145:1 66042:1 66532:1 67104:1 67160:1 67166:1 67596:1 67698:1 67843:1 67874:1 68372:1 68551:1 68579:1 69413:1 69696:1 70193:1 70900:1 71564:1 72044:1 72416:1 73625:1 74090:1 74136:1 74246:1 74264:1 74654:1 75909:1 76957:1 77041:1 77092:1 77283:1 77670:1 77698:1 77727:1 77735:1 78150:1 78436:1 78438:1 78761:1 78967:1 79368:1 80501:1 80869:1 80891:1 81180:1 82370:1 82410:1 82733:1 82956:1 83370:1 84427:1 85826:1 85828:1 87359:1 87365:1 87399:1 87706:1 87730:1 89010:1 89051:1 89432:1 89471:1 89775:1 89778:1 90400:1 90410:1 90468:1 90622:1 90718:1 91437:1 91476:1 93190:1 94532:1 94619:1 94829:1 96109:1 97429:1 98268:1 98462:1 98705:1 98729:1 99057:1 99208:1 99529:1 100607:1 #
-0.0092457176404683316661703429417685 17:1 29:1 10494:1 10573:1 10981:1 12990:1 15886:1 18879:1 19177:1 19280:1 25683:1 29299:1 29335:1 32163:1 38773:1 38972:1 39145:1 42226:1 48442:1 51550:1 52235:1 57578:1 60769:1 61312:1 63025:1 67104:1 72044:1 72980:1 76395:1 78150:1 82435:1 83105:1 86093:1 86357:1 87436:1 90057:1 90718:1 91030:1 91180:1 96384:1 98217:1 #
0.0033963729247203670522092799899383 17:1 22:1 23:1 24:1 25:1 26:1 27:1 28:1 29:1 30:1 31:1 32:1 292:1 775:1 2275:1 2291:1 3606:1 5245:1 5603:1 8173:1 8665:1 8855:1 8914:1 8976:1 10494:1 10495:1 10499:1 10572:1 10573:1 10580:1 10847:1 10958:1 11455:1 11609:1 11904:1 12850:1 13517:1 13858:1 14405:1 15372:1 15396:1 15454:1 15886:1 17512:1 17653:1 18555:1 18892:1 19643:1 20166:1 21562:1 21600:1 21663:1 21748:1 22109:1 22262:1 22469:1 22718:1 23787:1 23840:1 24851:1 26078:1 26248:1 26254:1 26400:1 27462:1 27584:1 27588:1 28201:1 29902:1 29971:1 30229:1 30702:1 31192:1 31638:1 31899:1 32715:1 32759:1 32761:1 33137:1 33375:1 33549:1 34786:1 34793:1 35249:1 35667:1 36096:1 36151:1 37531:1 38087:1 38091:1 38506:1 39303:1 39312:1 39720:1 40234:1 40367:1 41277:1 42285:1 42428:1 43464:1 43477:1 43611:1 44045:1 46188:1 46302:1 46316:1 46783:1 47464:1 47711:1 48097:1 48388:1 49183:1 49645:1 49905:1 50405:1 50638:1 50991:1 51151:1 51157:1 51158:1 51161:1 51195:1 51196:1 51419:1 51777:1 51875:1 51876:1 52059:1 52196:1 52204:1 52235:1 52264:1 52657:1 53355:1 53362:1 55079:1 55088:1 55092:1 56008:1 56185:1 56191:1 56502:1 56680:1 57241:1 57418:1 57470:1 57476:1 57507:1 57666:1 58065:1 58153:1 58599:1 59016:1 59174:1 59202:1 59308:1 59353:1 59560:1 59569:1 59937:1 60817:1 61520:1 61637:1 62040:1 62263:1 63146:1 64809:1 65145:1 65188:1 65375:1 65621:1 66159:1 66172:1 66301:1 67104:1 67171:1 67596:1 67616:1 67672:1 67734:1 67924:1 68051:1 68111:1 68551:1 68579:1 68636:1 69149:1 69636:1 69856:1 72044:1 72174:1 72414:1 74005:1 74136:1 74555:1 74948:1 75898:1 76165:1 76187:1 76725:1 76802:1 76825:1 76826:1 76833:1 76892:1 77181:1 77789:1 77874:1 77998:1 78173:1 78239:1 78410:1 78510:1 78786:1 79158:1 79326:1 79564:1 79573:1 79599:1 80869:1 82435:1 82624:1 82956:1 83060:1 84230:1 85426:1 86145:1 86188:1 86635:1 86754:1 87892:1 88081:1 88483:1 88915:1 89878:1 89920:1 90335:1 90400:1 90446:1 90468:1 90511:1 90527:1 90541:1 90584:1 90645:1 90718:1 91093:1 91437:1 91687:1 92093:1 92192:1 92452:1 93588:1 94017:1 94538:1 94829:1 94909:1 96220:1 96452:1 97627:1 97687:1 97730:1 97731:1 97866:1 98316:1 98462:1 98729:1 99074:1 99131:1 99529:1 100607:1 100640:1 #
0.0020622571474350247580642481182167 2:1 17:1 18:1 23:1 24:1 25:1 26:1 27:1 28:1 29:1 30:1 31:1 32:1 33:1 348:1 527:1 773:1 1190:1 2274:1 2277:1 3143:1 4043:1 4285:1 10494:1 10499:1 10572:1 10573:1 10578:1 10580:1 11067:1 11073:1 11140:1 11146:1 11485:1 11563:1 11912:1 12839:1 12844:1 12990:1 13116:1 13241:1 13345:1 13736:1 13858:1 14405:1 14417:1 14472:1 14682:1 14971:1 15067:1 15454:1 15886:1 16036:1 16314:1 16464:1 17830:1 18012:1 18038:1 18120:1 20146:1 20260:1 20889:1 21248:1 21256:1 21328:1 21600:1 21748:1 22135:1 22262:1 22597:1 22825:1 22859:1 23117:1 23481:1 23547:1 23840:1 24281:1 25180:1 25265:1 26078:1 26202:1 26212:1 26243:1 26248:1 26363:1 26743:1 27145:1 27218:1 27462:1 27877:1 27914:1 28201:1 28275:1 28439:1 28735:1 28880:1 28938:1 28946:1 29474:1 30120:1 30122:1 30431:1 30483:1 31238:1 31331:1 31887:1 33011:1 33434:1 33847:1 33866:1 34786:1 35249:1 35252:1 35254:1 36096:1 36681:1 36797:1 38170:1 38500:1 38506:1 38704:1 39142:1 40256:1 40535:1 40634:1 41096:1 41277:1 41598:1 41599:1 41852:1 42059:1 42452:1 43889:1 44026:1 44218:1 45686:1 46082:1 46225:1 46316:1 46463:1 46477:1 46783:1 46799:1 46927:1 47240:1 47476:1 47955:1 48343:1 48355:1 48383:1 48388:1 49047:1 49109:1 49905:1 49973:1 50638:1 50975:1 51550:1 51868:1 52059:1 52235:1 52607:1 52690:1 52768:1 52855:1 53172:1 53235:1 54009:1 54046:1 54345:1 56090:1 56185:1 57319:1 57476:1 57489:1 57578:1 57760:1 57968:1 58215:1 59075:1 59080:1 59308:1 59353:1 59406:1 59421:1 59425:1 59492:1 59560:1 59564:1 60396:1 61410:1 61431:1 62070:1 62094:1 62767:1 63146:1 63277:1 63576:1 63799:1 64204:1 65013:1 65063:1 65068:1 65128:1 65145:1 65203:1 65206:1 65646:1 65683:1 65701:1 66172:1 66309:1 66425:1 66537:1 66560:1 67104:1 67166:1 67596:1 67602:1 67672:1 67843:1 68051:1 68163:1 68192:1 68478:1 68870:1 69141:1 69205:1 69697:1 69852:1 69888:1 69890:1 69892:1 70520:1 71969:1 72635:1 72708:1 72748:1 72936:1 73645:1 73873:1 73999:1 74197:1 74204:1 74291:1 74632:1 74964:1 74967:1 75909:1 76599:1 76802:1 76811:1 76833:1 77103:1 77975:1 77976:1 78391:1 78408:1 78730:1 78747:1 80665:1 80670:1 80869:1 82105:1 82107:1 82110:1 82273:1 82394:1 82410:1 82708:1 82933:1 82936:1 82948:1 82956:1 83760:1 83895:1 83960:1 84075:1 84376:1 85665:1 85801:1 86541:1 86737:1 87016:1 87251:1 87264:1 87783:1 87791:1 87994:1 88205:1 88501:1 88789:1 89000:1 89010:1 89166:1 89775:1 89778:1 89966:1 90053:1 90424:1 90446:1 90468:1 90511:1 90718:1 91437:1 91476:1 92580:1 92650:1 93899:1 94260:1 94491:1 94619:1 94671:1 94867:1 94878:1 94885:1 95706:1 95894:1 95896:1 96174:1 96980:1 97318:1 97627:1 97687:1 97769:1 97853:1 97866:1 98093:1 98164:1 98268:1 98531:1 98559:1 98729:1 98755:1 99131:1 99333:1 99338:1 99529:1 100640:1 100983:1 101398:1 #
-0.0078842329740734240495214635302546 17:1 23:1 24:1 25:1 28:1 29:1 30:1 31:1 2274:1 3020:1 6096:1 10494:1 10499:1 10573:1 10580:1 10583:1 13172:1 13360:1 13858:1 14192:1 16019:1 16843:1 18012:1 18047:1 19730:1 20146:1 20286:1 20293:1 20959:1 26125:1 26947:1 29099:1 32186:1 33474:1 33752:1 37408:1 39842:1 40535:1 41277:1 42010:1 43932:1 44386:1 45703:1 46082:1 46316:1 46327:1 46463:1 46767:1 48148:1 48388:1 48862:1 51550:1 52059:1 52235:1 52283:1 56179:1 56584:1 58211:1 61636:1 62388:1 63834:1 64129:1 65013:1 66079:1 66172:1 67104:1 67443:1 67616:1 68579:1 71104:1 71543:1 74005:1 79925:1 79949:1 80869:1 83085:1 83691:1 83760:1 84263:1 84295:1 85152:1 85272:1 87050:1 87990:1 90446:1 90468:1 90541:1 90622:1 90818:1 91093:1 91116:1 91437:1 91657:1 92488:1 92536:1 92789:1 94829:1 94830:1 95931:1 96606:1 97417:1 97866:1 98729:1 99164:1 #
0.0052179409529158884625821279712454 20:1 21:1 24:1 25:1 28:1 30:1 31:1 774:1 1440:1 1541:1 1697:1 2275:1 2860:1 2991:1 3374:1 4043:1 4168:1 5245:1 6095:1 6421:1 7061:1 7968:1 8842:1 8843:1 9501:1 10573:1 10580:1 13736:1 13858:1 14423:1 15067:1 15454:1 16510:1 19974:1 20146:1 30503:1 33615:1 34979:1 36057:1 36519:1 36928:1 37356:1 38118:1 39176:1 40535:1 41277:1 42059:1 42285:1 43531:1 44833:1 49183:1 49761:1 49905:1 51681:1 51704:1 52059:1 55079:1 56930:1 58394:1 60769:1 62031:1 62094:1 62581:1 63834:1 63835:1 64129:1 64809:1 64854:1 65013:1 65357:1 67104:1 67845:1 68051:1 68551:1 73472:1 74291:1 82627:1 86586:1 87919:1 90433:1 90446:1 90468:1 92008:1 94619:1 94909:1 95366:1 96512:1 97627:1 98729:1 99622:1 100326:1 100336:1 100607:1 #
0.0092457176404683316661703429417685 17:1 18:1 23:1 28:1 29:1 30:1 10499:1 10573:1 10580:1 13191:1 13736:1 13858:1 14045:1 15454:1 15642:1 16635:1 20146:1 20286:1 20713:1 21748:1 21757:1 22262:1 22781:1 23842:1 28888:1 28954:1 30560:1 30575:1 33641:1 34208:1 36736:1 38213:1 39819:1 44310:1 44386:1 44989:1 45703:1 46463:1 48201:1 49183:1 51550:1 52235:1 54836:1 56179:1 57650:1 57927:1 58339:1 59426:1 59552:1 60400:1 61891:1 63128:1 63146:1 66172:1 67104:1 67437:1 67596:1 69827:1 70520:1 72044:1 72597:1 72790:1 73980:1 75222:1 78067:1 79415:1 79436:1 79466:1 79635:1 79966:1 81032:1 81570:1 83249:1 83250:1 85152:1 85452:1 85549:1 87264:1 87636:1 87919:1 89051:1 90446:1 90468:1 90511:1 90527:1 90541:1 90645:1 90718:1 90786:1 91437:1 91885:1 92789:1 97219:1 97221:1 97225:1 97417:1 97866:1 97908:1 97926:1 98093:1 98132:1 98268:1 99208:1 100607:1 100640:1 #
-0.0092457176404683316661703429417685 18:1 23:1 24:1 25:1 28:1 29:1 30:1 773:1 1190:1 1837:1 2274:1 5246:1 6095:1 7061:1 7968:1 8679:1 8842:1 10573:1 10580:1 12185:1 12194:1 12262:1 12990:1 13291:1 13736:1 13858:1 14192:1 14625:1 14933:1 15068:1 15886:1 16032:1 16333:1 16464:1 16943:1 17090:1 17701:1 17830:1 18038:1 18120:1 18178:1 18296:1 18357:1 18643:1 19138:1 19375:1 21600:1 21748:1 22109:1 22119:1 22262:1 22597:1 22724:1 22764:1 22950:1 23514:1 24306:1 25180:1 25297:1 25558:1 27587:1 27831:1 27848:1 28277:1 28583:1 28814:1 30596:1 30792:1 31810:1 32186:1 32835:1 33069:1 33847:1 35443:1 35549:1 35624:1 35694:1 38779:1 38801:1 38804:1 39513:1 40483:1 40490:1 40517:1 40535:1 40689:1 41277:1 41304:1 41454:1 41606:1 42059:1 43019:1 43531:1 43874:1 43889:1 44549:1 44866:1 45081:1 45442:1 45703:1 45864:1 46046:1 46225:1 46316:1 46342:1 46548:1 47710:1 48067:1 48599:1 48862:1 49089:1 49599:1 49602:1 49802:1 49905:1 50026:1 50284:1 50638:1 50814:1 50816:1 52059:1 52176:1 52177:1 52235:1 52306:1 52657:1 53824:1 54582:1 54694:1 55092:1 56173:1 56493:1 56495:1 56617:1 57235:1 57282:1 57293:1 57472:1 57991:1 58333:1 58391:1 60894:1 61731:1 61798:1 61993:1 62171:1 62213:1 62736:1 63191:1 63229:1 63399:1 63402:1 64736:1 64737:1 64811:1 64883:1 65188:1 65439:1 65505:1 65683:1 65955:1 66042:1 66425:1 67104:1 67124:1 67596:1 67616:1 67850:1 68051:1 68189:1 68579:1 69317:1 69318:1 69374:1 69813:1 70419:1 70520:1 71264:1 72012:1 72433:1 72790:1 72833:1 73334:1 76140:1 76259:1 77295:1 78052:1 78586:1 78782:1 78787:1 78935:1 80540:1 80649:1 81032:1 81858:1 81874:1 82297:1 82353:1 82410:1 82992:1 83020:1 83060:1 83438:1 83444:1 83742:1 83790:1 84418:1 85002:1 85005:1 85343:1 85345:1 85668:1 85686:1 86129:1 86181:1 86492:1 87434:1 87540:1 88144:1 88532:1 89051:1 89221:1 89366:1 90230:1 90400:1 90446:1 90468:1 90527:1 90584:1 90645:1 90691:1 90718:1 90785:1 90786:1 91116:1 91437:1 91544:1 91646:1 91871:1 92292:1 92662:1 92971:1 94282:1 94632:1 94862:1 94909:1 96171:1 96270:1 96352:1 97377:1 97417:1 97543:1 97648:1 97772:1 97926:1 98093:1 98132:1 98158:1 98164:1 98268:1 98428:1 98462:1 98658:1 98729:1 99208:1 99215:1 99216:1 100228:1 100232:1 100251:1 100812:1 #
0.0082442743576185660570043722827904 28:1 30:1 1759:1 2038:1 10494:1 10573:1 17830:1 27673:1 33847:1 42896:1 61508:1 70551:1 76802:1 90400:1 90468:1 90718:1 94532:1 98462:1 #
-0.0092457176404683316661703429417685 17:1 28:1 30:1 773:1 3897:1 4398:1 10573:1 11906:1 13191:1 13858:1 16506:1 17830:1 17832:1 17924:1 18317:1 28735:1 33375:1 35244:1 36096:1 39771:1 40677:1 41846:1 46316:1 49183:1 51074:1 52059:1 58170:1 60873:1 61716:1 65683:1 66042:1 66099:1 67104:1 67596:1 68478:1 71906:1 71910:1 72044:1 73223:1 73418:1 77093:1 77727:1 78398:1 82435:1 82948:1 87786:1 90446:1 90468:1 90718:1 91437:1 97310:1 98729:1 100607:1 100640:1 #
0.0092457176404683316661703429417685 17:1 18:1 20:1 21:1 22:1 23:1 24:1 25:1 28:1 29:1 30:1 31:1 33:1 589:1 773:1 1029:1 1190:1 1942:1 2134:1 2268:1 2273:1 2276:1 2277:1 2967:1 3572:1 3959:1 4044:1 4168:1 4767:1 5824:1 5975:1 7092:1 8412:1 9702:1 10494:1 10497:1 10498:1 10499:1 10572:1 10573:1 10580:1 10847:1 10861:1 11520:1 12215:1 12558:1 12599:1 12618:1 12720:1 12730:1 12787:1 12990:1 13191:1 13241:1 13452:1 13502:1 13736:1 13858:1 13966:1 14405:1 14576:1 15067:1 15604:1 15886:1 16612:1 16622:1 17003:1 17701:1 17924:1 18243:1 18555:1 18889:1 19172:1 19815:1 19974:1 20128:1 20132:1 20775:1 21546:1 21600:1 21748:1 21831:1 22092:1 22093:1 22159:1 22262:1 22371:1 22548:1 22597:1 22966:1 23481:1 23840:1 24068:1 24436:1 24471:1 24843:1 24930:1 25180:1 25252:1 25382:1 25610:1 26078:1 26102:1 26794:1 28621:1 28702:1 28735:1 28845:1 28865:1 29033:1 29765:1 29842:1 29853:1 30141:1 30229:1 30250:1 30420:1 30431:1 31068:1 31614:1 31709:1 31735:1 31748:1 32208:1 33162:1 33375:1 33401:1 33549:1 33615:1 33787:1 34148:1 34498:1 34549:1 34710:1 34786:1 36096:1 36736:1 36881:1 37624:1 38207:1 38325:1 38383:1 38433:1 38674:1 38712:1 38893:1 38936:1 39303:1 39361:1 39420:1 39422:1 39423:1 39652:1 39760:1 39826:1 40191:1 40289:1 40398:1 40422:1 40619:1 40841:1 41020:1 41022:1 41151:1 41277:1 41586:1 41846:1 41945:1 42059:1 42428:1 42467:1 42509:1 42958:1 43531:1 43532:1 43886:1 44320:1 44386:1 44700:1 44833:1 45262:1 45974:1 46316:1 46503:1 46548:1 46783:1 46927:1 47293:1 47464:1 48097:1 48113:1 48150:1 48173:1 48201:1 48388:1 48703:1 48875:1 49183:1 49467:1 49469:1 49538:1 49905:1 49973:1 50059:1 50060:1 50393:1 50638:1 51307:1 51545:1 52059:1 52116:1 52235:1 52248:1 52503:1 52601:1 53116:1 53824:1 54660:1 55722:1 55872:1 56128:1 56507:1 56547:1 56584:1 56858:1 57319:1 57418:1 57594:1 57650:1 57760:1 58123:1 58170:1 58220:1 58324:1 58419:1 58446:1 58464:1 59221:1 59225:1 59308:1 59348:1 59421:1 59426:1 60529:1 60807:1 61165:1 61167:1 61418:1 61594:1 61850:1 61961:1 61970:1 62094:1 63146:1 63591:1 64736:1 65145:1 65188:1 65249:1 65439:1 65454:1 65639:1 66042:1 66159:1 66172:1 66516:1 66583:1 66956:1 66975:1 67104:1 67124:1 67138:1 67150:1 67596:1 67616:1 67698:1 68008:1 68051:1 68275:1 68478:1 68551:1 68579:1 68628:1 68974:1 69141:1 69149:1 70341:1 70596:1 71866:1 71991:1 72044:1 72272:1 72826:1 73754:1 73911:1 73914:1 74197:1 74199:1 74246:1 74365:1 74942:1 75140:1 75909:1 76583:1 76843:1 77092:1 77099:1 77727:1 78085:1 78389:1 78629:1 78719:1 78721:1 78784:1 79159:1 79248:1 79466:1 79476:1 80089:1 80091:1 80279:1 80302:1 80306:1 80340:1 80597:1 80869:1 81086:1 81093:1 81231:1 81522:1 81938:1 82383:1 82410:1 82435:1 82579:1 82768:1 82948:1 83053:1 83302:1 83691:1 83753:1 84012:1 84376:1 85152:1 85452:1 85470:1 85850:1 86145:1 86489:1 86766:1 86819:1 87730:1 87746:1 87791:1 88125:1 88186:1 88553:1 89051:1 89700:1 90426:1 90446:1 90468:1 90645:1 90697:1 90718:1 90783:1 90855:1 90968:1 91093:1 91437:1 91924:1 91997:1 92002:1 92075:1 92350:1 92354:1 92355:1 92362:1 92370:1 92435:1 92583:1 93183:1 93190:1 93217:1 94116:1 94227:1 94491:1 94619:1 94638:1 94829:1 95196:1 95366:1 95616:1 95642:1 96316:1 96452:1 97310:1 97325:1 97417:1 97461:1 97627:1 97769:1 98093:1 98138:1 98158:1 98164:1 98175:1 98462:1 98705:1 98729:1 98786:1 99131:1 99529:1 99585:1 100607:1 100640:1 100671:1 101600:1 #
0.0092457176404683316661703429417685 28:1 29:1 30:1 10573:1 10580:1 11048:1 11523:1 18555:1 18842:1 22262:1 22430:1 48862:1 49183:1 52059:1 61013:1 66042:1 68051:1 68551:1 70551:1 71684:1 76583:1 77905:1 80005:1 85152:1 88783:1 90446:1 90468:1 94632:1 101235:1 #
0.0074415657898266969125233849524648 18:1 23:1 24:1 25:1 28:1 29:1 30:1 31:1 5696:1 10494:1 10497:1 10499:1 10573:1 10580:1 10787:1 10847:1 11067:1 11409:1 11918:1 12839:1 13230:1 13241:1 13858:1 15067:1 15454:1 15574:1 15604:1 15754:1 15886:1 16464:1 16612:1 17830:1 18012:1 18555:1 22137:1 22635:1 25270:1 26078:1 26363:1 26448:1 26531:1 27532:1 29376:1 30122:1 31628:1 31868:1 35402:1 36410:1 36526:1 36599:1 36821:1 38458:1 38506:1 38709:1 38732:1 40532:1 41277:1 41548:1 41606:1 41846:1 41998:1 42059:1 42633:1 45831:1 46316:1 46319:1 48388:1 49089:1 49183:1 49602:1 49905:1 50405:1 51336:1 51739:1 52059:1 52235:1 53362:1 53824:1 55079:1 56498:1 56983:1 56994:1 56996:1 57418:1 57578:1 57760:1 58211:1 58220:1 59406:1 59957:1 60396:1 61165:1 61167:1 61431:1 62214:1 63277:1 65063:1 65145:1 65249:1 66061:1 67104:1 67596:1 67616:1 67698:1 67924:1 68051:1 68551:1 68725:1 69813:1 69913:1 71918:1 72044:1 72790:1 73467:1 74038:1 74163:1 74344:1 74352:1 74632:1 74643:1 74781:1 75768:1 77335:1 77726:1 77727:1 77735:1 77950:1 78150:1 78389:1 78730:1 79466:1 79572:1 80869:1 82273:1 82733:1 82948:1 82956:1 84208:1 84376:1 85152:1 85668:1 85969:1 85971:1 85972:1 86485:1 86717:1 86935:1 87558:1 87730:1 88379:1 89051:1 89221:1 89228:1 89250:1 89700:1 90038:1 90426:1 90446:1 90468:1 90718:1 91437:1 91476:1 92773:1 94491:1 94829:1 97543:1 97627:1 97641:1 97687:1 98093:1 98158:1 98462:1 98622:1 98709:1 98729:1 99131:1 99529:1 100336:1 100391:1 100607:1 100640:1 #
0.0036758143121361532001944993908182 17:1 18:1 20:1 22:1 23:1 24:1 25:1 28:1 29:1 30:1 34:1 773:1 774:1 793:1 805:1 1223:1 1542:1 1949:1 2275:1 2291:1 3050:1 4044:1 5583:1 6610:1 8229:1 10494:1 10572:1 10573:1 10574:1 10576:1 10578:1 10580:1 10847:1 11074:1 11152:1 11200:1 11523:1 12086:1 12254:1 12990:1 13360:1 13527:1 13736:1 13792:1 13858:1 14405:1 14417:1 15067:1 15454:1 15574:1 15688:1 15886:1 16052:1 16168:1 16506:1 16618:1 17250:1 17512:1 17830:1 18012:1 18120:1 18978:1 21656:1 21748:1 23117:1 25252:1 26078:1 26313:1 26352:1 26363:1 26395:1 26400:1 26459:1 26535:1 26652:1 26785:1 26838:1 26959:1 26989:1 27149:1 27397:1 27462:1 27488:1 27612:1 27912:1 27914:1 28292:1 28735:1 29474:1 29476:1 29904:1 30120:1 30229:1 30555:1 30996:1 31067:1 31788:1 31792:1 31868:1 32649:1 32984:1 32987:1 33174:1 33375:1 33474:1 33514:1 34710:1 34786:1 35254:1 35310:1 35443:1 36057:1 36345:1 36549:1 36976:1 37549:1 38388:1 38506:1 38735:1 40355:1 40367:1 41277:1 41846:1 42059:1 42277:1 42428:1 42472:1 42506:1 42896:1 43272:1 43531:1 45269:1 46225:1 46316:1 46927:1 47314:1 47703:1 49183:1 49602:1 49905:1 49912:1 49973:1 50242:1 50615:1 50638:1 51242:1 51704:1 52059:1 52201:1 52235:1 52306:1 53362:1 56495:1 57109:1 57319:1 57418:1 57470:1 57578:1 59308:1 59348:1 59353:1 59426:1 59937:1 60396:1 60610:1 61431:1 63146:1 64240:1 64913:1 65145:1 65683:1 65929:1 65957:1 66042:1 66102:1 66581:1 66747:1 66769:1 66777:1 66778:1 66844:1 66889:1 67104:1 67124:1 67168:1 67341:1 67554:1 67596:1 67646:1 67698:1 68051:1 68111:1 68189:1 68243:1 68478:1 68551:1 69230:1 69697:1 69784:1 70078:1 70619:1 70704:1 72044:1 72046:1 72416:1 72597:1 73193:1 73467:1 73722:1 73911:1 73928:1 74120:1 74136:1 74280:1 74291:1 74556:1 74632:1 74633:1 74643:1 74948:1 74967:1 75180:1 75909:1 76585:1 76608:1 76609:1 76610:1 76611:1 76835:1 76868:1 77092:1 77093:1 77097:1 77163:1 77235:1 77529:1 77689:1 78003:1 78006:1 78391:1 78398:1 78461:1 78462:1 78518:1 78594:1 78629:1 78632:1 78789:1 78883:1 78884:1 79105:1 79466:1 79476:1 80017:1 80869:1 81281:1 82410:1 82619:1 82708:1 82716:1 82768:1 82948:1 82956:1 82992:1 83242:1 83760:1 84376:1 85152:1 85665:1 85668:1 86635:1 86637:1 87399:1 87446:1 87730:1 87785:1 87786:1 87792:1 87919:1 88647:1 89392:1 89700:1 90424:1 90426:1 90446:1 90468:1 90511:1 90584:1 90645:1 90706:1 90718:1 90914:1 91093:1 91437:1 91697:1 92488:1 93243:1 94491:1 94829:1 94837:1 94878:1 94885:1 94888:1 94909:1 94998:1 95004:1 95484:1 95616:1 95823:1 96452:1 96835:1 97389:1 97417:1 97479:1 97687:1 98175:1 98278:1 98462:1 98705:1 98729:1 99208:1 100150:1 100336:1 100590:1 100607:1 100640:1 #
0.0090475270573270958479605852176064 24:1 25:1 28:1 29:1 30:1 10499:1 10573:1 10580:1 10847:1 11520:1 14423:1 15067:1 15454:1 29405:1 38170:1 41277:1 44310:1 46316:1 47173:1 49183:1 50544:1 52235:1 52720:1 55079:1 58394:1 60396:1 65020:1 65683:1 70520:1 78730:1 83715:1 84663:1 85425:1 85452:1 88323:1 90157:1 90584:1 90718:1 90790:1 91437:1 94856:1 97627:1 98093:1 98268:1 100640:1 #
-0.0092457176404683316661703429417685 17:1 28:1 30:1 10573:1 15067:1 15886:1 33375:1 34232:1 35962:1 41277:1 46927:1 52059:1 65639:1 67142:1 67672:1 78323:1 79466:1 81522:1 85152:1 91437:1 97627:1 100640:1 #
-0.0092457176404683316661703429417685 17:1 23:1 28:1 29:1 30:1 31:1 2867:1 8855:1 10494:1 10573:1 13858:1 17258:1 19027:1 21748:1 23274:1 24068:1 24930:1 26078:1 28735:1 32575:1 33615:1 44541:1 45694:1 47460:1 48082:1 48388:1 49905:1 51686:1 60769:1 63907:1 67812:1 68974:1 70139:1 82619:1 85459:1 86197:1 86541:1 89051:1 90468:1 91437:1 93932:1 96975:1 97310:1 99529:1 100640:1 #
-0.0092457176404683316661703429417685 28:1 29:1 30:1 1313:1 3696:1 5639:1 5831:1 9099:1 9866:1 10494:1 10572:1 10573:1 10787:1 13132:1 14405:1 15372:1 18038:1 19571:1 21656:1 25417:1 29403:1 33375:1 36096:1 38207:1 40326:1 43886:1 45703:1 45771:1 52235:1 56153:1 56578:1 56930:1 57666:1 59776:1 60396:1 62680:1 63360:1 65013:1 66083:1 66132:1 67934:1 69697:1 69856:1 69979:1 71264:1 73999:1 75222:1 75926:1 78805:1 81562:1 82460:1 84698:1 85647:1 86631:1 87919:1 88379:1 89260:1 90511:1 90718:1 90785:1 90855:1 94829:1 97417:1 97543:1 97650:1 97926:1 98428:1 99057:1 99131:1 100591:1 #
0.0092457176404683316661703429417685 17:1 28:1 29:1 10573:1 27081:1 33632:1 67596:1 74362:1 79863:1 96308:1 97866:1 100640:1 #
0.0092457176404683316661703429417685 19:1 30:1 137:1 780:1 4200:1 4592:1 10573:1 10847:1 16781:1 21831:1 25577:1 34959:1 41277:1 54504:1 57991:1 63109:1 69086:1 76122:1 86126:1 90433:1 90468:1 91342:1 92608:1 97627:1 99622:1 #
0.0085306069491545757216277579004782 30:1 10573:1 14405:1 36599:1 49183:1 49506:1 52235:1 55079:1 56930:1 60769:1 74005:1 79105:1 82435:1 90468:1 93379:1 97327:1 98729:1 100607:1 #
-5.1144771449007048560488064570251e-05 17:1 21:1 28:1 30:1 8843:1 10573:1 10580:1 12213:1 12709:1 13858:1 17830:1 18788:1 30229:1 36765:1 44833:1 46316:1 46767:1 52059:1 57266:1 59764:1 60971:1 65357:1 68551:1 68725:1 71473:1 73957:1 76139:1 76196:1 81509:1 83691:1 88443:1 96591:1 96635:1 96638:1 98462:1 98729:1 100607:1 #
0.001294105883578339222239605987852 29:1 30:1 31:1 291:1 773:1 1541:1 2643:1 8842:1 10494:1 10495:1 10498:1 10573:1 10575:1 13855:1 16613:1 22092:1 30141:1 31763:1 40256:1 40326:1 48143:1 48144:1 52140:1 58056:1 61435:1 65683:1 66633:1 69692:1 72734:1 81758:1 81760:1 86721:1 93230:1 95475:1 97969:1 #
-0.0092457176404683316661703429417685 17:1 23:1 28:1 30:1 10573:1 13858:1 17951:1 18555:1 22262:1 23305:1 33375:1 36678:1 39989:1 41277:1 42059:1 43320:1 43531:1 46225:1 46316:1 46927:1 49905:1 62945:1 65128:1 66042:1 67132:1 67437:1 70520:1 76802:1 78594:1 80869:1 81938:1 82435:1 85278:1 85459:1 90468:1 90527:1 91437:1 91651:1 98268:1 99131:1 100607:1 100630:1 #
-0.0092457176404683316661703429417685 20:1 23:1 26:1 30:1 6097:1 10499:1 10573:1 10580:1 13517:1 13858:1 18555:1 22597:1 23481:1 31395:1 39076:1 41277:1 42059:1 43531:1 43715:1 47780:1 52059:1 58450:1 64538:1 65311:1 68051:1 69410:1 78594:1 80869:1 88475:1 89212:1 90468:1 96920:1 98164:1 100640:1 #
-0.0092457176404683316661703429417685 18:1 23:1 24:1 25:1 27:1 28:1 29:1 30:1 31:1 32:1 227:1 1029:1 1350:1 2140:1 2873:1 4043:1 6095:1 6335:1 6611:1 6973:1 7457:1 8843:1 9112:1 10494:1 10573:1 10574:1 10576:1 11570:1 15886:1 22262:1 28702:1 31748:1 37553:1 38367:1 38515:1 39514:1 40256:1 41173:1 41175:1 41277:1 42059:1 45703:1 53718:1 59308:1 61431:1 65013:1 67104:1 68243:1 68655:1 70692:1 74064:1 76038:1 76967:1 77093:1 79023:1 80869:1 82435:1 82984:1 86155:1 89051:1 90468:1 92182:1 92905:1 93595:1 94878:1 95455:1 97417:1 98175:1 99346:1 #
-0.0092457176404683316661703429417685 23:1 28:1 30:1 2274:1 10573:1 12624:1 13858:1 16781:1 17576:1 18555:1 24207:1 26125:1 27776:1 29081:1 30823:1 37790:1 41606:1 42059:1 42571:1 43531:1 44496:1 46767:1 49183:1 49905:1 58326:1 64550:1 66079:1 68243:1 78805:1 90038:1 90468:1 90541:1 91437:1 92536:1 92672:1 92789:1 95616:1 97543:1 100607:1 #
0.0026948896417223764179760259196428 17:1 18:1 20:1 23:1 24:1 25:1 28:1 29:1 30:1 31:1 34:1 291:1 527:1 773:1 774:1 1029:1 1949:1 2140:1 2274:1 2277:1 4043:1 4521:1 5245:1 5696:1 6095:1 6097:1 7061:1 7968:1 8842:1 9501:1 10494:1 10572:1 10573:1 10580:1 10847:1 11048:1 11055:1 11295:1 11397:1 11448:1 12215:1 12217:1 12480:1 12526:1 12709:1 12990:1 13120:1 13241:1 13291:1 13414:1 13720:1 13736:1 13858:1 14269:1 14338:1 14657:1 14844:1 15067:1 15454:1 15886:1 16320:1 17076:1 17830:1 17924:1 18120:1 18172:1 18177:1 19935:1 19974:1 20037:1 20146:1 20148:1 20979:1 21203:1 21600:1 21748:1 22207:1 22643:1 23128:1 23213:1 23810:1 24336:1 25004:1 25009:1 25014:1 25317:1 26431:1 26511:1 26648:1 26846:1 27267:1 27436:1 28041:1 28110:1 28275:1 29454:1 29677:1 30527:1 30617:1 32595:1 33549:1 33615:1 33847:1 34786:1 35150:1 35293:1 35402:1 35826:1 36838:1 37075:1 37076:1 37450:1 38170:1 38232:1 38388:1 39176:1 39361:1 39439:1 40398:1 40412:1 40722:1 41277:1 41549:1 41991:1 41998:1 42059:1 42353:1 42428:1 42918:1 43261:1 43272:1 44447:1 44465:1 44466:1 44549:1 44839:1 45395:1 45703:1 46148:1 46151:1 46225:1 46463:1 46655:1 46927:1 46990:1 47240:1 47427:1 47460:1 47703:1 47713:1 48130:1 48150:1 49254:1 49255:1 49437:1 49438:1 49599:1 49628:1 49905:1 50082:1 50164:1 50179:1 50418:1 50574:1 51419:1 51550:1 51652:1 52059:1 52235:1 53290:1 53835:1 54395:1 55079:1 56090:1 56153:1 56304:1 56495:1 56617:1 57224:1 57332:1 58147:1 58211:1 58326:1 58419:1 59308:1 59552:1 60396:1 60894:1 61891:1 62031:1 62105:1 62730:1 62945:1 62986:1 63408:1 63491:1 64809:1 65952:1 66042:1 66061:1 66083:1 66897:1 67104:1 67160:1 67380:1 67596:1 67616:1 67698:1 67812:1 67838:1 68551:1 68579:1 68757:1 68759:1 68974:1 69813:1 70942:1 71857:1 72044:1 72192:1 72433:1 72470:1 72597:1 72938:1 73002:1 73625:1 73629:1 73760:1 74556:1 76356:1 76802:1 76808:1 77093:1 77293:1 77909:1 78050:1 78251:1 78486:1 78597:1 80649:1 80869:1 81545:1 81574:1 82485:1 82703:1 82705:1 82930:1 83760:1 84132:1 84230:1 84254:1 84263:1 84268:1 84828:1 85152:1 85452:1 86079:1 86991:1 87124:1 87264:1 87730:1 87808:1 88121:1 88410:1 88944:1 89051:1 89221:1 90094:1 90446:1 90468:1 90511:1 90527:1 90584:1 90591:1 90645:1 90689:1 90718:1 90785:1 90786:1 90855:1 91196:1 91437:1 91447:1 92414:1 92733:1 92748:1 94121:1 94830:1 95406:1 95743:1 96109:1 96206:1 96826:1 96832:1 96850:1 96860:1 97310:1 97325:1 97377:1 97417:1 97779:1 97866:1 97926:1 98093:1 98132:1 98164:1 98175:1 98268:1 98462:1 98974:1 99098:1 99208:1 100150:1 100326:1 100607:1 100640:1 100667:1 101241:1 #
0.0034923492800798105334392218424 17:1 18:1 23:1 24:1 25:1 28:1 29:1 30:1 31:1 225:1 1190:1 1541:1 2274:1 2291:1 5514:1 10494:1 10495:1 10499:1 10572:1 10573:1 10574:1 10576:1 10580:1 10772:1 10847:1 11081:1 11255:1 11258:1 12215:1 12303:1 12480:1 12990:1 13190:1 13191:1 13565:1 13736:1 13858:1 14426:1 15067:1 15253:1 15283:1 15454:1 15574:1 15578:1 15788:1 15835:1 15886:1 16150:1 16387:1 16622:1 16801:1 16810:1 16843:1 17309:1 17361:1 17830:1 17874:1 17924:1 17958:1 18038:1 19143:1 19178:1 19410:1 19420:1 19570:1 19954:1 20842:1 21087:1 21402:1 21600:1 21636:1 21656:1 21748:1 22135:1 22199:1 22262:1 22548:1 22722:1 22747:1 22789:1 23004:1 23846:1 24196:1 24295:1 24306:1 26078:1 26430:1 27787:1 27795:1 28227:1 28275:1 28277:1 28387:1 28690:1 28824:1 28988:1 29072:1 29751:1 30176:1 30177:1 30229:1 31422:1 31660:1 32115:1 32116:1 32186:1 32433:1 32575:1 33375:1 33514:1 33615:1 33847:1 34050:1 34692:1 34702:1 34786:1 38170:1 38761:1 39303:1 39771:1 39782:1 40398:1 40412:1 40483:1 40535:1 40787:1 41243:1 41277:1 41981:1 42059:1 42072:1 42102:1 42287:1 42506:1 42747:1 42826:1 43002:1 43531:1 44218:1 44373:1 44386:1 44406:1 44496:1 44802:1 44833:1 44866:1 45024:1 45771:1 45835:1 45909:1 45996:1 46316:1 46503:1 46547:1 46560:1 46811:1 46927:1 47404:1 47477:1 47780:1 47822:1 47871:1 47951:1 48027:1 48143:1 48150:1 48388:1 48441:1 48446:1 48862:1 48977:1 49183:1 49905:1 51077:1 52059:1 52073:1 52235:1 53400:1 53646:1 53746:1 53824:1 54345:1 54660:1 54717:1 55079:1 55228:1 55780:1 56179:1 56551:1 56930:1 57241:1 57319:1 57516:1 57560:1 57650:1 57760:1 59016:1 59308:1 59353:1 59421:1 59426:1 59435:1 60026:1 60314:1 60396:1 60406:1 60769:1 60795:1 61431:1 61465:1 61998:1 62357:1 62883:1 62899:1 62945:1 63095:1 63146:1 63296:1 63304:1 64006:1 64611:1 64809:1 65128:1 65188:1 65439:1 66470:1 67104:1 67124:1 67380:1 67437:1 67446:1 67596:1 67602:1 67616:1 67698:1 67968:1 68051:1 68243:1 68372:1 68974:1 69086:1 69813:1 69933:1 70785:1 71425:1 71426:1 71666:1 72044:1 72192:1 73760:1 75186:1 75222:1 76808:1 76833:1 79466:1 80649:1 80869:1 80983:1 81192:1 81424:1 81562:1 81570:1 81855:1 81898:1 82435:1 82708:1 82768:1 83076:1 83613:1 83617:1 83667:1 83687:1 83688:1 83753:1 83760:1 83782:1 83948:1 84295:1 84311:1 84698:1 84701:1 85152:1 85189:1 85452:1 85473:1 85491:1 85538:1 86078:1 86235:1 86579:1 86726:1 86819:1 87192:1 87195:1 87219:1 87237:1 87399:1 87615:1 87730:1 88489:1 88661:1 89051:1 89228:1 89524:1 89555:1 89686:1 89799:1 90446:1 90468:1 90511:1 90527:1 90541:1 90584:1 90622:1 90645:1 90689:1 90718:1 90783:1 90785:1 90855:1 90996:1 91093:1 91211:1 91437:1 91482:1 91657:1 92105:1 92121:1 92909:1 93018:1 93112:1 93156:1 94532:1 94619:1 94988:1 95177:1 95671:1 95931:1 96153:1 96707:1 97219:1 97225:1 97310:1 97311:1 97318:1 97461:1 97474:1 97543:1 97554:1 97627:1 97866:1 98093:1 98132:1 98153:1 98268:1 98302:1 98389:1 98661:1 98729:1 98755:1 98974:1 98978:1 99065:1 99074:1 99098:1 99131:1 99211:1 100168:1 100326:1 100350:1 100607:1 100627:1 100640:1 #
-0.0012490863479616462049931469024955 23:1 29:1 31:1 587:1 4043:1 7968:1 10494:1 10499:1 10573:1 10580:1 10986:1 11048:1 12215:1 12330:1 12849:1 13191:1 13850:1 14715:1 15310:1 16627:1 17830:1 18012:1 19187:1 19414:1 19461:1 21209:1 21748:1 22719:1 23923:1 24126:1 25252:1 26002:1 26236:1 28301:1 28474:1 29254:1 29751:1 30141:1 30397:1 32788:1 32796:1 32970:1 33375:1 38318:1 40919:1 41006:1 41991:1 43329:1 44506:1 46225:1 46927:1 49183:1 49461:1 49485:1 49905:1 50932:1 51336:1 51736:1 51740:1 53289:1 59767:1 64043:1 66042:1 70004:1 73274:1 76274:1 77757:1 80543:1 80675:1 82875:1 84435:1 86487:1 88548:1 90446:1 90468:1 90645:1 91437:1 92267:1 98149:1 98705:1 100607:1 #
-0.0043286404743168695533062084734865 28:1 29:1 30:1 10573:1 10580:1 12990:1 13109:1 13360:1 13858:1 15454:1 17830:1 18962:1 22390:1 22632:1 23821:1 25252:1 29791:1 30560:1 32732:1 33695:1 36797:1 38848:1 39320:1 39561:1 41277:1 43531:1 44833:1 46791:1 46927:1 47951:1 48201:1 48862:1 49432:1 51550:1 52059:1 52235:1 53290:1 56058:1 57319:1 58419:1 58464:1 60769:1 60807:1 60969:1 62355:1 62883:1 63676:1 64129:1 64811:1 65013:1 65683:1 67596:1 68111:1 68551:1 68579:1 71855:1 73564:1 73760:1 73873:1 74606:1 74703:1 78533:1 79025:1 79466:1 81855:1 83588:1 85549:1 87597:1 89212:1 89260:1 90426:1 90468:1 90645:1 90691:1 91437:1 91476:1 92747:1 94619:1 95931:1 97627:1 98093:1 98729:1 99649:1 100103:1 100607:1 100640:1 100667:1 #
0.0092457176404683316661703429417685 19:1 20:1 23:1 24:1 25:1 28:1 29:1 30:1 773:1 774:1 1029:1 1363:1 3484:1 4043:1 4238:1 4306:1 4910:1 4918:1 5066:1 5170:1 5305:1 6095:1 7061:1 7401:1 9408:1 9501:1 10054:1 10263:1 10494:1 10497:1 10573:1 14363:1 16199:1 17090:1 22266:1 32760:1 37861:1 42059:1 49905:1 50153:1 50585:1 54195:1 56909:1 59016:1 59937:1 61809:1 67104:1 68239:1 69639:1 70233:1 70551:1 72174:1 73087:1 77252:1 77519:1 79093:1 80869:1 81231:1 82792:1 82823:1 85339:1 90718:1 91437:1 91802:1 97627:1 100386:1 100776:1 #
-0.0020622961667134450530758371655793 17:1 18:1 20:1 23:1 24:1 25:1 28:1 29:1 30:1 31:1 774:1 813:1 3374:1 3484:1 7107:1 7137:1 7435:1 8844:1 8957:1 10494:1 10573:1 10580:1 11263:1 11267:1 11379:1 11902:1 11906:1 12215:1 12990:1 13360:1 13514:1 13736:1 13858:1 14192:1 15067:1 15268:1 15571:1 15732:1 15886:1 17830:1 17951:1 18555:1 18630:1 19962:1 19974:1 20003:1 21599:1 21600:1 21748:1 22109:1 23848:1 23890:1 25252:1 28704:1 29842:1 30020:1 30229:1 30412:1 30738:1 34599:1 34786:1 34793:1 35295:1 35445:1 35557:1 36361:1 36496:1 37337:1 39237:1 39238:1 40277:1 41277:1 41590:1 41846:1 42059:1 43531:1 43547:1 43715:1 43886:1 44007:1 44218:1 44845:1 45101:1 45104:1 46053:1 46316:1 46368:1 46927:1 48520:1 48862:1 49064:1 49073:1 49389:1 49905:1 50056:1 50059:1 50918:1 51027:1 51408:1 51550:1 52059:1 55061:1 56497:1 56816:1 56983:1 57241:1 57418:1 58211:1 59308:1 61431:1 61747:1 62094:1 63146:1 63277:1 63317:1 63318:1 64006:1 64129:1 64407:1 64522:1 65128:1 65145:1 65249:1 67104:1 67124:1 67160:1 67596:1 67616:1 68051:1 68111:1 68551:1 68655:1 68757:1 68759:1 69218:1 69836:1 70520:1 72936:1 73469:1 73625:1 74018:1 74163:1 74942:1 75222:1 75926:1 76046:1 76833:1 76854:1 77155:1 77975:1 78209:1 78586:1 78725:1 80869:1 81180:1 81192:1 81872:1 82273:1 82397:1 82435:1 82627:1 82677:1 82994:1 83362:1 83386:1 84354:1 85372:1 85385:1 85452:1 85828:1 85850:1 86541:1 86721:1 87251:1 87579:1 87887:1 88015:1 88323:1 88493:1 89700:1 89816:1 90426:1 90468:1 90511:1 90622:1 90645:1 90718:1 90783:1 91437:1 91476:1 95366:1 96162:1 96445:1 97328:1 97429:1 97543:1 97627:1 98132:1 98268:1 98462:1 98693:1 98729:1 99220:1 100378:1 100607:1 100640:1 100679:1 101215:1 101217:1 #
-0.0092457176404683316661703429417685 19:1 20:1 21:1 24:1 25:1 26:1 27:1 28:1 29:1 30:1 445:1 1190:1 1238:1 1541:1 2041:1 2088:1 2291:1 4043:1 4815:1 7061:1 7737:1 7841:1 7844:1 8842:1 9186:1 9501:1 9777:1 10572:1 10573:1 10580:1 11067:1 11419:1 11486:1 13671:1 13858:1 16464:1 16948:1 18755:1 21208:1 21562:1 23615:1 23746:1 24258:1 26078:1 26556:1 27267:1 27462:1 27705:1 29474:1 30555:1 33619:1 33891:1 34930:1 36928:1 36960:1 38864:1 38877:1 39782:1 39841:1 40819:1 41277:1 41846:1 44549:1 44833:1 46122:1 47240:1 48097:1 48100:1 48862:1 49389:1 49905:1 51419:1 53824:1 57991:1 60456:1 61013:1 61970:1 62184:1 65249:1 65983:1 66002:1 66633:1 67104:1 67124:1 67596:1 67698:1 68051:1 68551:1 69644:1 71918:1 76239:1 76583:1 76585:1 78721:1 78819:1 79663:1 80192:1 81093:1 81449:1 82948:1 83704:1 83904:1 84376:1 85728:1 85942:1 86338:1 86754:1 88475:1 89212:1 89539:1 90468:1 91848:1 96400:1 98132:1 98729:1 99158:1 99529:1 100640:1 #
-0.0031432929573914957302460670973687 17:1 18:1 24:1 25:1 26:1 27:1 28:1 29:1 30:1 31:1 33:1 34:1 348:1 461:1 528:1 1697:1 1949:1 2873:1 2939:1 3511:1 4168:1 4569:1 4581:1 5514:1 5655:1 5771:1 5995:1 6086:1 6095:1 6529:1 6579:1 6705:1 7302:1 7606:1 8057:1 8272:1 8474:1 8528:1 8541:1 8844:1 9168:1 9304:1 9501:1 9505:1 9537:1 10143:1 10438:1 10494:1 10499:1 10572:1 10573:1 10579:1 10580:1 11170:1 11523:1 11563:1 11570:1 11878:1 11927:1 12215:1 12247:1 12254:1 12990:1 13620:1 13640:1 13858:1 14405:1 14772:1 14815:1 15067:1 15454:1 15571:1 16025:1 16070:1 16571:1 16612:1 16781:1 17112:1 17608:1 17830:1 18012:1 18054:1 19907:1 21748:1 22865:1 23018:1 23023:1 23840:1 25004:1 25009:1 25012:1 25014:1 25270:1 25577:1 25790:1 26078:1 26652:1 27086:1 27251:1 27478:1 27852:1 28741:1 30259:1 31216:1 31324:1 31348:1 31428:1 31950:1 33375:1 33787:1 33967:1 34032:1 34045:1 34097:1 34162:1 34163:1 34393:1 34786:1 35624:1 36096:1 36919:1 38073:1 39237:1 39584:1 39638:1 39900:1 40053:1 40256:1 40326:1 40535:1 41277:1 41606:1 42059:1 42353:1 42433:1 43097:1 43648:1 45586:1 45636:1 45642:1 46316:1 46733:1 47139:1 47502:1 48539:1 49718:1 49905:1 50615:1 51408:1 52059:1 53383:1 54304:1 54345:1 54413:1 56179:1 58265:1 58347:1 58366:1 58673:1 60821:1 62031:1 62346:1 62472:1 63537:1 64006:1 64367:1 64692:1 65013:1 65034:1 65051:1 65249:1 65269:1 65611:1 66042:1 66095:1 66097:1 66425:1 67104:1 67171:1 67596:1 67602:1 68051:1 68478:1 68551:1 69311:1 69697:1 69726:1 69782:1 70078:1 70793:1 72044:1 72826:1 73940:1 74040:1 74042:1 74246:1 74362:1 74363:1 74365:1 75475:1 77103:1 77522:1 77538:1 77975:1 78085:1 78120:1 78789:1 81411:1 82410:1 82579:1 83304:1 83760:1 84268:1 84404:1 84429:1 85452:1 85549:1 88700:1 89000:1 89233:1 89878:1 90038:1 90400:1 90424:1 90446:1 90468:1 90584:1 90645:1 90718:1 90794:1 90855:1 90968:1 91069:1 91437:1 91802:1 91966:1 92192:1 93434:1 94572:1 94619:1 94885:1 95389:1 97233:1 97627:1 97687:1 97926:1 98164:1 98347:1 98462:1 98617:1 98622:1 98624:1 98729:1 98974:1 99131:1 99529:1 99622:1 100607:1 100640:1 100667:1 #
-0.0015128947911247244122873167881949 23:1 28:1 30:1 31:1 3606:1 10494:1 10573:1 13858:1 15067:1 15283:1 15571:1 17830:1 18012:1 23989:1 26078:1 30161:1 30575:1 33683:1 39771:1 41277:1 41846:1 42059:1 43531:1 43849:1 45502:1 46002:1 48089:1 48201:1 48388:1 48862:1 49183:1 49503:1 49905:1 51336:1 52235:1 56160:1 58160:1 58211:1 59016:1 59878:1 60491:1 60769:1 64129:1 65249:1 67672:1 76833:1 76868:1 80869:1 82284:1 82435:1 82948:1 85459:1 85473:1 90468:1 91437:1 95616:1 96452:1 97318:1 97694:1 98729:1 100607:1 #
-0.0042936790743215063129167852196133 23:1 26:1 28:1 30:1 31:1 34:1 1874:1 7842:1 8679:1 9501:1 10494:1 10573:1 10687:1 11364:1 11501:1 11523:1 11946:1 12185:1 12990:1 13858:1 14405:1 14684:1 15067:1 15454:1 16070:1 16618:1 17830:1 18012:1 18054:1 18243:1 18555:1 20146:1 20959:1 21992:1 22262:1 22643:1 23826:1 24068:1 25252:1 26539:1 26570:1 26652:1 28201:1 29405:1 32503:1 33870:1 34148:1 36057:1 39176:1 40264:1 41277:1 42059:1 42747:1 46082:1 46316:1 46927:1 48082:1 48201:1 49183:1 49905:1 49973:1 50502:1 50503:1 50505:1 50615:1 51116:1 51333:1 51419:1 52059:1 52235:1 55088:1 57326:1 59075:1 59948:1 60396:1 61431:1 63277:1 63410:1 63981:1 64728:1 65683:1 67104:1 67596:1 68051:1 68725:1 70139:1 70175:1 70838:1 72044:1 73636:1 74264:1 76772:1 76833:1 78150:1 80869:1 81648:1 83760:1 84099:1 85459:1 86308:1 87919:1 90446:1 90468:1 90527:1 90541:1 90584:1 90718:1 91437:1 94888:1 97075:1 97377:1 98462:1 98729:1 98755:1 100607:1 100640:1 #
0.0050693743304356863807469402161132 23:1 28:1 29:1 30:1 31:1 5245:1 8842:1 10494:1 10573:1 10580:1 10885:1 11067:1 11544:1 12990:1 13736:1 13858:1 14405:1 15031:1 15067:1 15397:1 15886:1 18555:1 22262:1 23913:1 24930:1 25326:1 25577:1 26395:1 26400:1 27907:1 31069:1 33375:1 33866:1 34899:1 35694:1 36096:1 39496:1 39578:1 39720:1 40367:1 41277:1 41410:1 41846:1 41886:1 42059:1 42285:1 46316:1 47780:1 48388:1 49183:1 49905:1 50060:1 51336:1 51740:1 52059:1 52235:1 54345:1 58073:1 64129:1 65145:1 65188:1 66172:1 67104:1 67138:1 67150:1 67596:1 68003:1 68051:1 68551:1 69205:1 69852:1 70193:1 72044:1 72192:1 73636:1 74197:1 77092:1 77522:1 77727:1 77942:1 77945:1 78150:1 78761:1 79000:1 79105:1 80869:1 82273:1 82948:1 82956:1 82992:1 84376:1 84418:1 85877:1 87791:1 88144:1 89212:1 90333:1 90468:1 90511:1 90718:1 90783:1 91093:1 91437:1 93190:1 93588:1 94619:1 94632:1 94804:1 94856:1 94883:1 94885:1 96032:1 96220:1 96565:1 97543:1 97601:1 97769:1 97772:1 98164:1 98748:1 99529:1 100326:1 100607:1 100640:1 100671:1 #
0.0092457176404683316661703429417685 30:1 10573:1 10580:1 10847:1 11067:1 14129:1 26400:1 42467:1 44218:1 46316:1 48862:1 49780:1 67104:1 68551:1 72044:1 90426:1 90468:1 91437:1 95931:1 96171:1 100607:1 #
0.0092457176404683316661703429417685 23:1 28:1 29:1 30:1 31:1 5245:1 8842:1 10494:1 10497:1 10573:1 10580:1 10885:1 11067:1 11544:1 12990:1 13736:1 13858:1 14405:1 15031:1 15067:1 15397:1 15886:1 18555:1 22262:1 23913:1 24930:1 25326:1 25577:1 26395:1 26400:1 27907:1 31069:1 33375:1 33866:1 34899:1 35694:1 36096:1 39496:1 39578:1 39720:1 40367:1 41277:1 41410:1 41846:1 41886:1 42059:1 42285:1 46316:1 47780:1 48388:1 49183:1 49905:1 50060:1 51336:1 51740:1 52059:1 52235:1 54345:1 58073:1 64129:1 65145:1 65188:1 66172:1 67104:1 67138:1 67150:1 67596:1 68003:1 68051:1 68551:1 69205:1 69852:1 70193:1 72044:1 72192:1 73636:1 74197:1 77092:1 77522:1 77727:1 77942:1 77945:1 78150:1 79000:1 79105:1 80869:1 82273:1 82948:1 82956:1 82992:1 84376:1 84418:1 85877:1 87791:1 88144:1 89212:1 90333:1 90468:1 90511:1 90718:1 90783:1 91093:1 91437:1 93190:1 93588:1 94619:1 94632:1 94804:1 94856:1 94883:1 94885:1 96032:1 96220:1 96565:1 97543:1 97601:1 97769:1 97772:1 98164:1 98748:1 99529:1 100326:1 100607:1 100640:1 100671:1 100704:1 #
-0.0092457176404683316661703429417685 23:1 28:1 30:1 10573:1 16843:1 17830:1 23001:1 26531:1 41277:1 43531:1 44505:1 46799:1 46927:1 47108:1 47951:1 48862:1 49183:1 52235:1 55079:1 56179:1 56930:1 57470:1 57760:1 60769:1 62921:1 64811:1 66172:1 67596:1 68111:1 78519:1 80649:1 80869:1 83016:1 90446:1 90468:1 90718:1 94619:1 98093:1 100607:1 100640:1 #
-0.0092457176404683316661703429417685 23:1 28:1 30:1 10573:1 16441:1 21530:1 24068:1 28002:1 30721:1 30823:1 33997:1 34206:1 43554:1 48862:1 49183:1 49905:1 52235:1 58220:1 60769:1 63836:1 67104:1 67432:1 67596:1 68243:1 68579:1 71855:1 80869:1 82905:1 89966:1 90446:1 90468:1 90541:1 90691:1 90718:1 91437:1 91544:1 94862:1 97310:1 97926:1 98093:1 98268:1 100607:1 100640:1 #
-0.0073787476271014425591165952766914 28:1 30:1 31:1 2291:1 4476:1 8500:1 10494:1 10499:1 10573:1 13858:1 14216:1 18012:1 24048:1 25267:1 26078:1 30702:1 33415:1 34226:1 34899:1 36134:1 38192:1 39504:1 40398:1 41277:1 44310:1 44386:1 44833:1 46225:1 46245:1 47240:1 48388:1 49183:1 49905:1 52059:1 52306:1 57418:1 58419:1 60907:1 60910:1 60927:1 64809:1 64825:1 65128:1 67104:1 67596:1 67672:1 67678:1 68119:1 68579:1 68663:1 73771:1 75768:1 75909:1 77092:1 78919:1 80808:1 81509:1 81516:1 82967:1 83704:1 84263:1 90424:1 90468:1 90541:1 91437:1 92414:1 92789:1 94829:1 97173:1 98316:1 99208:1 99529:1 100607:1 100640:1 #
-0.0092457176404683316661703429417685 24:1 25:1 28:1 29:1 30:1 31:1 4044:1 10494:1 10573:1 10580:1 11520:1 12332:1 13241:1 13360:1 13858:1 14423:1 15067:1 15454:1 15571:1 15886:1 16843:1 17830:1 18012:1 20146:1 21600:1 26078:1 30574:1 30575:1 31563:1 33375:1 33514:1 33632:1 33871:1 36096:1 38416:1 39989:1 41173:1 41277:1 43531:1 44310:1 44833:1 45686:1 45699:1 45701:1 46316:1 46927:1 47173:1 47951:1 48388:1 48862:1 49183:1 49905:1 51080:1 51336:1 52059:1 52235:1 52306:1 53824:1 54345:1 55079:1 56930:1 56957:1 57319:1 57470:1 57476:1 57584:1 58165:1 58419:1 59421:1 60769:1 61910:1 63065:1 63277:1 64129:1 65188:1 66172:1 67596:1 68194:1 68974:1 69205:1 69218:1 72044:1 72349:1 74830:1 82273:1 82708:1 83715:1 83964:1 83965:1 84376:1 85152:1 85470:1 85475:1 89212:1 90426:1 90468:1 90541:1 90718:1 91093:1 91437:1 93077:1 93899:1 94619:1 94909:1 95931:1 97311:1 97627:1 97730:1 97866:1 98251:1 98462:1 98705:1 98729:1 99074:1 99208:1 99529:1 100607:1 100640:1 #
0.0092457176404683316661703429417685 30:1 2274:1 10573:1 20779:1 41277:1 49905:1 59798:1 61013:1 62085:1 68551:1 73868:1 74456:1 #
0.0092457176404683316661703429417685 28:1 30:1 10573:1 27724:1 56028:1 61747:1 64879:1 67626:1 68551:1 70551:1 76583:1 91476:1 91648:1 #
0.0092457176404683316661703429417685 30:1 6095:1 10573:1 17830:1 24857:1 25188:1 27269:1 30102:1 37861:1 41277:1 48862:1 49905:1 52235:1 58170:1 59816:1 60116:1 61013:1 68051:1 68551:1 76163:1 83760:1 90400:1 90424:1 90718:1 91437:1 91476:1 91606:1 91657:1 100607:1 #
0.0092457176404683316661703429417685 17:1 30:1 10573:1 12990:1 25262:1 26078:1 27086:1 44833:1 46072:1 52855:1 53290:1 67596:1 74365:1 77103:1 91437:1 100640:1 #
-0.0072150369613462042236995408472922 29:1 30:1 1440:1 2860:1 5289:1 5881:1 6071:1 7311:1 9296:1 10494:1 10572:1 10573:1 13814:1 18841:1 20360:1 20484:1 23516:1 24195:1 28056:1 29342:1 32777:1 33795:1 34027:1 35926:1 36096:1 38800:1 42014:1 46628:1 47331:1 48522:1 49830:1 50331:1 52016:1 54401:1 58366:1 62680:1 64035:1 65013:1 65249:1 67930:1 70761:1 70793:1 71264:1 74464:1 76624:1 76810:1 81877:1 83424:1 83550:1 84327:1 86081:1 86853:1 86935:1 89266:1 89405:1 96184:1 #
-0.0092457176404683316661703429417685 28:1 29:1 30:1 10573:1 10580:1 13241:1 13736:1 13858:1 16464:1 17830:1 22371:1 24685:1 25096:1 32595:1 33431:1 33606:1 37943:1 46463:1 52059:1 52204:1 52235:1 54348:1 57012:1 57391:1 60894:1 66042:1 67104:1 67925:1 73914:1 87050:1 94261:1 96067:1 97228:1 98268:1 100640:1 #
-0.00095565108861902527386672501208409 20:1 23:1 24:1 25:1 28:1 29:1 30:1 31:1 34:1 773:1 774:1 775:1 790:1 1837:1 1949:1 2038:1 2276:1 2277:1 2514:1 3172:1 3966:1 4043:1 4143:1 4766:1 5919:1 6096:1 7061:1 7505:1 7723:1 8413:1 8842:1 9627:1 10494:1 10499:1 10572:1 10573:1 10580:1 11140:1 11523:1 11912:1 12063:1 12185:1 12332:1 12671:1 12990:1 13058:1 13172:1 13241:1 13620:1 13736:1 13858:1 13966:1 14213:1 14417:1 15067:1 15454:1 15614:1 15756:1 15886:1 16159:1 16843:1 17506:1 17830:1 18012:1 18060:1 18120:1 18555:1 18879:1 19047:1 20775:1 20779:1 20863:1 20959:1 20986:1 21562:1 21564:1 21748:1 22009:1 22262:1 22629:1 23547:1 23787:1 23788:1 23842:1 23846:1 23974:1 24281:1 24335:1 24436:1 24930:1 25252:1 25523:1 26078:1 26395:1 27436:1 27438:1 27439:1 27532:1 28676:1 28735:1 29477:1 29493:1 29842:1 30229:1 30431:1 31060:1 31069:1 31191:1 31788:1 32174:1 32312:1 32519:1 32713:1 32755:1 33072:1 33073:1 33375:1 33514:1 33766:1 33847:1 33853:1 34786:1 34793:1 35116:1 35252:1 35257:1 36096:1 36243:1 36420:1 36519:1 36937:1 37072:1 38176:1 38507:1 38668:1 38814:1 39171:1 39401:1 39718:1 40230:1 40347:1 40367:1 40532:1 40620:1 40898:1 41097:1 41099:1 41277:1 41543:1 41846:1 41998:1 42059:1 42179:1 43531:1 46225:1 46316:1 46927:1 47947:1 48021:1 48082:1 48201:1 48213:1 49183:1 49318:1 49757:1 49780:1 49905:1 50056:1 50151:1 50156:1 50405:1 50627:1 50638:1 50686:1 50884:1 51056:1 51074:1 51273:1 51532:1 51550:1 51739:1 52059:1 52204:1 52235:1 52306:1 52657:1 52690:1 53229:1 53362:1 53481:1 56153:1 56185:1 56242:1 56243:1 56347:1 56502:1 56988:1 57041:1 57470:1 57547:1 58211:1 58324:1 59308:1 59406:1 59560:1 59569:1 59937:1 59962:1 60396:1 60516:1 60808:1 60841:1 60873:1 61798:1 62014:1 62031:1 62039:1 62944:1 63065:1 63146:1 63399:1 63795:1 64356:1 65067:1 65145:1 65188:1 65214:1 65245:1 65363:1 66042:1 66956:1 66975:1 67104:1 67124:1 67147:1 67596:1 67672:1 68051:1 68163:1 68478:1 68481:1 68551:1 68579:1 68725:1 69230:1 69232:1 69419:1 69856:1 69858:1 70055:1 70073:1 70520:1 70562:1 70635:1 71253:1 71855:1 72044:1 73185:1 73193:1 73201:1 73472:1 73602:1 73731:1 74120:1 74123:1 74136:1 74557:1 74632:1 74639:1 74643:1 74969:1 74971:1 75054:1 75140:1 75210:1 75758:1 75814:1 75898:1 76599:1 76802:1 76808:1 76868:1 76924:1 77092:1 77206:1 77691:1 77727:1 78151:1 78402:1 78518:1 78789:1 78881:1 79076:1 79078:1 79476:1 80279:1 80869:1 82384:1 82388:1 82627:1 82768:1 82948:1 82956:1 82984:1 83903:1 84075:1 84140:1 84230:1 84263:1 84376:1 84383:1 84418:1 85278:1 85426:1 85647:1 85877:1 85942:1 85973:1 85977:1 86541:1 86837:1 87124:1 87251:1 87395:1 87399:1 87785:1 87786:1 87791:1 87792:1 87887:1 87888:1 87919:1 88105:1 89077:1 89088:1 89233:1 89775:1 89778:1 89921:1 90400:1 90424:1 90446:1 90468:1 90511:1 90622:1 90637:1 90645:1 90706:1 90718:1 90818:1 90838:1 90968:1 91116:1 91248:1 91437:1 91505:1 91700:1 91802:1 91871:1 92449:1 93190:1 93332:1 93898:1 93982:1 94379:1 94619:1 94638:1 94829:1 94885:1 94909:1 95366:1 95489:1 95744:1 95918:1 95931:1 96364:1 97232:1 97627:1 97712:1 97866:1 97926:1 97958:1 98093:1 98462:1 98729:1 99131:1 99208:1 100326:1 100336:1 100590:1 100607:1 100640:1 101618:1 #
0.0092457176404683316661703429417685 18:1 23:1 24:1 25:1 26:1 27:1 28:1 29:1 30:1 31:1 773:1 2291:1 5648:1 6095:1 6098:1 7740:1 9636:1 9679:1 10131:1 10494:1 10495:1 10499:1 10573:1 10580:1 10847:1 11073:1 11379:1 11407:1 11918:1 11940:1 12217:1 12360:1 12990:1 13241:1 13514:1 13736:1 13830:1 13858:1 14217:1 14749:1 15067:1 15397:1 15454:1 15574:1 15580:1 15886:1 16033:1 16035:1 16036:1 16199:1 16510:1 16574:1 16622:1 16843:1 16931:1 17046:1 17507:1 17830:1 18012:1 18243:1 18555:1 19337:1 20146:1 20722:1 21502:1 21600:1 21748:1 22119:1 22262:1 22371:1 22548:1 22632:1 22673:1 24078:1 24435:1 25305:1 25384:1 26078:1 26400:1 27267:1 28073:1 28864:1 28880:1 29019:1 30229:1 30685:1 31716:1 32186:1 33474:1 33615:1 34899:1 35811:1 35902:1 35906:1 37318:1 37840:1 38170:1 38207:1 39142:1 39143:1 39176:1 39231:1 39303:1 39548:1 39584:1 39690:1 39719:1 40221:1 40398:1 40503:1 40535:1 40728:1 41099:1 41159:1 41168:1 41298:1 41304:1 41306:1 41857:1 41991:1 42059:1 42074:1 42139:1 42640:1 43002:1 43531:1 43554:1 43895:1 46045:1 46047:1 46225:1 46316:1 46327:1 47476:1 47955:1 48388:1 48862:1 49183:1 49780:1 49905:1 49973:1 50238:1 50282:1 50292:1 52059:1 52204:1 52235:1 53824:1 54522:1 54638:1 55088:1 56153:1 56568:1 56909:1 56958:1 57470:1 57590:1 58211:1 58220:1 58326:1 58419:1 58421:1 58437:1 59202:1 59421:1 60396:1 60795:1 60807:1 62031:1 62391:1 63146:1 63277:1 63676:1 64006:1 64039:1 64129:1 64774:1 64878:1 64882:1 64884:1 65013:1 65188:1 65203:1 65214:1 65683:1 65983:1 66042:1 66172:1 66888:1 66923:1 67104:1 67260:1 67596:1 67616:1 67628:1 67629:1 68051:1 68478:1 68551:1 68974:1 69233:1 69610:1 69697:1 70520:1 70635:1 70785:1 71162:1 71264:1 72357:1 72393:1 73504:1 73712:1 74163:1 74422:1 75372:1 75898:1 75909:1 76599:1 76802:1 76854:1 77461:1 77949:1 77954:1 77988:1 78761:1 78784:1 79092:1 80869:1 80988:1 81032:1 81429:1 81562:1 81570:1 82273:1 82381:1 82435:1 82602:1 83040:1 84058:1 84085:1 84527:1 84850:1 85152:1 85453:1 85459:1 85470:1 86687:1 86761:1 86991:1 88379:1 89051:1 89212:1 89757:1 90424:1 90446:1 90468:1 90511:1 90540:1 90584:1 90645:1 90718:1 90783:1 90855:1 91093:1 91427:1 91437:1 91544:1 92249:1 92733:1 93644:1 93982:1 93985:1 93991:1 94436:1 94829:1 95616:1 95931:1 96151:1 96467:1 96478:1 96491:1 96981:1 97310:1 97543:1 97627:1 97687:1 97730:1 98093:1 98132:1 98268:1 98729:1 98755:1 99057:1 99178:1 99529:1 100326:1 100607:1 100640:1 #
0.0092457176404683316661703429417685 17:1 30:1 10573:1 13858:1 27086:1 38640:1 39990:1 43531:1 47951:1 48148:1 48862:1 58357:1 60807:1 62945:1 63146:1 67596:1 80044:1 90718:1 100607:1 100640:1 #
0.0092457176404683316661703429417685 28:1 30:1 10573:1 13792:1 14405:1 15733:1 17830:1 22262:1 23940:1 24517:1 42428:1 46927:1 48862:1 49183:1 52059:1 55079:1 56930:1 60769:1 66597:1 67104:1 78519:1 90468:1 97860:1 100607:1 #
0.0092457176404683316661703429417685 17:1 19:1 25:1 28:1 30:1 1949:1 6096:1 10494:1 10499:1 10573:1 20248:1 25194:1 30189:1 33847:1 36924:1 48862:1 59834:1 66042:1 67160:1 67550:1 67698:1 72458:1 83242:1 90785:1 91687:1 94671:1 97417:1 100640:1 #
-0.0092457176404683316661703429417685 23:1 10494:1 10573:1 10580:1 13460:1 16503:1 17469:1 18623:1 20111:1 24494:1 25374:1 25906:1 27620:1 28975:1 33615:1 36237:1 41991:1 44388:1 50546:1 59202:1 61848:1 62373:1 64809:1 77921:1 88951:1 89051:1 90770:1 96703:1 100607:1 #
0.0092457176404683316661703429417685 17:1 28:1 29:1 30:1 3021:1 3423:1 3914:1 10494:1 10499:1 10573:1 15454:1 18012:1 19954:1 29497:1 38192:1 42506:1 46316:1 47477:1 48862:1 52059:1 53535:1 62902:1 76918:1 90691:1 90718:1 91211:1 100607:1 #
-0.0092457176404683316661703429417685 5245:1 10573:1 10574:1 10576:1 76802:1 #
-0.0092457176404683316661703429417685 23:1 25:1 10494:1 10499:1 10573:1 10847:1 11540:1 25668:1 44386:1 45201:1 48442:1 50899:1 52235:1 64894:1 76802:1 80869:1 85152:1 89813:1 98093:1 #
0.0092457176404683316661703429417685 17:1 23:1 28:1 30:1 1350:1 2277:1 10494:1 10499:1 10573:1 10847:1 12990:1 13858:1 15082:1 15397:1 15756:1 21748:1 26482:1 31480:1 35213:1 37967:1 40398:1 41277:1 42059:1 43531:1 44386:1 46316:1 49060:1 49073:1 49183:1 49905:1 50638:1 51223:1 52235:1 56185:1 58220:1 58339:1 58631:1 59922:1 59937:1 62094:1 63406:1 65683:1 66159:1 67104:1 67596:1 68051:1 73636:1 75222:1 76802:1 77103:1 77977:1 78730:1 78805:1 78884:1 80869:1 82747:1 82984:1 87157:1 87219:1 87264:1 89051:1 89700:1 90468:1 90584:1 90622:1 90645:1 90692:1 91437:1 91651:1 92045:1 92452:1 95545:1 96452:1 96503:1 97667:1 98175:1 99057:1 100607:1 100640:1 #
